#mdl#2#741
#rdr#45/16/0
12:u00:%x[-4,0],
12:u01:%x[-3,0],
12:u02:%x[-2,0],
12:u03:%x[-1,0],
11:u04:%x[0,0],
11:u05:%x[1,0],
11:u06:%x[2,0],
11:u07:%x[3,0],
11:u08:%x[4,0],
12:u10:%x[-2,1],
12:u11:%x[-1,1],
11:u12:%x[0,1],
11:u13:%x[1,1],
11:u14:%x[2,1],
11:u20:%x[0,2],
11:u21:%x[0,3],
11:u22:%x[0,4],
11:u23:%x[0,5],
11:u30:%x[0,6],
11:u31:%x[0,7],
11:u32:%x[0,8],
11:u33:%x[0,9],
12:u40:%x[0,10],
12:u41:%x[1,10],
13:u42:%x[-1,10],
13:u43:%x[-2,10],
12:u50:%x[0,11],
13:u51:%x[-1,11],
12:u52:%x[1,11],
12:u60:%x[0,12],
13:u61:%x[-1,12],
12:u62:%x[1,12],
12:u70:%x[0,13],
13:u71:%x[-1,13],
12:u72:%x[1,13],
12:u73:%x[0,14],
13:u74:%x[-1,14],
12:u75:%x[1,14],
12:u70:%x[0,15],
13:u71:%x[-1,15],
12:u72:%x[1,15],
12:uD0:%x[0,16],
13:uD1:%x[-1,16],
12:uD2:%x[1,16],
1:b,
#qrk#9
13:I-<dateValue>,
11:<dateValue>,
7:<other>,
12:I-<dateFrom>,
10:I-<dateTo>,
12:I-<dateList>,
10:<dateList>,
8:<dateTo>,
10:<dateFrom>,
#qrk#4428
8:u00:_x-4,
8:u01:_x-3,
8:u02:_x-2,
8:u03:_x-1,
9:u04:March,
5:u05:3,
8:u06:1944,
8:u07:_x+1,
8:u08:_x+2,
8:u10:_x-2,
8:u11:_x-1,
9:u12:march,
5:u13:3,
8:u14:1944,
5:u20:M,
6:u21:Ma,
7:u22:Mar,
8:u23:Marc,
5:u30:h,
6:u31:ch,
7:u32:rch,
8:u33:arch,
11:u40:INITCAP,
10:u41:NOCAPS,
8:u42:_x-1,
8:u43:_x-2,
11:u50:NODIGIT,
8:u51:_x-1,
12:u52:ALLDIGIT,
5:u60:0,
8:u61:_x-1,
5:u62:1,
5:u70:0,
8:u71:_x-1,
5:u72:0,
5:u73:1,
8:u74:_x-1,
5:u75:0,
11:u70:NOPUNCT,
11:u72:NOPUNCT,
8:uD0:Xxxx,
8:uD1:_x-1,
5:uD2:d,
1:b,
8:u00:_x-3,
8:u01:_x-2,
8:u02:_x-1,
9:u03:March,
5:u04:3,
8:u05:1944,
8:u06:_x+1,
8:u07:_x+2,
8:u08:_x+3,
8:u10:_x-1,
9:u11:march,
5:u12:3,
8:u13:1944,
8:u14:_x+1,
5:u20:3,
5:u21:3,
5:u22:3,
5:u23:3,
5:u30:3,
5:u31:3,
5:u32:3,
5:u33:3,
10:u40:NOCAPS,
11:u42:INITCAP,
8:u43:_x-1,
12:u50:ALLDIGIT,
11:u51:NODIGIT,
5:u60:1,
5:u61:0,
5:u62:0,
5:u71:0,
5:u72:1,
5:u73:0,
5:u74:1,
11:u71:NOPUNCT,
5:uD0:d,
8:uD1:Xxxx,
8:uD2:dddd,
8:u00:_x-2,
8:u01:_x-1,
9:u02:March,
5:u03:3,
8:u04:1944,
8:u05:_x+1,
8:u06:_x+2,
8:u07:_x+3,
8:u08:_x+4,
9:u10:march,
5:u11:3,
8:u12:1944,
8:u13:_x+1,
8:u14:_x+2,
5:u20:1,
6:u21:19,
7:u22:194,
8:u23:1944,
5:u30:4,
6:u31:44,
7:u32:944,
8:u33:1944,
8:u41:_x+1,
10:u42:NOCAPS,
11:u43:INITCAP,
12:u51:ALLDIGIT,
8:u52:_x+1,
5:u61:1,
8:u62:_x+1,
5:u70:1,
8:u72:_x+1,
5:u74:0,
8:u75:_x+1,
8:uD0:dddd,
5:uD1:d,
8:uD2:_x+1,
7:u04:May,
6:u05:14,
8:u06:1943,
7:u12:may,
6:u13:14,
8:u14:1943,
7:u22:May,
7:u23:May,
5:u30:y,
6:u31:ay,
7:u32:May,
7:u33:May,
7:uD0:Xxx,
6:uD2:dd,
7:u03:May,
6:u04:14,
8:u05:1943,
7:u11:may,
6:u12:14,
8:u13:1943,
6:u21:14,
6:u22:14,
6:u23:14,
6:u31:14,
6:u32:14,
6:u33:14,
6:uD0:dd,
7:uD1:Xxx,
7:u02:May,
6:u03:14,
8:u04:1943,
7:u10:may,
6:u11:14,
8:u12:1943,
8:u23:1943,
6:u31:43,
7:u32:943,
8:u33:1943,
6:uD1:dd,
13:u04:September,
5:u05:9,
13:u12:september,
5:u13:9,
5:u20:S,
6:u21:Se,
7:u22:Sep,
8:u23:Sept,
5:u30:r,
6:u31:er,
7:u32:ber,
8:u33:mber,
13:u03:September,
5:u04:9,
13:u11:september,
5:u12:9,
5:u20:9,
5:u21:9,
5:u22:9,
5:u23:9,
5:u30:9,
5:u31:9,
5:u32:9,
5:u33:9,
13:u02:September,
5:u03:9,
13:u10:september,
5:u11:9,
9:u04:April,
6:u05:21,
8:u06:1945,
9:u12:april,
6:u13:21,
8:u14:1945,
5:u20:A,
6:u21:Ap,
7:u22:Apr,
8:u23:Apri,
5:u30:l,
6:u31:il,
7:u32:ril,
8:u33:pril,
9:u03:April,
6:u04:21,
8:u05:1945,
9:u11:april,
6:u12:21,
8:u13:1945,
5:u20:2,
6:u21:21,
6:u22:21,
6:u23:21,
5:u30:1,
6:u31:21,
6:u32:21,
6:u33:21,
9:u02:April,
6:u03:21,
8:u04:1945,
9:u10:april,
6:u11:21,
8:u12:1945,
8:u23:1945,
5:u30:5,
6:u31:45,
7:u32:945,
8:u33:1945,
6:u05:27,
6:u13:27,
6:u04:27,
6:u12:27,
6:u21:27,
6:u22:27,
6:u23:27,
5:u30:7,
6:u31:27,
6:u32:27,
6:u33:27,
6:u03:27,
6:u11:27,
6:u05:16,
6:u13:16,
6:u04:16,
6:u12:16,
6:u21:16,
6:u22:16,
6:u23:16,
5:u30:6,
6:u31:16,
6:u32:16,
6:u33:16,
6:u03:16,
6:u11:16,
6:u05:22,
6:u13:22,
6:u04:22,
6:u12:22,
6:u21:22,
6:u22:22,
6:u23:22,
5:u30:2,
6:u31:22,
6:u32:22,
6:u33:22,
6:u03:22,
6:u11:22,
6:u05:25,
6:u13:25,
6:u04:25,
6:u12:25,
6:u21:25,
6:u22:25,
6:u23:25,
6:u31:25,
6:u32:25,
6:u33:25,
6:u03:25,
6:u11:25,
5:u04:",
12:u05:February,
5:u06:6,
8:u07:1943,
8:u08:_x+1,
5:u12:",
12:u13:february,
5:u14:6,
5:u20:",
5:u21:",
5:u22:",
5:u23:",
5:u30:",
5:u31:",
5:u32:",
5:u33:",
11:u40:ALLCAPS,
11:u41:INITCAP,
11:u52:NODIGIT,
5:u75:1,
9:u70:QUOTE,
5:uD0:",
8:uD2:Xxxx,
5:u03:",
12:u04:February,
5:u05:6,
5:u11:",
12:u12:february,
5:u13:6,
5:u20:F,
6:u21:Fe,
7:u22:Feb,
8:u23:Febr,
6:u31:ry,
7:u32:ary,
8:u33:uary,
11:u42:ALLCAPS,
9:u71:QUOTE,
5:uD1:",
5:u02:",
12:u03:February,
5:u04:6,
5:u10:",
12:u11:february,
5:u12:6,
5:u20:6,
5:u21:6,
5:u22:6,
5:u23:6,
5:u31:6,
5:u32:6,
5:u33:6,
11:u43:ALLCAPS,
8:u00:_x-1,
5:u01:",
12:u02:February,
5:u03:6,
12:u10:february,
5:u11:6,
6:u05:15,
6:u13:15,
6:u04:15,
6:u12:15,
6:u21:15,
6:u22:15,
6:u23:15,
6:u31:15,
6:u32:15,
6:u33:15,
6:u03:15,
6:u11:15,
5:u05:7,
5:u13:7,
5:u04:7,
5:u12:7,
5:u20:7,
5:u21:7,
5:u22:7,
5:u23:7,
5:u31:7,
5:u32:7,
5:u33:7,
5:u03:7,
5:u11:7,
6:u05:24,
6:u13:24,
6:u04:24,
6:u12:24,
6:u21:24,
6:u22:24,
6:u23:24,
6:u31:24,
6:u32:24,
6:u33:24,
6:u03:24,
6:u11:24,
8:u04:1942,
8:u12:1942,
8:u23:1942,
6:u31:42,
7:u32:942,
8:u33:1942,
8:u04:1900,
5:u05:-,
8:u06:1950,
8:u12:1900,
5:u13:-,
8:u14:1950,
7:u22:190,
8:u23:1900,
5:u30:0,
6:u31:00,
7:u32:900,
8:u33:1900,
11:u41:ALLCAPS,
10:u72:HYPHEN,
5:uD2:-,
8:u03:1900,
5:u04:-,
8:u05:1950,
8:u11:1900,
5:u12:-,
8:u13:1950,
5:u20:-,
5:u21:-,
5:u22:-,
5:u23:-,
5:u30:-,
5:u31:-,
5:u32:-,
5:u33:-,
5:u71:1,
10:u70:HYPHEN,
5:uD0:-,
8:uD1:dddd,
8:u02:1900,
5:u03:-,
8:u04:1950,
8:u10:1900,
5:u11:-,
8:u12:1950,
7:u22:195,
8:u23:1950,
6:u31:50,
7:u32:950,
8:u33:1950,
10:u43:NOCAPS,
10:u71:HYPHEN,
5:uD1:-,
8:u05:1941,
5:u06:-,
6:u07:11,
5:u08:-,
8:u13:1941,
5:u14:-,
8:u04:1941,
6:u06:11,
5:u07:-,
6:u08:25,
8:u12:1941,
6:u14:11,
8:u23:1941,
6:u31:41,
7:u32:941,
8:u33:1941,
8:u03:1941,
6:u05:11,
6:u07:25,
8:u11:1941,
6:u13:11,
8:u02:1941,
6:u04:11,
6:u06:25,
8:u10:1941,
6:u12:11,
6:u14:25,
6:u21:11,
6:u22:11,
6:u23:11,
6:u31:11,
6:u32:11,
6:u33:11,
5:u00:",
8:u01:1941,
5:u02:-,
6:u03:11,
5:u10:-,
6:u11:11,
8:u00:1941,
5:u01:-,
6:u02:11,
6:u10:11,
8:u04:1880,
8:u06:2000,
8:u12:1880,
8:u14:2000,
6:u21:18,
7:u22:188,
8:u23:1880,
6:u31:80,
7:u32:880,
8:u33:1880,
8:u03:1880,
8:u05:2000,
8:u11:1880,
8:u13:2000,
8:u02:1880,
8:u04:2000,
8:u10:1880,
8:u12:2000,
6:u21:20,
7:u22:200,
8:u23:2000,
7:u32:000,
8:u33:2000,
8:u05:1940,
6:u07:10,
8:u13:1940,
8:u04:1940,
6:u06:10,
6:u08:28,
8:u12:1940,
6:u14:10,
8:u23:1940,
6:u31:40,
7:u32:940,
8:u33:1940,
8:u03:1940,
6:u05:10,
6:u07:28,
8:u11:1940,
6:u13:10,
8:u02:1940,
6:u04:10,
6:u06:28,
8:u10:1940,
6:u12:10,
6:u14:28,
6:u21:10,
6:u22:10,
6:u23:10,
6:u31:10,
6:u32:10,
6:u33:10,
8:u01:1940,
6:u03:10,
6:u05:28,
6:u11:10,
6:u13:28,
8:u00:1940,
6:u02:10,
6:u04:28,
6:u10:10,
6:u12:28,
6:u21:28,
6:u22:28,
6:u23:28,
5:u30:8,
6:u31:28,
6:u32:28,
6:u33:28,
5:u08:;,
5:u07:;,
8:u08:1944,
5:u06:;,
8:u07:1944,
5:u14:;,
5:u05:;,
6:u08:09,
5:u13:;,
9:u72:PUNCT,
5:uD2:;,
5:u00:-,
6:u01:10,
6:u03:28,
5:u04:;,
6:u07:09,
6:u11:28,
5:u12:;,
5:u20:;,
5:u21:;,
5:u22:;,
5:u23:;,
5:u30:;,
5:u31:;,
5:u32:;,
5:u33:;,
9:u70:PUNCT,
5:uD0:;,
6:u00:10,
6:u02:28,
5:u03:;,
6:u06:09,
6:u08:04,
6:u10:28,
5:u11:;,
6:u14:09,
9:u71:PUNCT,
5:uD1:;,
6:u01:28,
5:u02:;,
8:u03:1944,
6:u05:09,
6:u07:04,
5:u10:;,
8:u11:1944,
6:u13:09,
6:u00:28,
5:u01:;,
8:u02:1944,
6:u04:09,
6:u06:04,
8:u10:1944,
6:u12:09,
6:u14:04,
5:u20:0,
6:u21:09,
6:u22:09,
6:u23:09,
6:u31:09,
6:u32:09,
6:u33:09,
5:u00:;,
8:u01:1944,
6:u03:09,
6:u05:04,
6:u11:09,
6:u13:04,
8:u00:1944,
6:u02:09,
6:u04:04,
6:u10:09,
6:u12:04,
6:u21:04,
6:u22:04,
6:u23:04,
6:u31:04,
6:u32:04,
6:u33:04,
5:u05:(,
8:u07:1969,
5:u08:),
5:u13:(,
15:u72:OPENBRACKET,
5:uD2:(,
5:u04:(,
8:u06:1969,
5:u07:),
5:u12:(,
8:u14:1969,
5:u20:(,
5:u21:(,
5:u22:(,
5:u23:(,
5:u30:(,
5:u31:(,
5:u32:(,
5:u33:(,
15:u70:OPENBRACKET,
5:uD0:(,
5:u03:(,
8:u05:1969,
5:u06:),
5:u11:(,
8:u13:1969,
5:u14:),
15:u71:OPENBRACKET,
5:uD1:(,
5:u02:(,
8:u04:1969,
5:u05:),
5:u10:(,
8:u12:1969,
5:u13:),
7:u22:196,
8:u23:1969,
6:u31:69,
7:u32:969,
8:u33:1969,
14:u72:ENDBRACKET,
5:uD2:),
5:u01:(,
8:u03:1969,
5:u04:),
8:u11:1969,
5:u12:),
5:u20:),
5:u21:),
5:u22:),
5:u23:),
5:u30:),
5:u31:),
5:u32:),
5:u33:),
14:u70:ENDBRACKET,
5:uD0:),
8:u07:1979,
8:u06:1979,
8:u14:1979,
8:u05:1979,
8:u13:1979,
8:u04:1979,
8:u12:1979,
7:u22:197,
8:u23:1979,
6:u31:79,
7:u32:979,
8:u33:1979,
8:u03:1979,
8:u11:1979,
8:u06:1806,
8:u08:1807,
8:u14:1806,
8:u05:1806,
8:u07:1807,
8:u13:1806,
8:u04:1806,
8:u06:1807,
8:u12:1806,
8:u14:1807,
7:u22:180,
8:u23:1806,
6:u31:06,
7:u32:806,
8:u33:1806,
8:u03:1806,
8:u05:1807,
8:u11:1806,
8:u13:1807,
8:u02:1806,
8:u04:1807,
8:u10:1806,
8:u12:1807,
8:u23:1807,
6:u31:07,
7:u32:807,
8:u33:1807,
5:u00:(,
8:u01:1806,
8:u03:1807,
8:u11:1807,
8:u06:1811,
8:u14:1811,
8:u05:1811,
8:u13:1811,
8:u04:1811,
8:u12:1811,
7:u22:181,
8:u23:1811,
7:u32:811,
8:u33:1811,
8:u03:1811,
8:u11:1811,
8:u02:1811,
8:u10:1811,
8:u06:1822,
8:u14:1822,
8:u05:1822,
8:u13:1822,
8:u04:1822,
8:u12:1822,
7:u22:182,
8:u23:1822,
7:u32:822,
8:u33:1822,
8:u06:1845,
8:u14:1845,
8:u05:1845,
8:u13:1845,
8:u04:1845,
8:u12:1845,
7:u22:184,
8:u23:1845,
7:u32:845,
8:u33:1845,
8:u03:1845,
8:u11:1845,
8:u06:1851,
8:u08:1872,
8:u14:1851,
8:u05:1851,
8:u07:1872,
8:u13:1851,
8:u04:1851,
8:u06:1872,
8:u12:1851,
8:u14:1872,
7:u22:185,
8:u23:1851,
6:u31:51,
7:u32:851,
8:u33:1851,
8:u03:1851,
8:u05:1872,
8:u11:1851,
8:u13:1872,
8:u02:1851,
8:u04:1872,
8:u10:1851,
8:u12:1872,
7:u22:187,
8:u23:1872,
6:u31:72,
7:u32:872,
8:u33:1872,
8:u01:1851,
8:u03:1872,
8:u11:1872,
8:u04:1878,
8:u12:1878,
8:u23:1878,
6:u31:78,
7:u32:878,
8:u33:1878,
8:u03:1878,
8:u11:1878,
8:u02:1878,
8:u10:1878,
8:u06:1877,
8:u08:1918,
8:u14:1877,
8:u05:1877,
8:u07:1918,
8:u13:1877,
8:u04:1877,
8:u06:1918,
8:u12:1877,
8:u14:1918,
8:u23:1877,
6:u31:77,
7:u32:877,
8:u33:1877,
8:u03:1877,
8:u05:1918,
8:u11:1877,
8:u13:1918,
8:u02:1877,
8:u04:1918,
8:u10:1877,
8:u12:1918,
7:u22:191,
8:u23:1918,
6:u31:18,
7:u32:918,
8:u33:1918,
8:u01:1877,
8:u03:1918,
8:u11:1918,
8:u06:1893,
8:u14:1893,
8:u05:1893,
8:u13:1893,
8:u04:1893,
8:u12:1893,
7:u22:189,
8:u23:1893,
6:u31:93,
7:u32:893,
8:u33:1893,
8:u03:1893,
8:u11:1893,
8:u02:1893,
5:u03:),
8:u10:1893,
5:u11:),
14:u71:ENDBRACKET,
5:uD1:),
8:u01:1893,
5:u02:),
5:u10:),
8:u06:1902,
8:u14:1902,
8:u05:1902,
8:u13:1902,
8:u04:1902,
8:u12:1902,
8:u23:1902,
6:u31:02,
7:u32:902,
8:u33:1902,
8:u03:1902,
8:u11:1902,
8:u02:1902,
8:u10:1902,
8:u06:1900,
8:u14:1900,
8:u05:1900,
8:u13:1900,
8:u06:1904,
8:u14:1904,
8:u05:1904,
8:u13:1904,
8:u04:1904,
8:u12:1904,
8:u23:1904,
7:u32:904,
8:u33:1904,
8:u03:1904,
8:u11:1904,
8:u06:1908,
8:u14:1908,
8:u05:1908,
8:u13:1908,
8:u04:1908,
8:u12:1908,
8:u23:1908,
6:u31:08,
7:u32:908,
8:u33:1908,
8:u03:1908,
8:u11:1908,
8:u06:1911,
8:u14:1911,
8:u05:1911,
8:u13:1911,
8:u04:1911,
8:u12:1911,
8:u23:1911,
7:u32:911,
8:u33:1911,
8:u03:1911,
8:u11:1911,
8:u06:1914,
8:u14:1914,
8:u05:1914,
8:u13:1914,
8:u04:1914,
8:u12:1914,
8:u23:1914,
7:u32:914,
8:u33:1914,
8:u03:1914,
8:u11:1914,
8:u06:1917,
8:u14:1917,
8:u05:1917,
8:u13:1917,
8:u04:1917,
8:u12:1917,
8:u23:1917,
6:u31:17,
7:u32:917,
8:u33:1917,
8:u03:1917,
8:u11:1917,
8:u06:1922,
8:u14:1922,
8:u05:1922,
8:u13:1922,
8:u04:1922,
8:u12:1922,
7:u22:192,
8:u23:1922,
7:u32:922,
8:u33:1922,
8:u03:1922,
8:u11:1922,
8:u05:1952,
8:u13:1952,
8:u04:1952,
8:u12:1952,
8:u23:1952,
6:u31:52,
7:u32:952,
8:u33:1952,
8:u04:1923,
8:u06:1948,
8:u12:1923,
8:u14:1948,
8:u23:1923,
6:u31:23,
7:u32:923,
8:u33:1923,
8:u03:1923,
8:u05:1948,
8:u11:1923,
8:u13:1948,
8:u02:1923,
8:u04:1948,
8:u10:1923,
8:u12:1948,
8:u23:1948,
6:u31:48,
7:u32:948,
8:u33:1948,
8:u04:1933,
8:u12:1933,
7:u22:193,
8:u23:1933,
6:u31:33,
7:u32:933,
8:u33:1933,
8:u03:1933,
8:u11:1933,
8:u02:1933,
8:u10:1933,
8:u04:1937,
8:u12:1937,
8:u23:1937,
6:u31:37,
7:u32:937,
8:u33:1937,
8:u03:1937,
8:u11:1937,
8:u02:1937,
8:u10:1937,
8:u04:1936,
8:u12:1936,
8:u23:1936,
6:u31:36,
7:u32:936,
8:u33:1936,
8:u03:1936,
8:u11:1936,
8:u02:1936,
8:u10:1936,
8:u04:1929,
8:u06:1939,
8:u12:1929,
8:u14:1939,
8:u23:1929,
6:u31:29,
7:u32:929,
8:u33:1929,
8:u03:1929,
8:u05:1939,
8:u11:1929,
8:u13:1939,
8:u02:1929,
8:u04:1939,
8:u10:1929,
8:u12:1939,
8:u23:1939,
6:u31:39,
7:u32:939,
8:u33:1939,
8:u05:1774,
8:u07:1990,
8:u13:1774,
8:u04:1774,
8:u06:1990,
8:u12:1774,
8:u14:1990,
6:u21:17,
7:u22:177,
8:u23:1774,
6:u31:74,
7:u32:774,
8:u33:1774,
8:u03:1774,
8:u05:1990,
8:u11:1774,
8:u13:1990,
8:u02:1774,
8:u04:1990,
8:u10:1774,
8:u12:1990,
7:u22:199,
8:u23:1990,
6:u31:90,
7:u32:990,
8:u33:1990,
8:u05:1866,
8:u07:1952,
8:u13:1866,
8:u04:1866,
8:u06:1952,
8:u12:1866,
8:u14:1952,
7:u22:186,
8:u23:1866,
6:u31:66,
7:u32:866,
8:u33:1866,
8:u03:1866,
8:u11:1866,
8:u02:1866,
8:u10:1866,
8:u05:1871,
8:u13:1871,
8:u04:1871,
8:u12:1871,
8:u23:1871,
6:u31:71,
7:u32:871,
8:u33:1871,
8:u03:1871,
8:u11:1871,
8:u02:1871,
8:u10:1871,
8:u05:1881,
8:u07:1945,
8:u13:1881,
8:u04:1881,
8:u12:1881,
8:u23:1881,
6:u31:81,
7:u32:881,
8:u33:1881,
8:u03:1881,
8:u11:1881,
8:u02:1881,
8:u10:1881,
8:u05:1882,
8:u07:nach,
8:u13:1882,
8:u04:1882,
8:u06:nach,
8:u12:1882,
8:u14:nach,
8:u23:1882,
6:u31:82,
7:u32:882,
8:u33:1882,
8:u03:1882,
8:u05:nach,
8:u11:1882,
8:u13:nach,
8:uD2:xxxx,
8:u02:1882,
8:u04:nach,
8:u10:1882,
8:u12:nach,
5:u20:n,
6:u21:na,
7:u22:nac,
8:u23:nach,
7:u32:ach,
8:u33:nach,
8:uD0:xxxx,
8:u05:1886,
8:u07:1924,
8:u13:1886,
8:u04:1886,
8:u06:1924,
8:u12:1886,
8:u14:1924,
8:u23:1886,
6:u31:86,
7:u32:886,
8:u33:1886,
8:u03:1886,
8:u05:1924,
8:u11:1886,
8:u13:1924,
8:u02:1886,
8:u04:1924,
8:u10:1886,
8:u12:1924,
8:u23:1924,
7:u32:924,
8:u33:1924,
8:u05:1896,
8:u07:1897,
8:u13:1896,
8:u04:1896,
8:u06:1897,
8:u12:1896,
8:u14:1897,
8:u23:1896,
6:u31:96,
7:u32:896,
8:u33:1896,
8:u03:1896,
8:u05:1897,
8:u11:1896,
8:u13:1897,
8:u02:1896,
8:u04:1897,
8:u10:1896,
8:u12:1897,
8:u23:1897,
6:u31:97,
7:u32:897,
8:u33:1897,
8:u08:1910,
8:u07:1910,
8:u06:1910,
8:u14:1910,
8:u05:1910,
8:u13:1910,
8:u02:1908,
8:u04:1910,
8:u10:1908,
8:u12:1910,
8:u23:1910,
7:u32:910,
8:u33:1910,
8:u01:1908,
8:u03:1910,
8:u11:1910,
8:u08:1916,
8:u07:1916,
8:u06:1916,
8:u14:1916,
8:u05:1916,
8:u13:1916,
8:u02:1914,
8:u04:1916,
8:u10:1914,
8:u12:1916,
8:u23:1916,
7:u32:916,
8:u33:1916,
8:u01:1914,
8:u03:1916,
8:u11:1916,
8:u06:1937,
8:u08:1939,
8:u14:1937,
8:u05:1937,
8:u07:1939,
8:u13:1937,
8:u01:1937,
8:u03:1939,
8:u11:1939,
8:u06:1938,
8:u08:1941,
8:u14:1938,
8:u05:1938,
8:u07:1941,
8:u13:1938,
8:u04:1938,
8:u06:1941,
8:u12:1938,
8:u14:1941,
8:u23:1938,
6:u31:38,
7:u32:938,
8:u33:1938,
8:u03:1938,
8:u11:1938,
8:u02:1938,
8:u10:1938,
8:u01:1938,
8:u06:1946,
8:u08:1947,
8:u14:1946,
8:u05:1946,
8:u07:1947,
8:u13:1946,
8:u04:1946,
8:u06:1947,
8:u12:1946,
8:u14:1947,
8:u23:1946,
6:u31:46,
7:u32:946,
8:u33:1946,
8:u03:1946,
8:u05:1947,
8:u11:1946,
8:u13:1947,
8:u02:1946,
8:u04:1947,
8:u10:1946,
8:u12:1947,
8:u23:1947,
6:u31:47,
7:u32:947,
8:u33:1947,
8:u01:1946,
8:u03:1947,
8:u11:1947,
8:u08:1948,
8:u07:1948,
8:u03:1948,
8:u11:1948,
8:u08:1980,
8:u07:1980,
8:u06:1980,
8:u14:1980,
8:u05:1980,
8:u13:1980,
8:u04:1980,
8:u12:1980,
7:u22:198,
8:u23:1980,
7:u32:980,
8:u33:1980,
8:u03:1980,
8:u11:1980,
8:u06:1927,
8:u08:1932,
8:u14:1927,
8:u05:1927,
8:u07:1932,
8:u13:1927,
8:u04:1927,
8:u06:1932,
8:u12:1927,
8:u14:1932,
8:u23:1927,
7:u32:927,
8:u33:1927,
8:u03:1927,
8:u05:1932,
8:u11:1927,
8:u13:1932,
8:u02:1927,
8:u04:1932,
8:u10:1927,
8:u12:1932,
8:u23:1932,
6:u31:32,
7:u32:932,
8:u33:1932,
8:u01:1927,
8:u03:1932,
8:u11:1932,
8:u06:1933,
8:u08:1937,
8:u14:1933,
8:u05:1933,
8:u07:1937,
8:u13:1933,
8:u01:1933,
5:u07:/,
5:u06:/,
5:u14:/,
5:u05:/,
5:u13:/,
9:u72:SLASH,
5:uD2:/,
5:u04:/,
5:u12:/,
5:u20:/,
5:u21:/,
5:u22:/,
5:u23:/,
5:u30:/,
5:u31:/,
5:u32:/,
5:u33:/,
9:u70:SLASH,
5:uD0:/,
8:u02:1947,
5:u03:/,
8:u10:1947,
5:u11:/,
9:u71:SLASH,
5:uD1:/,
8:u01:1947,
5:u02:/,
5:u10:/,
8:u06:1913,
8:u14:1913,
8:u05:1913,
8:u13:1913,
8:u04:1913,
8:u12:1913,
8:u23:1913,
6:u31:13,
7:u32:913,
8:u33:1913,
8:u03:1913,
8:u11:1913,
8:u02:1913,
8:u10:1913,
8:u06:1925,
8:u14:1925,
8:u05:1925,
8:u13:1925,
8:u04:1925,
8:u12:1925,
8:u23:1925,
7:u32:925,
8:u33:1925,
8:u03:1925,
8:u11:1925,
8:u02:1925,
8:u10:1925,
8:u06:1926,
8:u14:1926,
8:u05:1926,
8:u13:1926,
8:u04:1926,
8:u12:1926,
8:u23:1926,
6:u31:26,
7:u32:926,
8:u33:1926,
8:u03:1926,
8:u11:1926,
8:u02:1926,
8:u10:1926,
8:u06:1931,
8:u14:1931,
8:u05:1931,
8:u13:1931,
8:u04:1931,
8:u12:1931,
8:u23:1931,
6:u31:31,
7:u32:931,
8:u33:1931,
8:u03:1931,
8:u11:1931,
8:u02:1931,
8:u10:1931,
8:u06:1958,
8:u14:1958,
8:u05:1958,
8:u13:1958,
8:u04:1958,
8:u12:1958,
8:u23:1958,
6:u31:58,
7:u32:958,
8:u33:1958,
8:u03:1958,
8:u11:1958,
8:u03:1942,
8:u11:1942,
8:u02:1942,
8:u10:1942,
6:u05:03,
5:u06:.,
6:u13:03,
5:u14:.,
6:u04:03,
5:u05:.,
5:u08:.,
6:u12:03,
5:u13:.,
6:u21:03,
6:u22:03,
6:u23:03,
6:u31:03,
6:u32:03,
6:u33:03,
5:uD2:.,
6:u03:03,
5:u04:.,
5:u07:.,
6:u08:01,
6:u11:03,
5:u12:.,
5:u20:.,
5:u21:.,
5:u22:.,
5:u23:.,
5:u30:.,
5:u31:.,
5:u32:.,
5:u33:.,
5:uD0:.,
6:u02:03,
5:u03:.,
6:u07:01,
6:u10:03,
5:u11:.,
5:uD1:.,
6:u01:03,
5:u02:.,
6:u06:01,
6:u08:42,
5:u10:.,
6:u14:01,
6:u00:03,
5:u01:.,
6:u03:04,
6:u05:01,
6:u07:42,
6:u11:04,
6:u13:01,
5:u00:.,
5:u01:/,
6:u02:04,
6:u04:01,
6:u06:42,
6:u10:04,
6:u12:01,
6:u14:42,
6:u21:01,
6:u22:01,
6:u23:01,
6:u31:01,
6:u32:01,
6:u33:01,
5:u00:/,
6:u01:04,
6:u03:01,
6:u05:42,
6:u11:01,
6:u13:42,
6:u00:04,
6:u02:01,
6:u04:42,
6:u10:01,
6:u12:42,
5:u20:4,
6:u21:42,
6:u22:42,
6:u23:42,
6:u32:42,
6:u33:42,
6:u07:07,
6:u06:07,
6:u14:07,
6:u05:07,
6:u13:07,
6:u04:07,
6:u12:07,
6:u21:07,
6:u22:07,
6:u23:07,
6:u32:07,
6:u33:07,
6:u03:07,
6:u11:07,
6:u02:07,
6:u10:07,
6:u07:06,
6:u06:06,
8:u08:1942,
6:u14:06,
6:u05:06,
8:u07:1942,
6:u13:06,
6:u02:15,
6:u04:06,
8:u06:1942,
6:u10:15,
6:u12:06,
8:u14:1942,
6:u21:06,
6:u22:06,
6:u23:06,
6:u32:06,
6:u33:06,
6:u01:15,
6:u03:06,
8:u05:1942,
6:u11:06,
8:u13:1942,
6:u00:15,
6:u02:06,
6:u10:06,
6:u05:18,
6:u07:08,
6:u13:18,
6:u04:18,
6:u06:08,
6:u12:18,
6:u14:08,
6:u22:18,
6:u23:18,
6:u32:18,
6:u33:18,
6:u03:18,
6:u05:08,
6:u11:18,
6:u13:08,
6:u02:18,
6:u04:08,
6:u10:18,
6:u12:08,
6:u21:08,
6:u22:08,
6:u23:08,
6:u32:08,
6:u33:08,
6:u01:18,
6:u03:08,
6:u11:08,
6:u00:18,
6:u02:08,
6:u10:08,
8:u05:1846,
8:u13:1846,
8:u04:1846,
8:u12:1846,
8:u23:1846,
7:u32:846,
8:u33:1846,
8:u05:1863,
8:u13:1863,
8:u04:1863,
8:u12:1863,
8:u23:1863,
6:u31:63,
7:u32:863,
8:u33:1863,
8:u03:1863,
8:u11:1863,
8:u02:1863,
8:u10:1863,
8:u05:1873,
8:u13:1873,
8:u04:1873,
8:u12:1873,
8:u23:1873,
6:u31:73,
7:u32:873,
8:u33:1873,
8:u06:1960,
8:u14:1960,
8:u05:1960,
8:u13:1960,
8:u04:1960,
8:u12:1960,
8:u23:1960,
6:u31:60,
7:u32:960,
8:u33:1960,
8:u03:1960,
8:u11:1960,
8:u06:1965,
8:u14:1965,
8:u05:1965,
8:u13:1965,
8:u04:1965,
8:u12:1965,
8:u23:1965,
6:u31:65,
7:u32:965,
8:u33:1965,
8:u03:1965,
8:u11:1965,
6:u05:19,
6:u07:Jh,
6:u13:19,
6:u04:19,
6:u06:Jh,
6:u12:19,
6:u14:jh,
6:u22:19,
6:u23:19,
6:u31:19,
6:u32:19,
6:u33:19,
6:u03:19,
6:u05:Jh,
6:u08:ca,
6:u11:19,
6:u13:jh,
6:uD2:Xx,
6:u02:19,
6:u04:Jh,
6:u07:ca,
6:u10:19,
6:u12:jh,
5:u20:J,
6:u21:Jh,
6:u22:Jh,
6:u23:Jh,
6:u31:Jh,
6:u32:Jh,
6:u33:Jh,
6:uD0:Xx,
6:u01:19,
6:u03:Jh,
6:u06:ca,
6:u11:jh,
6:u14:ca,
6:uD1:Xx,
6:u00:19,
6:u02:Jh,
6:u05:ca,
6:u10:jh,
6:u13:ca,
6:uD2:xx,
6:u01:Jh,
6:u04:ca,
6:u12:ca,
5:u20:c,
6:u21:ca,
6:u22:ca,
6:u23:ca,
5:u30:a,
6:u31:ca,
6:u32:ca,
6:u33:ca,
6:uD0:xx,
6:u00:Jh,
6:u03:ca,
6:u11:ca,
6:uD1:xx,
6:u02:ca,
6:u10:ca,
8:u07:1906,
8:u06:1906,
8:u14:1906,
8:u05:1906,
8:u13:1906,
8:u04:1906,
8:u12:1906,
8:u23:1906,
7:u32:906,
8:u33:1906,
8:u07:1935,
8:u06:1935,
8:u14:1935,
8:u05:1935,
8:u13:1935,
8:u02:1904,
8:u04:1935,
8:u10:1904,
8:u12:1935,
8:u23:1935,
6:u31:35,
7:u32:935,
8:u33:1935,
8:u01:1904,
8:u03:1935,
8:u11:1935,
8:u05:1909,
8:u07:1919,
8:u13:1909,
8:u04:1909,
8:u06:1919,
8:u12:1909,
8:u14:1919,
8:u23:1909,
7:u32:909,
8:u33:1909,
8:u03:1909,
8:u05:1919,
8:u11:1909,
8:u13:1919,
8:u02:1909,
8:u04:1919,
8:u10:1909,
8:u12:1919,
8:u23:1919,
7:u32:919,
8:u33:1919,
8:u07:1938,
8:u07:1914,
8:u02:1910,
8:u10:1910,
8:u01:1910,
8:u02:1911,
8:u10:1911,
8:u05:1912,
8:u13:1912,
8:u04:1912,
8:u12:1912,
8:u23:1912,
6:u31:12,
7:u32:912,
8:u33:1912,
8:u03:1912,
8:u11:1912,
8:u02:1912,
8:u10:1912,
8:u02:1918,
8:u10:1918,
8:u05:1920,
8:u07:1927,
8:u13:1920,
8:u04:1920,
8:u12:1920,
8:u23:1920,
6:u31:20,
7:u32:920,
8:u33:1920,
8:u03:1920,
8:u11:1920,
8:u02:1920,
8:u10:1920,
8:u08:1945,
8:u01:1925,
8:u00:1925,
8:u05:1928,
8:u13:1928,
8:u04:1928,
8:u12:1928,
8:u23:1928,
7:u32:928,
8:u33:1928,
8:u03:1928,
8:u11:1928,
8:u02:1928,
8:u10:1928,
8:u07:1960,
8:u07:1953,
8:u06:1953,
8:u14:1953,
8:u05:1953,
8:u13:1953,
8:u04:1953,
8:u12:1953,
8:u23:1953,
6:u31:53,
7:u32:953,
8:u33:1953,
8:u03:1953,
8:u11:1953,
8:u05:1955,
8:u13:1955,
8:u04:1955,
8:u12:1955,
8:u23:1955,
6:u31:55,
7:u32:955,
8:u33:1955,
8:u03:1955,
8:u11:1955,
8:u02:1932,
8:u10:1932,
8:u01:1932,
8:u00:1932,
8:u05:1949,
8:u13:1949,
8:u04:1949,
8:u12:1949,
8:u23:1949,
6:u31:49,
7:u32:949,
8:u33:1949,
8:u03:1949,
8:u11:1949,
8:u06:1968,
8:u14:1968,
8:u05:1968,
8:u13:1968,
8:u04:1968,
8:u12:1968,
8:u23:1968,
6:u31:68,
7:u32:968,
8:u33:1968,
8:u03:1968,
8:u11:1968,
8:u06:1974,
8:u14:1974,
8:u05:1974,
8:u13:1974,
8:u04:1974,
8:u12:1974,
8:u23:1974,
7:u32:974,
8:u33:1974,
8:u03:1974,
8:u11:1974,
8:u03:1950,
8:u11:1950,
8:u06:1972,
8:u14:1972,
8:u05:1972,
8:u13:1972,
8:u04:1972,
8:u12:1972,
8:u23:1972,
7:u32:972,
8:u33:1972,
8:u03:1972,
8:u11:1972,
8:u03:1952,
8:u11:1952,
8:u02:1952,
8:u10:1952,
8:u01:1952,
8:u05:1934,
8:u13:1934,
8:u04:1934,
8:u12:1934,
8:u23:1934,
6:u31:34,
7:u32:934,
8:u33:1934,
8:u03:1934,
8:u11:1934,
8:u02:1934,
8:u10:1934,
8:u07:1936,
8:u06:1936,
8:u14:1936,
8:u05:1936,
8:u13:1936,
8:u02:1935,
8:u10:1935,
8:u02:1939,
8:u10:1939,
8:u01:1939,
8:u03:1945,
8:u11:1945,
8:u07:1946,
8:u01:1942,
8:u00:1942,
8:u02:1980,
8:u10:1980,
8:u01:1980,
8:u00:1980,
6:u05:30,
6:u13:30,
6:u04:30,
6:u12:30,
6:u21:30,
6:u22:30,
6:u23:30,
6:u31:30,
6:u32:30,
6:u33:30,
6:u03:30,
6:u11:30,
6:u02:30,
6:u10:30,
6:u01:30,
6:u00:30,
9:u05:April,
9:u13:april,
6:u06:13,
6:u14:13,
6:u05:13,
6:u13:13,
6:u04:13,
6:u12:13,
6:u21:13,
6:u22:13,
6:u23:13,
6:u32:13,
6:u33:13,
6:u03:13,
6:u11:13,
6:u06:14,
6:u14:14,
6:u06:20,
6:u14:20,
6:u05:20,
6:u13:20,
6:u04:20,
6:u12:20,
6:u22:20,
6:u23:20,
6:u32:20,
6:u33:20,
6:u03:20,
6:u11:20,
6:u06:22,
6:u14:22,
6:u06:23,
6:u14:23,
6:u05:23,
6:u13:23,
6:u04:23,
6:u12:23,
6:u21:23,
6:u22:23,
6:u23:23,
6:u32:23,
6:u33:23,
6:u03:23,
6:u11:23,
6:u06:24,
6:u14:24,
6:u06:27,
6:u14:27,
5:u06:4,
5:u14:4,
5:u05:4,
5:u13:4,
5:u04:4,
5:u12:4,
5:u21:4,
5:u22:4,
5:u23:4,
5:u31:4,
5:u32:4,
5:u33:4,
5:u03:4,
5:u11:4,
5:u06:5,
5:u14:5,
5:u05:5,
5:u13:5,
5:u04:5,
5:u12:5,
5:u20:5,
5:u21:5,
5:u22:5,
5:u23:5,
5:u31:5,
5:u32:5,
5:u33:5,
5:u03:5,
5:u11:5,
5:u06:7,
5:u14:7,
10:u05:August,
10:u13:august,
10:u04:August,
10:u12:august,
6:u21:Au,
7:u22:Aug,
8:u23:Augu,
5:u30:t,
6:u31:st,
7:u32:ust,
8:u33:gust,
10:u03:August,
10:u11:august,
10:u02:August,
10:u10:august,
6:u06:16,
6:u14:16,
6:u06:18,
6:u14:18,
6:u06:19,
6:u14:19,
6:u06:21,
6:u14:21,
6:u06:26,
6:u14:26,
6:u05:26,
6:u13:26,
6:u04:26,
6:u12:26,
6:u21:26,
6:u22:26,
6:u23:26,
6:u32:26,
6:u33:26,
6:u03:26,
6:u11:26,
6:u06:29,
6:u14:29,
6:u05:29,
6:u13:29,
6:u04:29,
6:u12:29,
6:u21:29,
6:u22:29,
6:u23:29,
6:u32:29,
6:u33:29,
6:u03:29,
6:u11:29,
5:u06:9,
5:u14:9,
12:u05:December,
5:u06:1,
12:u13:december,
5:u14:1,
12:u04:December,
5:u05:1,
12:u12:december,
5:u13:1,
5:u20:D,
6:u21:De,
7:u22:Dec,
8:u23:Dece,
12:u03:December,
5:u04:1,
12:u11:december,
5:u12:1,
5:u21:1,
5:u22:1,
5:u23:1,
5:u31:1,
5:u32:1,
5:u33:1,
12:u02:December,
5:u03:1,
12:u10:december,
5:u11:1,
5:u06:3,
5:u14:3,
6:u06:31,
6:u14:31,
6:u05:31,
6:u13:31,
6:u04:31,
6:u12:31,
6:u21:31,
6:u22:31,
6:u23:31,
6:u32:31,
6:u33:31,
6:u03:31,
6:u11:31,
7:u08:aut,
7:u07:aut,
7:u08:394,
7:u06:aut,
7:u07:394,
7:u14:aut,
7:u05:aut,
7:u06:394,
7:u13:aut,
7:u14:394,
7:uD2:xxx,
7:u04:aut,
7:u05:394,
7:u12:aut,
7:u13:394,
5:u20:a,
6:u21:au,
7:u22:aut,
7:u23:aut,
6:u31:ut,
7:u32:aut,
7:u33:aut,
7:uD0:xxx,
7:uD2:ddd,
7:u03:aut,
7:u04:394,
7:u11:aut,
7:u12:394,
6:u21:39,
7:u22:394,
7:u23:394,
6:u31:94,
7:u32:394,
7:u33:394,
7:uD0:ddd,
7:uD1:xxx,
6:u07:02,
6:u06:02,
6:u14:02,
6:u05:02,
6:u13:02,
6:u02:20,
6:u04:02,
6:u10:20,
6:u12:02,
6:u21:02,
6:u22:02,
6:u23:02,
6:u32:02,
6:u33:02,
6:u01:20,
6:u03:02,
6:u11:02,
6:u00:20,
6:u02:02,
6:u10:02,
15:u07:Jahrhundert,
5:u08:(,
15:u06:Jahrhundert,
5:u07:(,
14:u08:Bratislava,
15:u14:jahrhundert,
15:u05:Jahrhundert,
5:u06:(,
14:u07:Bratislava,
15:u13:jahrhundert,
5:u14:(,
15:u04:Jahrhundert,
14:u06:Bratislava,
15:u12:jahrhundert,
14:u14:bratislava,
6:u21:Ja,
7:u22:Jah,
8:u23:Jahr,
6:u31:rt,
7:u32:ert,
8:u33:dert,
15:u03:Jahrhundert,
14:u05:Bratislava,
15:u11:jahrhundert,
14:u13:bratislava,
15:u02:Jahrhundert,
14:u04:Bratislava,
15:u10:jahrhundert,
14:u12:bratislava,
5:u20:B,
6:u21:Br,
7:u22:Bra,
8:u23:Brat,
6:u31:va,
7:u32:ava,
8:u33:lava,
12:u06:November,
8:u07:1949,
12:u14:november,
12:u05:November,
8:u06:1949,
12:u13:november,
8:u14:1949,
12:u04:November,
12:u12:november,
5:u20:N,
6:u21:No,
7:u22:Nov,
8:u23:Nove,
6:u02:24,
12:u03:November,
6:u10:24,
12:u11:november,
5:u07:M,
5:u08:?,
5:u06:M,
5:u07:?,
5:u14:m,
5:u05:M,
5:u06:?,
6:u08:rz,
5:u13:m,
5:u14:?,
5:uD2:X,
6:u02:25,
5:u04:M,
5:u05:?,
6:u07:rz,
8:u08:1933,
6:u10:25,
5:u12:m,
5:u13:?,
5:u21:M,
5:u22:M,
5:u23:M,
5:u30:M,
5:u31:M,
5:u32:M,
5:u33:M,
5:uD0:X,
5:uD2:?,
6:u01:25,
5:u03:M,
5:u04:?,
6:u06:rz,
8:u07:1933,
5:u11:m,
5:u12:?,
6:u14:rz,
5:u20:?,
5:u21:?,
5:u22:?,
5:u23:?,
5:u30:?,
5:u31:?,
5:u32:?,
5:u33:?,
5:uD0:?,
5:uD1:X,
6:u00:25,
5:u02:M,
5:u03:?,
6:u05:rz,
5:u10:m,
5:u11:?,
6:u13:rz,
5:uD1:?,
5:u01:M,
5:u02:?,
6:u04:rz,
5:u10:?,
6:u12:rz,
5:u20:r,
6:u21:rz,
6:u22:rz,
6:u23:rz,
5:u30:z,
6:u31:rz,
6:u32:rz,
6:u33:rz,
5:u00:M,
5:u01:?,
6:u03:rz,
6:u11:rz,
5:u06:2,
9:u08:April,
5:u14:2,
5:u05:2,
9:u07:April,
5:u08:3,
5:u13:2,
5:u04:2,
9:u06:April,
5:u07:3,
5:u12:2,
9:u14:april,
5:u21:2,
5:u22:2,
5:u23:2,
5:u31:2,
5:u32:2,
5:u33:2,
5:u03:2,
5:u11:2,
9:u01:April,
5:u02:2,
5:u10:2,
9:u00:April,
5:u01:2,
5:u00:2,
12:u08:December,
12:u07:December,
6:u08:24,
12:u06:December,
6:u07:24,
12:u14:december,
12:u01:December,
12:u00:December,
8:u05:Ende,
8:u06:Sept,
8:u13:ende,
8:u14:sept,
8:u04:Ende,
8:u05:Sept,
7:u08:und,
8:u12:ende,
8:u13:sept,
5:u20:E,
6:u21:En,
7:u22:End,
8:u23:Ende,
5:u30:e,
6:u31:de,
7:u32:nde,
8:u33:Ende,
8:u03:Ende,
8:u04:Sept,
7:u07:und,
10:u08:Januar,
8:u11:ende,
8:u12:sept,
6:u31:pt,
7:u32:ept,
8:u33:Sept,
8:u02:Ende,
8:u03:Sept,
7:u06:und,
10:u07:Januar,
8:u10:ende,
8:u11:sept,
7:u14:und,
8:u01:Ende,
8:u02:Sept,
7:u05:und,
10:u06:Januar,
8:u10:sept,
7:u13:und,
10:u14:januar,
8:u00:Ende,
8:u01:Sept,
7:u04:und,
10:u05:Januar,
7:u12:und,
10:u13:januar,
5:u20:u,
6:u21:un,
7:u22:und,
7:u23:und,
5:u30:d,
6:u31:nd,
7:u32:und,
7:u33:und,
8:u00:Sept,
7:u03:und,
10:u04:Januar,
7:u11:und,
10:u12:januar,
7:u22:Jan,
8:u23:Janu,
6:u31:ar,
7:u32:uar,
8:u33:nuar,
7:u02:und,
10:u03:Januar,
7:u10:und,
10:u11:januar,
6:u06:12,
6:u14:12,
6:u05:12,
6:u13:12,
6:u04:12,
6:u12:12,
6:u21:12,
6:u22:12,
6:u23:12,
6:u32:12,
6:u33:12,
6:u01:01,
6:u03:12,
6:u11:12,
6:u00:01,
6:u02:12,
6:u10:12,
6:u08:02,
8:u02:1945,
8:u10:1945,
8:u01:1945,
8:u00:1945,
5:u08:/,
8:u08:1111,
8:u07:1111,
8:u06:1111,
8:u14:1111,
8:u05:1111,
8:u13:1111,
8:u04:1111,
8:u12:1111,
7:u22:111,
8:u23:1111,
7:u32:111,
8:u33:1111,
8:u03:1111,
8:u11:1111,
8:u02:1111,
8:u10:1111,
8:u01:1111,
8:u00:1111,
8:u08:1850,
8:u07:1850,
8:u06:1850,
6:u08:31,
8:u14:1850,
8:u05:1850,
6:u07:31,
8:u13:1850,
8:u04:1850,
6:u08:12,
8:u12:1850,
8:u23:1850,
7:u32:850,
8:u33:1850,
8:u03:1850,
6:u07:12,
8:u11:1850,
8:u02:1850,
8:u10:1850,
8:u01:1850,
8:u00:1850,
6:u02:31,
6:u10:31,
6:u01:31,
6:u00:31,
8:u08:1981,
8:u07:1981,
8:u06:1981,
8:u14:1981,
8:u05:1981,
8:u13:1981,
8:u04:1981,
8:u12:1981,
8:u23:1981,
7:u32:981,
8:u33:1981,
8:u08:1875,
8:u07:1875,
8:u06:1875,
8:u14:1875,
8:u05:1875,
8:u13:1875,
8:u04:1875,
6:u08:05,
8:u12:1875,
8:u23:1875,
6:u31:75,
7:u32:875,
8:u33:1875,
8:u03:1875,
6:u07:05,
8:u11:1875,
8:u02:1875,
6:u06:05,
8:u08:1882,
8:u10:1875,
6:u14:05,
8:u01:1875,
6:u05:05,
8:u07:1882,
6:u13:05,
8:u00:1875,
6:u04:05,
8:u06:1882,
6:u12:05,
8:u14:1882,
6:u21:05,
6:u22:05,
6:u23:05,
6:u31:05,
6:u32:05,
6:u33:05,
6:u03:05,
6:u11:05,
6:u02:05,
6:u10:05,
8:u08:1878,
8:u07:1878,
8:u06:1878,
8:u14:1878,
8:u05:1878,
8:u13:1878,
8:u08:1946,
8:u01:1878,
8:u00:1878,
8:u08:1880,
8:u07:1880,
8:u06:1880,
8:u14:1880,
8:u05:1880,
8:u13:1880,
8:u01:1880,
8:u00:1880,
8:u08:1887,
8:u07:1887,
8:u06:1887,
8:u14:1887,
8:u05:1887,
8:u13:1887,
8:u04:1887,
8:u12:1887,
8:u23:1887,
6:u31:87,
7:u32:887,
8:u33:1887,
8:u03:1887,
8:u11:1887,
8:u02:1887,
8:u08:1920,
8:u10:1887,
8:u01:1887,
8:u07:1920,
8:u00:1887,
8:u06:1920,
8:u14:1920,
8:u08:1889,
8:u07:1889,
8:u06:1889,
6:u08:30,
8:u14:1889,
8:u05:1889,
6:u07:30,
8:u13:1889,
8:u04:1889,
6:u06:30,
6:u08:06,
8:u12:1889,
6:u14:30,
8:u23:1889,
6:u31:89,
7:u32:889,
8:u33:1889,
8:u03:1889,
8:u11:1889,
8:u02:1889,
8:u08:1943,
8:u10:1889,
8:u01:1889,
8:u00:1889,
8:u08:1890,
8:u07:1890,
8:u06:1890,
8:u14:1890,
8:u05:1890,
8:u13:1890,
8:u04:1890,
8:u12:1890,
8:u23:1890,
7:u32:890,
8:u33:1890,
8:u03:1890,
8:u11:1890,
8:u02:1890,
8:u10:1890,
8:u01:1890,
8:u00:1890,
8:u08:1892,
8:u07:1892,
8:u06:1892,
8:u14:1892,
8:u05:1892,
8:u13:1892,
8:u04:1892,
8:u12:1892,
8:u23:1892,
6:u31:92,
7:u32:892,
8:u33:1892,
8:u03:1892,
8:u11:1892,
8:u02:1892,
8:u08:1964,
8:u10:1892,
8:u01:1892,
8:u07:1964,
8:u00:1892,
8:u06:1964,
8:u14:1964,
8:u05:1964,
8:u13:1964,
8:u04:1964,
8:u12:1964,
8:u23:1964,
6:u31:64,
7:u32:964,
8:u33:1964,
8:u08:1893,
8:u07:1893,
6:u08:03,
6:u07:03,
6:u06:03,
6:u14:03,
8:u08:1971,
8:u07:1971,
8:u00:1893,
8:u06:1971,
8:u14:1971,
8:u05:1971,
8:u13:1971,
8:u04:1971,
8:u12:1971,
8:u23:1971,
7:u32:971,
8:u33:1971,
8:u08:1895,
8:u07:1895,
8:u06:1895,
8:u14:1895,
8:u05:1895,
8:u13:1895,
8:u04:1895,
8:u12:1895,
8:u23:1895,
6:u31:95,
7:u32:895,
8:u33:1895,
8:u03:1895,
8:u11:1895,
8:u02:1895,
8:u08:1896,
8:u10:1895,
8:u01:1895,
8:u07:1896,
8:u00:1895,
8:u06:1896,
8:u14:1896,
8:u08:1900,
8:u07:1900,
8:u01:1900,
8:u00:1900,
6:u01:12,
6:u00:12,
8:u08:1903,
8:u07:1903,
8:u06:1903,
6:u08:27,
8:u14:1903,
8:u05:1903,
6:u07:27,
8:u13:1903,
8:u04:1903,
8:u12:1903,
8:u23:1903,
7:u32:903,
8:u33:1903,
8:u03:1903,
8:u11:1903,
8:u02:1903,
8:u08:1936,
8:u10:1903,
8:u01:1903,
8:u00:1903,
6:u02:27,
6:u10:27,
6:u01:27,
6:u00:27,
8:u08:1915,
8:u07:1915,
8:u06:1915,
8:u14:1915,
8:u05:1915,
8:u13:1915,
8:u04:1915,
8:u12:1915,
8:u23:1915,
7:u32:915,
8:u33:1915,
8:u03:1915,
8:u11:1915,
8:u02:1915,
8:u10:1915,
8:u01:1915,
8:u00:1915,
6:u08:07,
8:u01:1918,
8:u00:1918,
6:u01:05,
6:u00:05,
8:u08:1962,
8:u07:1962,
8:u06:1962,
8:u14:1962,
8:u05:1962,
8:u13:1962,
8:u04:1962,
8:u12:1962,
8:u23:1962,
6:u31:62,
7:u32:962,
8:u33:1962,
6:u08:13,
6:u07:13,
6:u08:08,
8:u08:1972,
8:u01:1920,
8:u07:1972,
8:u00:1920,
6:u02:13,
6:u10:13,
6:u01:13,
6:u00:13,
8:u08:1921,
8:u07:1921,
8:u06:1921,
8:u14:1921,
8:u05:1921,
8:u13:1921,
8:u04:1921,
8:u12:1921,
8:u23:1921,
7:u32:921,
8:u33:1921,
8:u03:1921,
8:u11:1921,
8:u02:1921,
8:u08:1950,
8:u10:1921,
8:u01:1921,
8:u07:1950,
8:u00:1921,
8:u08:1926,
8:u07:1926,
6:u08:29,
6:u07:29,
8:u08:1967,
8:u01:1926,
8:u07:1967,
8:u00:1926,
6:u02:29,
8:u06:1967,
6:u10:29,
8:u14:1967,
6:u01:29,
8:u05:1967,
8:u13:1967,
6:u00:29,
8:u04:1967,
8:u12:1967,
8:u23:1967,
6:u31:67,
7:u32:967,
8:u33:1967,
8:u08:1927,
8:u00:1927,
6:u08:26,
6:u07:26,
6:u02:26,
6:u10:26,
6:u01:26,
6:u00:26,
8:u08:1976,
8:u07:1976,
8:u06:1976,
8:u14:1976,
8:u05:1976,
8:u13:1976,
8:u04:1976,
8:u12:1976,
8:u23:1976,
6:u31:76,
7:u32:976,
8:u33:1976,
8:u08:1929,
8:u07:1929,
8:u06:1929,
8:u14:1929,
8:u05:1929,
8:u13:1929,
8:u01:1929,
8:u00:1929,
8:u08:1930,
8:u07:1930,
8:u06:1930,
8:u14:1930,
8:u05:1930,
8:u13:1930,
8:u04:1930,
8:u12:1930,
8:u23:1930,
7:u32:930,
8:u33:1930,
8:u03:1930,
8:u11:1930,
8:u02:1930,
8:u08:1949,
8:u10:1930,
8:u01:1930,
8:u00:1930,
8:u08:1938,
8:u00:1933,
6:u08:14,
6:u07:14,
8:u08:1959,
8:u07:1959,
6:u02:14,
8:u06:1959,
6:u10:14,
8:u14:1959,
6:u01:14,
8:u05:1959,
8:u13:1959,
6:u00:14,
8:u04:1959,
8:u12:1959,
8:u23:1959,
6:u31:59,
7:u32:959,
8:u33:1959,
6:u08:18,
6:u07:18,
6:u08:11,
8:u08:1935,
6:u08:21,
6:u07:21,
8:u01:1935,
8:u00:1935,
6:u02:21,
6:u10:21,
6:u01:21,
6:u00:21,
8:u00:1938,
8:u08:1951,
8:u07:1951,
8:u06:1951,
8:u14:1951,
8:u05:1951,
8:u13:1951,
8:u04:1951,
8:u12:1951,
8:u23:1951,
7:u32:951,
8:u33:1951,
8:u00:1939,
6:u01:02,
6:u00:02,
8:u08:1965,
8:u07:1965,
6:u01:11,
6:u00:11,
8:u08:1940,
8:u07:1940,
8:u06:1940,
8:u14:1940,
6:u08:10,
6:u08:15,
6:u07:15,
6:u06:15,
6:u14:15,
6:u08:20,
6:u07:20,
6:u01:24,
6:u00:24,
8:u03:1943,
8:u11:1943,
8:u02:1943,
8:u10:1943,
8:u01:1943,
8:u00:1943,
6:u08:16,
6:u07:16,
6:u02:16,
6:u10:16,
6:u01:16,
6:u00:16,
8:u08:1961,
8:u07:1961,
8:u06:1961,
8:u14:1961,
8:u05:1961,
8:u13:1961,
8:u04:1961,
8:u12:1961,
8:u23:1961,
6:u31:61,
7:u32:961,
8:u33:1961,
8:u08:2004,
8:u07:2004,
8:u06:2004,
8:u14:2004,
8:u05:2004,
8:u13:2004,
8:u04:2004,
8:u12:2004,
8:u23:2004,
7:u32:004,
8:u33:2004,
8:u08:1986,
8:u07:1986,
8:u06:1986,
8:u14:1986,
8:u05:1986,
8:u13:1986,
8:u04:1986,
8:u12:1986,
8:u23:1986,
7:u32:986,
8:u33:1986,
6:u08:19,
6:u07:19,
6:u08:23,
6:u07:23,
6:u02:23,
6:u10:23,
6:u01:23,
6:u00:23,
8:u00:1946,
8:u08:1970,
8:u07:1970,
8:u06:1970,
8:u14:1970,
8:u05:1970,
8:u13:1970,
8:u04:1970,
8:u12:1970,
8:u23:1970,
6:u31:70,
7:u32:970,
8:u33:1970,
8:u00:1947,
8:u08:1952,
8:u02:1948,
8:u10:1948,
8:u01:1948,
8:u00:1948,
8:u02:1949,
8:u10:1949,
8:u01:1949,
8:u00:1949,
8:u02:1950,
8:u08:1975,
8:u10:1950,
8:u01:1950,
8:u07:1975,
8:u00:1950,
8:u06:1975,
8:u14:1975,
8:u05:1975,
8:u13:1975,
8:u04:1975,
8:u12:1975,
8:u23:1975,
7:u32:975,
8:u33:1975,
8:u08:1968,
8:u07:1968,
8:u03:1951,
8:u11:1951,
8:u02:1951,
8:u10:1951,
8:u01:1951,
8:u00:1951,
8:u08:1954,
8:u07:1954,
8:u06:1954,
8:u14:1954,
8:u05:1954,
8:u13:1954,
8:u04:1954,
8:u12:1954,
8:u23:1954,
6:u31:54,
7:u32:954,
8:u33:1954,
8:u03:1954,
8:u11:1954,
8:u02:1954,
8:u10:1954,
8:u01:1954,
8:u00:1954,
8:u08:1956,
8:u07:1956,
8:u06:1956,
8:u14:1956,
8:u05:1956,
8:u13:1956,
8:u04:1956,
8:u12:1956,
8:u23:1956,
6:u31:56,
7:u32:956,
8:u33:1956,
8:u03:1956,
8:u11:1956,
8:u02:1956,
8:u10:1956,
8:u01:1956,
8:u00:1956,
8:u08:1958,
8:u07:1958,
8:u02:1958,
8:u08:1969,
8:u10:1958,
8:u01:1958,
8:u00:1958,
8:u08:1998,
8:u07:1998,
8:u06:1998,
8:u14:1998,
8:u05:1998,
8:u13:1998,
8:u04:1998,
8:u12:1998,
8:u23:1998,
6:u31:98,
7:u32:998,
8:u33:1998,
8:u03:1959,
8:u11:1959,
8:u02:1959,
8:u10:1959,
8:u01:1959,
8:u00:1959,
8:u03:1961,
8:u11:1961,
8:u02:1961,
8:u10:1961,
8:u01:1961,
8:u00:1961,
8:u03:1962,
8:u11:1962,
8:u02:1962,
8:u10:1962,
8:u01:1962,
8:u00:1962,
8:u08:1931,
8:u07:1931,
8:u03:1964,
8:u11:1964,
8:u02:1964,
8:u10:1964,
8:u01:1964,
8:u00:1964,
8:u08:1966,
8:u07:1966,
8:u06:1966,
8:u14:1966,
8:u05:1966,
8:u13:1966,
8:u04:1966,
8:u12:1966,
8:u23:1966,
7:u32:966,
8:u33:1966,
8:u03:1966,
8:u11:1966,
8:u02:1966,
8:u10:1966,
8:u01:1966,
8:u00:1966,
6:u08:17,
6:u07:17,
6:u06:17,
6:u14:17,
6:u05:17,
6:u13:17,
8:u02:1968,
6:u04:17,
8:u10:1968,
6:u12:17,
6:u22:17,
6:u23:17,
6:u32:17,
6:u33:17,
8:u01:1968,
6:u03:17,
6:u11:17,
8:u00:1968,
6:u02:17,
6:u10:17,
6:u01:17,
6:u00:17,
8:u08:1987,
8:u07:1987,
8:u06:1987,
8:u14:1987,
8:u05:1987,
8:u13:1987,
8:u04:1987,
8:u12:1987,
8:u23:1987,
7:u32:987,
8:u33:1987,
8:u03:1987,
8:u11:1987,
8:u02:1987,
8:u08:1990,
8:u10:1987,
8:u01:1987,
8:u00:1987,
8:u03:1990,
8:u11:1990,
8:u02:1990,
8:u10:1990,
8:u01:1990,
8:u00:1990,
8:u08:1993,
8:u07:1993,
8:u06:1993,
8:u14:1993,
8:u05:1993,
8:u13:1993,
8:u04:1993,
8:u12:1993,
8:u23:1993,
7:u32:993,
8:u33:1993,
8:u03:1993,
8:u11:1993,
8:u02:1993,
8:u08:2002,
8:u10:1993,
8:u01:1993,
8:u07:2002,
8:u00:1993,
8:u06:2002,
8:u14:2002,
8:u05:2002,
8:u13:2002,
8:u04:2002,
8:u12:2002,
8:u23:2002,
7:u32:002,
8:u33:2002,
8:u08:2000,
8:u07:2000,
8:u03:2000,
8:u11:2000,
8:u02:2000,
8:u10:2000,
8:u01:2000,
8:u00:2000,
8:u08:2001,
8:u07:2001,
8:u06:2001,
8:u14:2001,
8:u05:2001,
8:u13:2001,
8:u04:2001,
8:u12:2001,
8:u23:2001,
7:u32:001,
8:u33:2001,
8:u03:2001,
8:u11:2001,
8:u02:2001,
8:u10:2001,
8:u01:2001,
8:u00:2001,
8:u03:2002,
8:u11:2002,
8:u02:2002,
8:u10:2002,
8:u01:2002,
8:u00:2002,
8:u08:2003,
8:u07:2003,
8:u06:2003,
8:u14:2003,
8:u05:2003,
8:u13:2003,
8:u04:2003,
8:u12:2003,
8:u23:2003,
7:u32:003,
8:u33:2003,
8:u03:2003,
8:u11:2003,
8:u02:2003,
8:u10:2003,
8:u01:2003,
8:u00:2003,
8:u01:1896,
8:u00:1896,
8:u01:1936,
8:u00:1936,
6:u01:07,
6:u00:07,
6:u01:06,
6:u00:06,
8:u00:1952,
8:u08:1953,
8:u02:1953,
8:u10:1953,
8:u01:1953,
8:u00:1953,
8:u08:1955,
8:u07:1955,
8:u06:1955,
8:u14:1955,
8:u02:1955,
8:u10:1955,
8:u01:1955,
8:u00:1955,
8:u08:1963,
8:u07:1963,
8:u06:1963,
8:u14:1963,
8:u05:1963,
8:u13:1963,
8:u04:1963,
8:u12:1963,
8:u23:1963,
7:u32:963,
8:u33:1963,
8:u03:1963,
8:u11:1963,
8:u02:1963,
8:u10:1963,
8:u01:1963,
8:u00:1963,
8:u08:1999,
8:u07:1999,
8:u06:1999,
8:u14:1999,
8:u05:1999,
8:u13:1999,
8:u04:1999,
8:u12:1999,
8:u23:1999,
6:u31:99,
7:u32:999,
8:u33:1999,
8:u03:1999,
8:u11:1999,
8:u02:1999,
8:u10:1999,
8:u01:1999,
8:u00:1999,
8:u00:1937,
8:u08:July,
8:u07:July,
8:u06:July,
8:u14:july,
7:u01:May,
5:u02:1,
8:u05:July,
5:u10:1,
8:u13:july,
7:u00:May,
5:u01:1,
8:u04:July,
8:u12:july,
6:u21:Ju,
7:u22:Jul,
8:u23:July,
6:u31:ly,
7:u32:uly,
8:u33:July,
5:u00:1,
8:u03:July,
8:u11:july,
8:u02:July,
8:u10:july,
11:u04:October,
11:u12:october,
5:u20:O,
6:u21:Oc,
7:u22:Oct,
8:u23:Octo,
8:u33:ober,
11:u03:October,
11:u11:october,
11:u02:October,
11:u10:october,
11:u01:October,
11:u00:October,
8:u04:June,
8:u12:june,
7:u22:Jun,
8:u23:June,
6:u31:ne,
7:u32:une,
8:u33:June,
8:u03:June,
8:u11:june,
8:u02:June,
8:u10:june,
12:u02:November,
12:u10:november,
5:u05:8,
5:u13:8,
5:u04:8,
5:u12:8,
5:u20:8,
5:u21:8,
5:u22:8,
5:u23:8,
5:u31:8,
5:u32:8,
5:u33:8,
5:u03:8,
5:u11:8,
6:u02:22,
6:u08:22,
6:u10:22,
6:u01:22,
6:u07:22,
6:u00:22,
8:u08:1884,
8:u07:1884,
8:u06:1884,
8:u14:1884,
8:u05:1884,
8:u13:1884,
8:u04:1884,
8:u12:1884,
8:u23:1884,
6:u31:84,
7:u32:884,
8:u33:1884,
6:u01:08,
8:u03:1884,
8:u11:1884,
6:u00:08,
8:u02:1884,
8:u10:1884,
8:u01:1884,
8:u00:1884,
8:u08:1888,
8:u07:1888,
8:u06:1888,
8:u14:1888,
8:u05:1888,
8:u13:1888,
8:u04:1888,
8:u12:1888,
8:u23:1888,
6:u31:88,
7:u32:888,
8:u33:1888,
8:u03:1888,
8:u11:1888,
8:u02:1888,
8:u10:1888,
8:u01:1888,
8:u00:1888,
8:u08:1914,
8:u00:1914,
8:u06:2009,
8:u14:2009,
8:u05:2009,
8:u13:2009,
8:u04:2009,
8:u12:2009,
8:u23:2009,
7:u32:009,
8:u33:2009,
13:u05:September,
13:u13:september,
8:u05:June,
8:u13:june,
11:u05:October,
11:u13:october,
11:u05:January,
11:u13:january,
11:u04:January,
11:u12:january,
8:u06:2016,
8:u14:2016,
8:u05:2016,
8:u13:2016,
8:u04:2016,
8:u12:2016,
7:u22:201,
8:u23:2016,
7:u32:016,
8:u33:2016,
8:u04:12th,
11:u06:century,
8:u12:12th,
11:u14:century,
7:u22:12t,
8:u23:12th,
6:u31:th,
7:u32:2th,
8:u33:12th,
16:u50:CONTAINDIGIT,
9:uD0:ddxxx,
8:u03:12th,
11:u05:century,
8:u11:12th,
11:u13:century,
16:u51:CONTAINDIGIT,
9:uD1:ddxxx,
8:u02:12th,
11:u04:century,
8:u10:12th,
11:u12:century,
6:u21:ce,
7:u22:cen,
8:u23:cent,
7:u32:ury,
8:u33:tury,
5:u06:,,
8:u08:June,
5:u14:,,
5:u05:,,
8:u07:June,
5:u08:,,
5:u13:,,
5:uD2:,,
5:u04:,,
8:u06:June,
5:u07:,,
5:u12:,,
8:u14:june,
5:u20:,,
5:u21:,,
5:u22:,,
5:u23:,,
5:u30:,,
5:u31:,,
5:u32:,,
5:u33:,,
5:uD0:,,
5:u03:,,
5:u11:,,
5:uD1:,,
8:u01:June,
5:u02:,,
7:u08:and,
5:u10:,,
8:u00:June,
5:u01:,,
7:u07:and,
5:u08:6,
5:u00:,,
7:u06:and,
5:u07:6,
7:u14:and,
7:u05:and,
7:u13:and,
5:u02:3,
7:u04:and,
5:u10:3,
7:u12:and,
6:u21:an,
7:u22:and,
7:u23:and,
7:u32:and,
7:u33:and,
5:u01:3,
7:u03:and,
7:u11:and,
5:u00:3,
8:u01:July,
7:u02:and,
7:u10:and,
8:u00:July,
7:u01:and,
5:u02:6,
5:u10:6,
9:u05:March,
9:u13:march,
7:u05:May,
8:u06:2012,
7:u13:may,
8:u14:2012,
7:uD2:Xxx,
8:u05:2012,
8:u13:2012,
8:u04:2012,
8:u12:2012,
8:u23:2012,
7:u32:012,
8:u33:2012,
8:u05:days,
8:u13:days,
8:u04:days,
8:u12:days,
5:u20:d,
6:u21:da,
7:u22:day,
8:u23:days,
5:u30:s,
6:u31:ys,
7:u32:ays,
8:u33:days,
8:u04:1658,
8:u12:1658,
7:u22:165,
8:u23:1658,
7:u32:658,
8:u33:1658,
8:u04:1831,
8:u12:1831,
7:u22:183,
8:u23:1831,
7:u32:831,
8:u33:1831,
8:u06:2013,
8:u14:2013,
8:u05:2013,
8:u13:2013,
8:u04:2013,
8:u12:2013,
8:u23:2013,
7:u32:013,
8:u33:2013,
8:u04:1901,
8:u12:1901,
8:u23:1901,
7:u32:901,
8:u33:1901,
8:u03:1901,
8:u11:1901,
8:u02:1901,
8:u10:1901,
8:u04:1907,
8:u12:1907,
8:u23:1907,
7:u32:907,
8:u33:1907,
8:u06:1923,
8:u14:1923,
8:u03:1919,
8:u05:1923,
8:u11:1919,
8:u13:1923,
8:u02:1919,
8:u10:1919,
9:u04:1930s,
9:u12:1930s,
6:u31:0s,
7:u32:30s,
8:u33:930s,
8:uD0:dddx,
9:u04:1940s,
9:u12:1940s,
7:u32:40s,
8:u33:940s,
8:u04:1957,
8:u12:1957,
8:u23:1957,
6:u31:57,
7:u32:957,
8:u33:1957,
9:u04:1960s,
9:u12:1960s,
7:u32:60s,
8:u33:960s,
8:u04:1973,
8:u12:1973,
8:u23:1973,
7:u32:973,
8:u33:1973,
8:u04:1982,
8:u12:1982,
8:u23:1982,
7:u32:982,
8:u33:1982,
8:u04:1983,
8:u12:1983,
8:u23:1983,
6:u31:83,
7:u32:983,
8:u33:1983,
8:u04:1985,
8:u12:1985,
8:u23:1985,
6:u31:85,
7:u32:985,
8:u33:1985,
8:u04:1988,
8:u12:1988,
8:u23:1988,
7:u32:988,
8:u33:1988,
8:u04:1989,
8:u12:1989,
8:u23:1989,
7:u32:989,
8:u33:1989,
9:u04:1990s,
9:u12:1990s,
7:u32:90s,
8:u33:990s,
8:u04:1994,
8:u12:1994,
8:u23:1994,
7:u32:994,
8:u33:1994,
11:u03:January,
11:u11:january,
8:u04:2007,
8:u12:2007,
8:u23:2007,
7:u32:007,
8:u33:2007,
8:u04:2010,
8:u12:2010,
8:u23:2010,
7:u32:010,
8:u33:2010,
8:u04:2014,
8:u12:2014,
8:u23:2014,
7:u32:014,
8:u33:2014,
8:u04:2015,
11:u05:general,
12:u06:election,
8:u12:2015,
11:u13:general,
12:u14:election,
8:u23:2015,
7:u32:015,
8:u33:2015,
8:u03:2015,
11:u04:general,
12:u05:election,
8:u11:2015,
11:u12:general,
12:u13:election,
5:u20:g,
6:u21:ge,
7:u22:gen,
8:u23:gene,
6:u31:al,
7:u32:ral,
8:u33:eral,
8:u02:2015,
11:u03:general,
12:u04:election,
8:u10:2015,
11:u11:general,
12:u12:election,
5:u20:e,
6:u21:el,
7:u22:ele,
8:u23:elec,
5:u30:n,
6:u31:on,
7:u32:ion,
8:u33:tion,
8:uD1:xxxx,
8:u04:2017,
8:u12:2017,
8:u23:2017,
7:u32:017,
8:u33:2017,
8:u04:2030,
8:u12:2030,
7:u22:203,
8:u23:2030,
7:u32:030,
8:u33:2030,
13:u07:September,
13:u06:September,
13:u14:september,
8:u06:2017,
8:u14:2017,
8:u05:2017,
8:u13:2017,
6:u04:48,
9:u05:hours,
6:u12:48,
9:u13:hours,
6:u21:48,
6:u22:48,
6:u23:48,
6:u32:48,
6:u33:48,
6:u03:48,
9:u04:hours,
6:u11:48,
9:u12:hours,
5:u20:h,
6:u21:ho,
7:u22:hou,
8:u23:hour,
6:u31:rs,
7:u32:urs,
8:u33:ours,
5:u02:4,
5:u10:4,
5:u02:5,
5:u10:5,
5:u05::,
6:u06:00,
6:u07:pm,
5:u13::,
6:u14:00,
5:uD2::,
5:u04::,
6:u05:00,
6:u06:pm,
5:u12::,
6:u13:00,
6:u14:pm,
5:u20::,
5:u21::,
5:u22::,
5:u23::,
5:u30::,
5:u31::,
5:u32::,
5:u33::,
5:uD0::,
5:u03::,
6:u04:00,
6:u05:pm,
5:u11::,
6:u12:00,
6:u13:pm,
6:u21:00,
6:u22:00,
6:u23:00,
6:u32:00,
6:u33:00,
5:uD1::,
5:u01:5,
5:u02::,
6:u03:00,
6:u04:pm,
5:u10::,
6:u11:00,
6:u12:pm,
5:u20:p,
6:u21:pm,
6:u22:pm,
6:u23:pm,
5:u30:m,
6:u31:pm,
6:u32:pm,
6:u33:pm,
5:u06:8,
5:u14:8,
5:u01:6,
7:u08:May,
5:u00:6,
5:u02:8,
7:u07:May,
5:u10:8,
5:u01:8,
7:u06:May,
7:u14:may,
5:u00:8,
5:u02:7,
5:u10:7,
5:u02:9,
5:u10:9,
9:u04:After,
9:u12:after,
6:u21:Af,
7:u22:Aft,
8:u23:Afte,
7:u32:ter,
8:u33:fter,
9:u03:After,
9:u11:after,
10:u04:Ancien,
11:u05:Régime,
10:u12:ancien,
11:u13:régime,
6:u21:An,
7:u22:Anc,
8:u23:Anci,
6:u31:en,
7:u32:ien,
8:u33:cien,
10:u03:Ancien,
11:u04:Régime,
10:u11:ancien,
11:u12:régime,
5:u20:R,
7:u21:Ré,
8:u22:Rég,
9:u23:Régi,
6:u31:me,
7:u32:ime,
8:u33:gime,
8:u05:2015,
8:u13:2015,
8:u04:From,
6:u06:to,
8:u12:from,
6:u14:to,
6:u21:Fr,
7:u22:Fro,
8:u23:From,
6:u31:om,
7:u32:rom,
8:u33:From,
8:u03:From,
6:u05:to,
8:u11:from,
6:u13:to,
8:u02:From,
6:u04:to,
8:u10:from,
6:u12:to,
5:u20:t,
6:u21:to,
6:u22:to,
6:u23:to,
5:u30:o,
6:u31:to,
6:u32:to,
6:u33:to,
8:u01:From,
6:u03:to,
6:u11:to,
9:u06:March,
9:u14:march,
11:u02:January,
11:u10:january,
11:u01:January,
8:u05:2014,
8:u13:2014,
8:u05:1901,
8:u13:1901,
8:u04:Nazi,
10:u05:period,
8:u12:nazi,
10:u13:period,
6:u21:Na,
7:u22:Naz,
8:u23:Nazi,
5:u30:i,
6:u31:zi,
7:u32:azi,
8:u33:Nazi,
8:u03:Nazi,
10:u04:period,
8:u11:nazi,
10:u12:period,
6:u21:pe,
7:u22:per,
8:u23:peri,
6:u31:od,
7:u32:iod,
8:u33:riod,
12:u04:Thursday,
8:u07:2016,
12:u12:thursday,
5:u20:T,
6:u21:Th,
7:u22:Thu,
8:u23:Thur,
7:u32:day,
8:u33:sday,
12:u03:Thursday,
12:u11:thursday,
12:u02:Thursday,
12:u10:thursday,
12:u01:Thursday,
5:u04:a,
14:u05:millennium,
5:u07:a,
8:u08:half,
5:u12:a,
14:u13:millennium,
5:u21:a,
5:u22:a,
5:u23:a,
5:u31:a,
5:u32:a,
5:u33:a,
5:uD0:x,
5:u03:a,
14:u04:millennium,
5:u06:a,
8:u07:half,
5:u11:a,
14:u12:millennium,
5:u14:a,
5:u20:m,
6:u21:mi,
7:u22:mil,
8:u23:mill,
6:u31:um,
7:u32:ium,
8:u33:nium,
5:uD1:x,
5:u02:a,
14:u03:millennium,
5:u05:a,
8:u06:half,
5:u10:a,
14:u11:millennium,
5:u13:a,
8:u14:half,
5:uD2:x,
5:u01:a,
14:u02:millennium,
8:u05:half,
14:u10:millennium,
8:u13:half,
5:u00:a,
14:u01:millennium,
8:u04:half,
8:u12:half,
6:u21:ha,
7:u22:hal,
8:u23:half,
5:u30:f,
6:u31:lf,
7:u32:alf,
8:u33:half,
9:u04:after,
6:u21:af,
7:u22:aft,
8:u23:afte,
9:u03:after,
8:u05:1978,
8:u13:1978,
8:u04:1978,
8:u12:1978,
8:u23:1978,
7:u32:978,
8:u33:1978,
9:u05:World,
7:u06:War,
5:u07:I,
9:u13:world,
7:u14:war,
9:u04:World,
7:u05:War,
5:u06:I,
9:u12:world,
7:u13:war,
5:u14:i,
5:u20:W,
6:u21:Wo,
7:u22:Wor,
8:u23:Worl,
6:u31:ld,
7:u32:rld,
8:u33:orld,
9:u02:after,
9:u03:World,
7:u04:War,
5:u05:I,
9:u10:after,
9:u11:world,
7:u12:war,
5:u13:i,
6:u21:Wa,
7:u22:War,
7:u23:War,
7:u32:War,
7:u33:War,
9:u01:after,
9:u02:World,
7:u03:War,
5:u04:I,
9:u10:world,
7:u11:war,
5:u12:i,
5:u20:I,
5:u21:I,
5:u22:I,
5:u23:I,
5:u30:I,
5:u31:I,
5:u32:I,
5:u33:I,
6:u07:II,
6:u06:II,
6:u14:ii,
6:u05:II,
6:u13:ii,
6:uD2:XX,
6:u04:II,
6:u12:ii,
6:u21:II,
6:u22:II,
6:u23:II,
6:u31:II,
6:u32:II,
6:u33:II,
6:uD0:XX,
13:u04:apartheid,
7:u06:era,
13:u12:apartheid,
7:u14:era,
6:u21:ap,
7:u22:apa,
8:u23:apar,
6:u31:id,
7:u32:eid,
8:u33:heid,
13:u03:apartheid,
7:u05:era,
13:u11:apartheid,
7:u13:era,
13:u02:apartheid,
7:u04:era,
13:u10:apartheid,
7:u12:era,
6:u21:er,
7:u22:era,
7:u23:era,
6:u31:ra,
7:u32:era,
7:u33:era,
10:u04:before,
10:u12:before,
5:u20:b,
6:u21:be,
7:u22:bef,
8:u23:befo,
6:u31:re,
7:u32:ore,
8:u33:fore,
10:u03:before,
10:u11:before,
7:u05:the,
9:u06:1940s,
7:u13:the,
9:u14:1940s,
7:u04:the,
9:u05:1940s,
7:u12:the,
9:u13:1940s,
6:u21:th,
7:u22:the,
7:u23:the,
6:u31:he,
7:u32:the,
7:u33:the,
16:u52:CONTAINDIGIT,
8:uD2:dddx,
10:u02:before,
7:u03:the,
10:u10:before,
7:u11:the,
7:u06:end,
6:u07:of,
8:u08:2017,
7:u14:end,
7:u05:end,
6:u06:of,
8:u07:2017,
7:u13:end,
6:u14:of,
7:u04:end,
6:u05:of,
7:u12:end,
6:u13:of,
6:u21:en,
7:u22:end,
7:u23:end,
7:u32:end,
7:u33:end,
10:u01:before,
7:u02:the,
7:u03:end,
6:u04:of,
7:u10:the,
7:u11:end,
6:u12:of,
5:u20:o,
6:u21:of,
6:u22:of,
6:u23:of,
6:u31:of,
6:u32:of,
6:u33:of,
10:u00:before,
7:u01:the,
7:u02:end,
6:u03:of,
7:u10:end,
6:u11:of,
13:u04:beginning,
9:u06:World,
7:u07:War,
6:u08:II,
13:u12:beginning,
9:u14:world,
7:u22:beg,
8:u23:begi,
5:u30:g,
6:u31:ng,
7:u32:ing,
8:u33:ning,
13:u03:beginning,
13:u11:beginning,
13:u02:beginning,
13:u10:beginning,
13:u01:beginning,
6:u02:of,
6:u10:of,
13:u00:beginning,
6:u01:of,
11:u04:between,
11:u12:between,
7:u22:bet,
8:u23:betw,
7:u32:een,
8:u33:ween,
11:u03:between,
11:u11:between,
11:u02:between,
11:u10:between,
11:u01:between,
11:u00:between,
8:u07:2009,
5:u08:1,
5:u07:1,
11:u08:October,
11:u07:October,
11:u06:October,
11:u14:october,
12:u01:November,
12:u00:November,
8:u05:2010,
8:u07:2015,
8:u13:2010,
8:u06:2015,
8:u14:2015,
8:u03:2010,
8:u11:2010,
8:u02:2010,
8:u10:2010,
12:u07:November,
13:u01:September,
6:u04:by,
7:u05:mid,
6:u12:by,
7:u13:mid,
6:u21:by,
6:u22:by,
6:u23:by,
6:u31:by,
6:u32:by,
6:u33:by,
6:u03:by,
7:u04:mid,
6:u11:by,
7:u12:mid,
7:u22:mid,
7:u23:mid,
7:u32:mid,
7:u33:mid,
6:u02:by,
7:u03:mid,
6:u10:by,
7:u11:mid,
6:u01:by,
7:u02:mid,
7:u10:mid,
10:u04:couple,
9:u06:hours,
10:u12:couple,
9:u14:hours,
6:u21:co,
7:u22:cou,
8:u23:coup,
6:u31:le,
7:u32:ple,
8:u33:uple,
10:u03:couple,
10:u11:couple,
10:u02:couple,
10:u10:couple,
9:u04:early,
9:u12:early,
6:u21:ea,
7:u22:ear,
8:u23:earl,
7:u32:rly,
8:u33:arly,
9:u03:early,
9:u11:early,
14:u05:nineteenth,
14:u13:nineteenth,
14:u04:nineteenth,
14:u12:nineteenth,
6:u21:ni,
7:u22:nin,
8:u23:nine,
7:u32:nth,
8:u33:enth,
9:u02:early,
14:u03:nineteenth,
9:u10:early,
14:u11:nineteenth,
7:u01:end,
8:u04:from,
10:u06:August,
6:u08:to,
10:u14:august,
5:u20:f,
6:u21:fr,
7:u22:fro,
8:u23:from,
8:u33:from,
8:u03:from,
6:u07:to,
5:u08:7,
8:u02:from,
5:u07:7,
8:u01:from,
8:u00:from,
10:u01:August,
10:u00:August,
6:u02:to,
6:u10:to,
6:u01:to,
8:u02:1916,
8:u10:1916,
9:u06:until,
9:u14:until,
9:u05:until,
9:u13:until,
9:u04:until,
9:u12:until,
7:u22:unt,
8:u23:unti,
7:u32:til,
8:u33:ntil,
9:u03:until,
9:u11:until,
8:u06:late,
8:u07:19th,
11:u08:century,
8:u14:late,
8:u05:late,
8:u06:19th,
11:u07:century,
9:u08:until,
8:u13:late,
8:u14:19th,
8:u04:late,
8:u05:19th,
9:u07:until,
7:u08:the,
8:u12:late,
8:u13:19th,
5:u20:l,
6:u21:la,
7:u22:lat,
8:u23:late,
6:u31:te,
7:u32:ate,
8:u33:late,
9:uD2:ddxxx,
8:u03:late,
8:u04:19th,
7:u07:the,
5:u08:",
8:u11:late,
8:u12:19th,
7:u22:19t,
8:u23:19th,
7:u32:9th,
8:u33:19th,
8:u02:late,
8:u03:19th,
7:u06:the,
5:u07:",
9:u08:Great,
8:u10:late,
8:u11:19th,
7:u14:the,
7:u00:the,
8:u01:late,
8:u02:19th,
11:u03:century,
5:u06:",
9:u07:Great,
9:u08:Aliya,
8:u10:19th,
11:u11:century,
5:u14:",
8:u00:late,
8:u01:19th,
11:u02:century,
5:u05:",
9:u06:Great,
9:u07:Aliya,
11:u10:century,
5:u13:",
9:u14:great,
9:u72:QUOTE,
5:uD2:",
8:u00:19th,
11:u01:century,
9:u02:until,
9:u05:Great,
9:u06:Aliya,
9:u10:until,
9:u13:great,
9:u14:aliya,
11:u00:century,
9:u01:until,
9:u04:Great,
9:u05:Aliya,
9:u12:great,
9:u13:aliya,
5:u20:G,
6:u21:Gr,
7:u22:Gre,
8:u23:Grea,
6:u31:at,
7:u32:eat,
8:u33:reat,
9:u00:until,
9:u03:Great,
9:u04:Aliya,
9:u11:great,
9:u12:aliya,
6:u21:Al,
7:u22:Ali,
8:u23:Aliy,
6:u31:ya,
7:u32:iya,
8:u33:liya,
9:u02:Great,
9:u03:Aliya,
9:u10:great,
9:u11:aliya,
9:u01:Great,
9:u02:Aliya,
9:u10:aliya,
7:u06:mid,
9:u08:1930s,
7:u14:mid,
9:u07:1930s,
9:u06:1930s,
9:u14:1930s,
9:u05:1930s,
9:u13:1930s,
13:u05:afternoon,
6:u06:on,
13:u13:afternoon,
6:u14:on,
13:u04:afternoon,
6:u05:on,
8:u08:2016,
13:u12:afternoon,
6:u13:on,
7:u32:oon,
8:u33:noon,
13:u03:afternoon,
6:u04:on,
13:u11:afternoon,
6:u12:on,
6:u21:on,
6:u22:on,
6:u23:on,
6:u32:on,
6:u33:on,
7:u01:mid,
13:u02:afternoon,
6:u03:on,
13:u10:afternoon,
6:u11:on,
7:u00:mid,
13:u01:afternoon,
6:u02:on,
6:u10:on,
13:u00:afternoon,
6:u01:on,
8:u06:1934,
8:u14:1934,
13:u06:afternoon,
13:u14:afternoon,
10:u04:middle,
5:u08:c,
10:u12:middle,
8:u23:midd,
7:u32:dle,
8:u33:ddle,
10:u03:middle,
5:u07:c,
10:u11:middle,
10:u02:middle,
5:u06:c,
10:u10:middle,
5:u14:c,
10:u01:middle,
5:u05:c,
5:u13:c,
10:u00:middle,
5:u04:c,
5:u12:c,
5:u21:c,
5:u22:c,
5:u23:c,
5:u30:c,
5:u31:c,
5:u32:c,
5:u33:c,
11:u04:morning,
11:u12:morning,
6:u21:mo,
7:u22:mor,
8:u23:morn,
11:u03:morning,
11:u11:morning,
11:u02:morning,
11:u10:morning,
11:u01:morning,
10:u04:second,
8:u08:19th,
10:u12:second,
5:u20:s,
6:u21:se,
7:u22:sec,
8:u23:seco,
7:u32:ond,
8:u33:cond,
10:u03:second,
10:u11:second,
10:u02:second,
8:u03:half,
10:u10:second,
8:u11:half,
10:u01:second,
8:u02:half,
8:u10:half,
10:u00:second,
8:u01:half,
8:u00:half,
9:u04:since,
9:u12:since,
6:u21:si,
7:u22:sin,
8:u23:sinc,
6:u31:ce,
7:u32:nce,
8:u33:ince,
9:u03:since,
9:u11:since,
8:u05:1985,
8:u13:1985,
8:u05:2007,
8:u13:2007,
10:u05:before,
8:u06:1973,
10:u13:before,
8:u14:1973,
8:u05:1973,
8:u13:1973,
9:u02:since,
9:u10:since,
9:u05:night,
9:u13:night,
9:u04:night,
9:u12:night,
7:u22:nig,
8:u23:nigh,
6:u31:ht,
7:u32:ght,
8:u33:ight,
9:u03:night,
9:u11:night,
9:u02:night,
9:u10:night,
9:u01:night,
9:u00:night,
6:u00:of,
0=0x1.e17e068f69d6bp-6
9=0x1.e17e068f69d6bp-6
18=0x1.e17e068f69d6bp-6
27=0x1.e17e068f69d6bp-6
63=0x1.c6a0a592efe0bp-3
64=0x1.39ebe5659a6bp-2
65=-0x1.3caa414f81c6fp-4
66=0x1.31023426593b9p-6
67=-0x1.86ef6b196526p-8
69=-0x1.6427375a08b0ep-3
70=0x1.9963e6c983f3ep-1
71=-0x1.23bade3ce798dp-3
72=0x1.c6a0a592efe0bp-3
73=0x1.39ebe5659a6bp-2
74=-0x1.3caa414f81c6fp-4
75=0x1.31023426593b9p-6
76=-0x1.86ef6b196526p-8
78=-0x1.6427375a08b0ep-3
79=0x1.9963e6c983f3ep-1
80=-0x1.23bade3ce798dp-3
81=0x1.e17e068f69d6bp-6
90=0x1.e17e068f69d6bp-6
200=-0x1.3519ffa1e72acp-1
208=0x1.1223c13dc2e7ep-2
209=0x1.c3b4737d93ec3p-4
211=-0x1.c8c41d17b324ep-2
216=0x1.e17e068f69d6bp-6
225=0x1.e17e068f69d6bp-6
235=0x1.0fe061dab838bp-2
236=0x1.7ca01565c773cp+0
237=-0x1.5b1b48c413a41p-5
243=0x1.e17e068f69d6bp-6
253=-0x1.62a34fc2fa978p-2
254=0x1.4932d650fd116p-1
261=0x1.5b9e564e0e272p-2
262=-0x1.5ed05392ab8e5p-6
263=-0x1.8c432f03c482fp-8
264=0x1.00b4ff76e1046p-1
268=-0x1.da621b1a64f9cp-7
269=-0x1.fdee62ec2217fp-1
270=0x1.e17e068f69d6bp-6
282=0x1.22dae5963bd4dp-1
289=0x1.6fc45653e531dp-2
290=0x1.535f37d042564p+0
292=-0x1.596c4e7f9cd5bp-2
295=-0x1.a0da3d4a4947p-8
297=0x1.d59ec5442d0dap-1
298=-0x1.f4b8fd3bb4ea1p+0
299=0x1.16441df9bf94bp-1
300=0x1.5ada22383ce2fp-2
301=-0x1.a43e872cc3e3ap-2
302=0x1.7c0bcce1d05a6p-2
304=-0x1.47f5b4fb0222ep-1
305=-0x1.3d376356b7085p+0
306=0x1.73094df338832p-4
307=-0x1.50377953ef2d2p-1
309=0x1.a8208c0810ca8p-18
312=0x1.87815d650caf9p-4
313=-0x1.5c2e291fd0fe3p-3
315=0x1.4065504ddf7bbp+0
318=0x1.2bf84e6ea3f3ap-1
324=0x1.e17e068f69d6bp-6
333=-0x1.30b33a2acdde7p-4
334=0x1.70041c4143a74p-2
335=-0x1.8fd19e81ee075p-4
336=0x1.fe85d5fcee9a4p-3
342=0x1.76a21f68dba6ep-2
343=0x1.4fb00519f6968p-3
344=-0x1.cd351ec04ff48p-2
345=0x1.384a8e64d3176p-3
349=-0x1.e1b3fa053bf8dp-4
352=0x1.835a0195b2a38p-4
353=0x1.372a8104f2348p-1
358=-0x1.de0a90f1ccc23p-4
369=0x1.e17e068f69d6bp-6
388=0x1.5c8378bc3c7c1p+2
389=-0x1.4f8214ea0a298p-1
397=0x1.4798a423ef06ap+2
398=-0x1.9b77bd0b55004p+0
405=0x1.064439601ac59p-1
406=-0x1.9424c161fb91bp+1
408=0x1.0b105372db32ep+0
409=0x1.7fa440d0509bfp+1
410=0x1.0e2b92e1d41a7p+0
411=-0x1.23d4bb63ffec8p-1
412=-0x1.532a882d82572p+0
413=-0x1.f8b5d09c70c6ep-1
416=0x1.e2ed12dc8c8adp-1
422=0x1.c3a077a7c7ac5p+2
425=-0x1.11abd7b694374p-1
430=0x1.d27b6e08cd09ep+2
438=0x1.b2c1124615057p+2
447=0x1.5788cdbd2f7bap+2
451=-0x1.ce0446851eab2p-6
457=0x1.9e35c87842e2bp+2
461=0x1.10c3058ce65fbp+0
467=0x1.ac6c9ff7b0a22p+2
469=0x1.49288ed5f5806p-4
471=0x1.7a93d09806dbp-2
472=-0x1.27ad77a4a2641p-4
478=0x1.49288ed5f5806p-4
480=0x1.7a93d09806dbp-2
481=-0x1.27ad77a4a2641p-4
487=0x1.49288ed5f5806p-4
489=0x1.7a93d09806dbp-2
490=-0x1.27ad77a4a2641p-4
522=0x1.c6c3cb6e9fd4dp-3
523=0x1.e58ee34b8e43bp-5
524=0x1.84c1293604afcp-4
525=-0x1.c87a29fdd37dcp-3
528=-0x1.c5815214b5c2p-13
530=-0x1.73cd8a19a1991p-2
531=0x1.c6c3cb6e9fd4dp-3
532=0x1.e58ee34b8e43bp-5
533=0x1.84c1293604afcp-4
534=-0x1.c87a29fdd37dcp-3
537=-0x1.c5815214b5c2p-13
539=-0x1.73cd8a19a1991p-2
540=0x1.c6c3cb6e9fd4dp-3
541=0x1.e58ee34b8e43bp-5
542=0x1.84c1293604afcp-4
543=-0x1.c87a29fdd37dcp-3
546=-0x1.c5815214b5c2p-13
548=-0x1.73cd8a19a1991p-2
550=0x1.49288ed5f5806p-4
552=0x1.7a93d09806dbp-2
553=-0x1.27ad77a4a2641p-4
585=0x1.c6c3cb6e9fd4dp-3
586=0x1.e58ee34b8e43bp-5
587=0x1.84c1293604afcp-4
588=-0x1.c87a29fdd37dcp-3
591=-0x1.c5815214b5c2p-13
593=-0x1.73cd8a19a1991p-2
666=0x1.7b85276f2f1aap-2
667=0x1.560bd82d56bb7p-2
672=-0x1.810db6f21c691p-1
681=0x1.20db09771a631p-1
683=0x1.17deac25fd78bp-3
685=0x1.49288ed5f5806p-4
687=0x1.7a93d09806dbp-2
688=-0x1.27ad77a4a2641p-4
694=-0x1.285107d21be3ep-2
695=-0x1.9102bd3b1697ap-1
696=0x1.ee69f35481a76p-2
703=-0x1.6c0e0f62e73abp-4
709=0x1.090ae6d25bfc2p-2
710=-0x1.2e93591dc9819p-3
712=-0x1.6693bd783dc6ap-5
713=0x1.bfea5410a0c62p-1
714=-0x1.8b8d9ff915cfp+0
718=0x1.27819680c3789p-7
719=0x1.bb698c67dbc19p-5
721=-0x1.32286d7d8e917p-1
722=-0x1.e3b998a9c550ap-8
728=0x1.3457a6d88c6c1p-6
730=0x1.05bdffd9ec268p-4
731=0x1.6a2b2ac5e7289p-2
736=-0x1.177c16d12a48cp-5
739=0x1.344a0ff1a332ep+0
740=-0x1.a6deaea841533p-7
745=0x1.48c3b8b406bf9p-3
746=0x1.802d1ceb21357p-7
747=-0x1.cad0553405529p-6
756=-0x1.126bb624da697p-7
757=0x1.4d8e68553497cp-1
758=0x1.574d0fcb76e2dp+0
759=-0x1.7580c6c97d078p-3
760=-0x1.9fc46747ce66bp-2
763=0x1.733562630f14p-3
767=0x1.0fbe2c8d73508p+0
774=-0x1.d61e2129e2814p+0
775=0x1.a08172ae5477ep-3
778=-0x1.214d4057b6cbep-10
782=0x1.7fdd64fecc175p-4
801=-0x1.f2dd01aa98dap-15
803=0x1.02a72059dbba7p-3
811=0x1.c318bf3ea7adp-3
812=-0x1.c8fc05ef87a51p-3
817=-0x1.228ce32d7c57dp-3
818=0x1.8b26706a40844p-3
820=0x1.c318bf3ea7adp-3
821=-0x1.c8fc05ef87a51p-3
826=-0x1.228ce32d7c57dp-3
827=0x1.8b26706a40844p-3
853=0x1.b3b9a7eba4a4bp-8
862=0x1.80ce06a8281ffp-8
871=0x1.80ce06a8281ffp-8
880=0x1.80ce06a8281ffp-8
889=0x1.80ce06a8281ffp-8
916=0x1.b3b9a7eba4a4bp-8
925=0x1.80ce06a8281ffp-8
934=0x1.80ce06a8281ffp-8
936=0x1.ed27e54c816e5p-3
937=-0x1.6cf992f9f003cp-12
938=-0x1.17d46f556aaecp+0
944=0x1.6c7d8b433740fp-1
945=0x1.82c05c9090b3bp-3
946=-0x1.2a5d096949eddp-5
948=-0x1.fe356b268fe3fp-4
949=0x1.696224dfd7cb6p-2
954=-0x1.1686f6a563753p-2
959=0x1.92d77b9dbffbep+0
961=0x1.5d9237ad95d1p-3
970=0x1.b3b9a7eba4a4bp-8
973=-0x1.e603b75bbeab4p-4
978=0x1.2c19708e6f221p-1
988=0x1.b3b9a7eba4a4bp-8
997=0x1.b3b9a7eba4a4bp-8
1006=0x1.b3b9a7eba4a4bp-8
1015=0x1.80ce06a8281ffp-8
1018=0x1.0ca6ccd987dc7p-3
1026=-0x1.83c62a4848e9bp-13
1032=0x1.ec052de80aef9p-1
1036=0x1.0e5b551b091abp-6
1037=0x1.53be2434618fbp-1
1038=-0x1.ad90104ca35a7p-3
1051=0x1.80ce06a8281ffp-8
1054=0x1.6239aa2754f06p-2
1055=0x1.2f07a12a8f9b6p+0
1056=-0x1.29f93045da177p-1
1060=0x1.35e650cd8ab2bp-8
1069=0x1.80ce06a8281ffp-8
1073=-0x1.1852ed5d1dc4dp-2
1074=0x1.b2eb70490d846p-4
1080=0x1.cbc978ab1461fp-1
1081=0x1.49c64169815b6p-1
1082=0x1.385cdb649cd1bp-2
1083=-0x1.1fbbb49467951p+0
1084=-0x1.14f34c2643646p-2
1085=-0x1.7e50c34ceac63p-1
1086=-0x1.1f26d01e18accp-2
1087=0x1.0e8d27e213e5p-2
1090=-0x1.868aa36c1a88ap-1
1091=-0x1.8793ff75de235p-5
1095=0x1.ab17062ee46c9p-1
1096=0x1.ec941897a0ebep-5
1105=0x1.80ce06a8281ffp-8
1108=-0x1.a3fef9317d337p-13
1110=0x1.de17587b7b163p-4
1111=0x1.51eb9fb774656p-7
1118=0x1.49c1fa98b2e07p-1
1132=0x1.80ce06a8281ffp-8
1208=-0x1.33e2b01b0864ep-1
1213=-0x1.01c6cc00f03b3p-10
1252=0x1.ca00fdd1e354bp-7
1253=-0x1.6578caaaa154fp-5
1257=0x1.4c4f5183588d9p-5
1370=-0x1.93941ae87fa6bp-1
1372=-0x1.a8aeadc0e2188p-3
1374=0x1.fc4fb5cea8861p-2
1477=0x1.a1fa4bfc34f1fp-1
1478=-0x1.2ba8a647fb172p-3
1484=0x1.3e2f5f9a2cc6bp-4
1560=0x1.1de5c2863868cp-5
1569=0x1.087285e55b888p-2
1578=0x1.516065a63e074p-2
1667=-0x1.16b97ba02ae13p-4
1668=0x1.d2abda07ddd8p-2
1711=0x1.742ad87378de3p-4
1729=0x1.742ad87378de3p-4
1758=0x1.27f752153aa22p-1
1785=0x1.27f752153aa22p-1
1917=0x1.eed2145f27d7dp-3
1918=0x1.6a6c60978ad57p-1
1921=-0x1.884c4b7e26bfcp-1
1954=0x1.d40a38482cf39p-11
1956=0x1.9c34e7bd48d53p-4
1957=-0x1.293b955b7ffe4p-2
1961=0x1.9fcc2cb9c5d2p-2
2056=0x1.f092b3151f543p-22
2151=-0x1.1244efac0935fp-4
2154=0x1.295a47fc58e06p-21
2549=0x1.94f42e60785bcp-3
2583=-0x1.0a548d0e72c4bp+0
2584=0x1.4b486fd828cc9p-2
2586=0x1.c5cb33d790141p-3
2591=-0x1.ae087eb531813p-4
2594=0x1.94f42e60785bcp-3
2621=0x1.94f42e60785bcp-3
2630=0x1.94f42e60785bcp-3
2639=0x1.94f42e60785bcp-3
2648=0x1.94f42e60785bcp-3
2657=0x1.94f42e60785bcp-3
2666=0x1.94f42e60785bcp-3
2675=0x1.94f42e60785bcp-3
2684=0x1.94f42e60785bcp-3
2692=-0x1.190a5254213a5p-3
2693=0x1.88b0287ab7114p-1
2695=-0x1.b95e890ef8a2dp-4
2698=0x1.adf3bdefe6afp-7
2699=0x1.2fd0f818e4fc2p-5
2702=0x1.29ee8b69974a7p-6
2705=0x1.bacfe32ceb762p-1
2709=0x1.3637f4ab3291ep-8
2710=0x1.9c9b060c19c9ep-9
2712=-0x1.7a63c4d52012bp-6
2714=0x1.2b0c55fb5c7cbp-2
2716=-0x1.2034d6919f23dp+0
2719=-0x1.555798df5fdf2p-2
2720=0x1.52be00eb02bb7p-2
2729=0x1.94f42e60785bcp-3
2738=0x1.94f42e60785bcp-3
2747=0x1.2733fe04c48b9p-1
2749=0x1.42f25b2f97abep-1
2754=0x1.52766b7d15d33p-1
2757=0x1.0fa94f7bc08c4p-8
2781=0x1.52766b7d15d33p-1
2784=0x1.0fa94f7bc08c4p-8
2874=-0x1.311af295fd89cp-2
2878=0x1.84282ac1f79d5p-6
2879=-0x1.63b387b82636p-6
2880=0x1.52766b7d15d33p-1
2883=0x1.0fa94f7bc08c4p-8
2889=0x1.52766b7d15d33p-1
2892=0x1.0fa94f7bc08c4p-8
2898=0x1.60c5e0bea38c4p-5
2899=0x1.a3d540fdd81d7p-2
2921=0x1.db67598ad463dp-3
2925=0x1.60c5e0bea38c4p-5
2926=0x1.a3d540fdd81d7p-2
2948=0x1.db67598ad463dp-3
2957=0x1.db67598ad463dp-3
2966=0x1.db67598ad463dp-3
2975=0x1.db67598ad463dp-3
2984=0x1.db67598ad463dp-3
2993=0x1.db67598ad463dp-3
3002=0x1.db67598ad463dp-3
3011=0x1.db67598ad463dp-3
3022=0x1.8489b7a3cb27cp-1
3025=0x1.a502a41985a73p-6
3028=0x1.46325ca734b99p+0
3031=-0x1.3891e40ea7f9cp-5
3032=0x1.69b24afc06019p-1
3034=0x1.d507ef71f1a4ep-3
3035=0x1.10724e7f59cdbp+0
3037=0x1.62ea059d18188p-3
3053=0x1.1728e64f19ac2p-1
3071=0x1.1728e64f19ac2p-1
3206=0x1.7273d39491ddap-10
3215=0x1.7273d39491ddap-10
3224=0x1.7273d39491ddap-10
3233=0x1.7273d39491ddap-10
3242=0x1.7273d39491ddap-10
3251=0x1.7273d39491ddap-10
3260=0x1.7273d39491ddap-10
3269=0x1.7273d39491ddap-10
3278=0x1.7273d39491ddap-10
3474=-0x1.36b781caae88fp-4
3477=0x1.5eead0c0bf5ebp-1
3478=-0x1.84ce62afb6cc4p-3
3482=0x1.4fa7ddefb5631p-1
3501=-0x1.36b781caae88fp-4
3504=0x1.5eead0c0bf5ebp-1
3505=-0x1.84ce62afb6cc4p-3
3509=0x1.4fa7ddefb5631p-1
3540=-0x1.e4dcc1a969079p-2
3547=0x1.d7cf6c8e6da5dp-8
3550=-0x1.0dde335bd84efp-14
3574=-0x1.ab941460d6d5cp-6
3575=-0x1.d9904b0b87e64p-9
3576=0x1.2241d90ae4f51p-2
3579=0x1.bfbc46b4dc906p-6
3582=-0x1.36b781caae88fp-4
3585=0x1.5eead0c0bf5ebp-1
3586=-0x1.84ce62afb6cc4p-3
3590=0x1.4fa7ddefb5631p-1
3591=-0x1.36b781caae88fp-4
3594=0x1.5eead0c0bf5ebp-1
3595=-0x1.84ce62afb6cc4p-3
3599=0x1.4fa7ddefb5631p-1
3610=0x1.af9970299108fp-3
3615=0x1.997d5573d045p-3
3617=-0x1.de4aae5184c03p-5
3637=0x1.af9970299108fp-3
3642=0x1.997d5573d045p-3
3644=-0x1.de4aae5184c03p-5
3655=0x1.af9970299108fp-3
3660=0x1.997d5573d045p-3
3662=-0x1.de4aae5184c03p-5
3664=0x1.af9970299108fp-3
3669=0x1.997d5573d045p-3
3671=-0x1.de4aae5184c03p-5
3673=0x1.af9970299108fp-3
3678=0x1.997d5573d045p-3
3680=-0x1.de4aae5184c03p-5
3682=0x1.af9970299108fp-3
3687=0x1.997d5573d045p-3
3689=-0x1.de4aae5184c03p-5
3691=0x1.af9970299108fp-3
3696=0x1.997d5573d045p-3
3698=-0x1.de4aae5184c03p-5
3700=0x1.af9970299108fp-3
3705=0x1.997d5573d045p-3
3707=-0x1.de4aae5184c03p-5
3709=0x1.af9970299108fp-3
3714=0x1.997d5573d045p-3
3716=-0x1.de4aae5184c03p-5
3718=0x1.af9970299108fp-3
3723=0x1.997d5573d045p-3
3725=-0x1.de4aae5184c03p-5
3727=-0x1.3f199019620eap-1
3728=0x1.13e82d0253c0ep+0
3736=0x1.af9970299108fp-3
3741=0x1.997d5573d045p-3
3743=-0x1.de4aae5184c03p-5
3745=0x1.af9970299108fp-3
3750=0x1.997d5573d045p-3
3752=-0x1.de4aae5184c03p-5
3754=-0x1.3f199019620eap-1
3755=0x1.13e82d0253c0ep+0
3771=-0x1.800959c0d9deep-4
3772=0x1.4be450a7a604ap-3
3775=0x1.24f13e50af591p+0
3777=0x1.c4a80a6356c6cp-2
3782=0x1.f98969a826bbfp-2
3798=-0x1.800959c0d9deep-4
3799=0x1.4be450a7a604ap-3
3802=0x1.24f13e50af591p+0
3804=0x1.c4a80a6356c6cp-2
3809=0x1.f98969a826bbfp-2
3827=0x1.f98969a826bbfp-2
3834=-0x1.19ebe343df922p+1
3836=0x1.6df0e53ab3bfbp-2
3845=0x1.f98969a826bbfp-2
3854=0x1.f98969a826bbfp-2
3861=-0x1.23be49ea02734p+0
3862=0x1.077f45f2d7205p-5
3864=-0x1.2730714554df9p-1
3865=0x1.70a565cf094e3p-6
3868=0x1.d40ba6cdb3b29p-2
3870=-0x1.800959c0d9deep-4
3871=0x1.4be450a7a604ap-3
3874=0x1.24f13e50af591p+0
3876=0x1.c4a80a6356c6cp-2
3879=-0x1.800959c0d9deep-4
3880=0x1.4be450a7a604ap-3
3883=0x1.24f13e50af591p+0
3885=0x1.c4a80a6356c6cp-2
3897=-0x1.316d09045ac2ap-5
3898=0x1.2e6230b5c440ap-3
3899=-0x1.065b0cce54f7dp-4
3933=-0x1.316d09045ac2ap-5
3934=0x1.2e6230b5c440ap-3
3935=-0x1.065b0cce54f7dp-4
3951=0x1.6679fd4026a4fp-3
3963=-0x1.38d6fff05e875p+0
3965=0x1.d0c683134ebc2p-8
3969=0x1.b3f6b19663ecfp-3
3987=0x1.6679fd4026a4fp-3
4042=0x1.305f7eef66f63p-5
4051=0x1.f58c4d076ccd1p-5
4069=0x1.305f7eef66f63p-5
4161=0x1.9828c1cbfa765p-6
4189=0x1.fbbf55e04ba7cp-1
4210=0x1.5aa929881cac4p-2
4228=0x1.5aa929881cac4p-2
4252=-0x1.e51a69410868ap-4
4314=0x1.0af513248680dp-2
4338=0x1.b7a0aed55bd3ap-1
4341=-0x1.7665c7c11caf7p-1
4366=0x1.e71e589affe5p-13
4367=-0x1.9876e838a4f22p-15
4375=0x1.78675639fc554p-13
4376=-0x1.9e5d5b34b245ep-14
4384=0x1.e71e589affe5p-13
4385=-0x1.9876e838a4f22p-15
4393=0x1.78675639fc554p-13
4394=-0x1.9e5d5b34b245ep-14
4402=0x1.e754bf05f74b7p-15
4420=0x1.e754bf05f74b7p-15
4438=0x1.151e30b39bb7bp-2
4860=0x1.ea30382cf7ffep-3
4861=-0x1.c598eb4efd9e8p-2
4920=0x1.57ad623599eddp-6
4983=0x1.a14fb58c99e8bp+0
5024=0x1.60679773f7e72p-5
5051=0x1.60679773f7e72p-5
5060=0x1.60679773f7e72p-5
5069=0x1.60679773f7e72p-5
5078=0x1.60679773f7e72p-5
5087=0x1.60679773f7e72p-5
5096=0x1.60679773f7e72p-5
5105=0x1.60679773f7e72p-5
5114=0x1.60679773f7e72p-5
5123=0x1.60679773f7e72p-5
5131=0x1.356e1b850fad2p-4
5141=0x1.60679773f7e72p-5
5221=0x1.18e2c15eca4f1p-1
5225=0x1.cd7eb7d941a45p+0
5382=-0x1.22083f96e0c7cp-3
5388=0x1.41fd382421936p-3
5460=0x1.218589e5e8071p+1
5654=0x1.da6aa70bc1e61p-3
5670=-0x1.7e0d48a5cd0e6p-12
5673=0x1.8d80886c6c065p+0
5681=0x1.da6aa70bc1e61p-3
5699=0x1.da6aa70bc1e61p-3
5708=0x1.da6aa70bc1e61p-3
5717=0x1.da6aa70bc1e61p-3
5726=0x1.da6aa70bc1e61p-3
5735=0x1.da6aa70bc1e61p-3
5744=0x1.da6aa70bc1e61p-3
5753=0x1.da6aa70bc1e61p-3
5762=0x1.da6aa70bc1e61p-3
5771=0x1.da6aa70bc1e61p-3
5780=0x1.da6aa70bc1e61p-3
5787=0x1.dbcc2851e032ep-1
5789=0x1.4328e9456f78cp-2
5805=0x1.a54558347209cp-1
5808=-0x1.2afb90d71b236p-2
5814=0x1.dbcc2851e032ep-1
5816=0x1.4328e9456f78cp-2
5832=0x1.a54558347209cp-1
5835=-0x1.2afb90d71b236p-2
5841=0x1.dbcc2851e032ep-1
5843=0x1.4328e9456f78cp-2
5850=0x1.dbcc2851e032ep-1
5852=0x1.4328e9456f78cp-2
5860=-0x1.4621ae56ae632p-4
5861=0x1.ee3a50749389p-11
5877=0x1.ef0cf22873967p-3
5881=0x1.37494ea1de306p-10
5887=-0x1.4621ae56ae632p-4
5888=0x1.ee3a50749389p-11
5904=0x1.ef0cf22873967p-3
5908=0x1.37494ea1de306p-10
5958=0x1.ef0cf22873967p-3
5962=0x1.37494ea1de306p-10
5967=0x1.ef0cf22873967p-3
5971=0x1.37494ea1de306p-10
5978=0x1.d4515630ba17dp+1
5983=-0x1.e5bd52ff6b7fap-2
6001=0x1.4dc46f0686767p-6
6019=0x1.4dc46f0686767p-6
6028=0x1.4dc46f0686767p-6
6037=0x1.4dc46f0686767p-6
6046=0x1.4dc46f0686767p-6
6055=0x1.4dc46f0686767p-6
6064=0x1.4dc46f0686767p-6
6073=0x1.4dc46f0686767p-6
6082=0x1.4dc46f0686767p-6
6091=0x1.4dc46f0686767p-6
6100=0x1.4dc46f0686767p-6
6109=0x1.4dc46f0686767p-6
6487=0x1.90061666024afp-9
6491=0x1.b2db510cc5eacp-3
6496=-0x1.61d994a77089cp-3
6500=0x1.b2db510cc5eacp-3
6505=-0x1.61d994a77089cp-3
6509=0x1.b2db510cc5eacp-3
6514=-0x1.61d994a77089cp-3
6555=0x1.36b320003130ap-3
6564=0x1.36b320003130ap-3
6573=0x1.36b320003130ap-3
6582=0x1.36b320003130ap-3
6591=0x1.36b320003130ap-3
6600=0x1.36b320003130ap-3
7094=0x1.a2f580ea2d73dp-3
7099=-0x1.72dd970ccaf8dp-3
7103=0x1.a2f580ea2d73dp-3
7108=-0x1.72dd970ccaf8dp-3
7112=0x1.a2f580ea2d73dp-3
7117=-0x1.72dd970ccaf8dp-3
8228=0x1.03fb9febf12aap-2
8237=0x1.03fb9febf12aap-2
8730=0x1.7b27e531054bfp-2
9074=0x1.e81c803b87e56p-9
9092=0x1.e81c803b87e56p-9
9917=0x1.cc77d45f46e1cp-2
10008=-0x1.50a25991512a8p-2
10010=0x1.cc0ad24461465p-6
10845=0x1.009b22e971a48p-3
10863=0x1.009b22e971a48p-3
10881=0x1.009b22e971a48p-3
10890=0x1.009b22e971a48p-3
10899=0x1.009b22e971a48p-3
10908=0x1.009b22e971a48p-3
11621=-0x1.2de5a7e84af3ap-3
11630=-0x1.2de5a7e84af3ap-3
11730=0x1.f90a16d44bd4dp-3
11735=0x1.423aa0c428d9ap-18
11739=0x1.f90a16d44bd4dp-3
11744=0x1.423aa0c428d9ap-18
11748=0x1.f90a16d44bd4dp-3
11753=0x1.423aa0c428d9ap-18
11757=0x1.f90a16d44bd4dp-3
11762=0x1.423aa0c428d9ap-18
11771=0x1.d9339e00723a5p-4
11780=0x1.d9339e00723a5p-4
11789=0x1.d9339e00723a5p-4
11798=0x1.d9339e00723a5p-4
11807=0x1.d9339e00723a5p-4
11816=0x1.d9339e00723a5p-4
11825=0x1.d9339e00723a5p-4
11834=0x1.d9339e00723a5p-4
11843=0x1.d9339e00723a5p-4
11852=0x1.d9339e00723a5p-4
11861=0x1.d9339e00723a5p-4
11870=0x1.d9339e00723a5p-4
11881=-0x1.c78f4b72f1605p-6
11887=0x1.9c20cb655757cp-3
11888=0x1.9814d4bcbb163p-2
11899=-0x1.c78f4b72f1605p-6
11905=0x1.9c20cb655757cp-3
11906=0x1.9814d4bcbb163p-2
11908=-0x1.c78f4b72f1605p-6
11914=0x1.9c20cb655757cp-3
11915=0x1.9814d4bcbb163p-2
11917=-0x1.c78f4b72f1605p-6
11923=0x1.9c20cb655757cp-3
11924=0x1.9814d4bcbb163p-2
11941=0x1.57f2797acf9e3p+0
11950=0x1.57f2797acf9e3p+0
12746=-0x1.3163cd386176ap-5
12770=0x1.2653dd500764ep-3
12782=-0x1.3163cd386176ap-5
12791=-0x1.3163cd386176ap-5
12800=-0x1.3163cd386176ap-5
12809=-0x1.3163cd386176ap-5
12818=-0x1.3163cd386176ap-5
12827=-0x1.3163cd386176ap-5
12836=-0x1.3163cd386176ap-5
12845=-0x1.3163cd386176ap-5
12854=-0x1.3163cd386176ap-5
12863=-0x1.3163cd386176ap-5
12880=0x1.ada3c7a4fbeeep-4
12907=0x1.ada3c7a4fbeeep-4
12916=0x1.ada3c7a4fbeeep-4
12989=0x1.67ec0b6005418p+0
13007=-0x1.8d29eff7d3ad1p-3
13034=-0x1.8d29eff7d3ad1p-3
13057=0x1.5be8cb05c3b06p-1
13193=0x1.5b1c12d2d67bap-2
13211=0x1.5b1c12d2d67bap-2
13238=0x1.a6a307ba2bb36p-2
13256=0x1.a6a307ba2bb36p-2
14303=0x1.9496a4ea46123p-2
14308=-0x1.bb6957cf3e311p-3
14312=0x1.9496a4ea46123p-2
14317=-0x1.bb6957cf3e311p-3
14807=-0x1.a94a5fe5bb56bp-1
14914=0x1.7845ff50ed8a7p-2
14950=0x1.1f2c04511df9ep-3
14953=0x1.267ebce42144bp+1
15941=0x1.2ab524faa58b2p+0
15950=0x1.2ab524faa58b2p+0
18594=-0x1.422e042ce83e3p+0
18641=0x1.a4dec6cf49bbep-1
18702=0x1.d50764d618bcap+0
18703=-0x1.1352b02080b3cp-1
18704=0x1.4242cf471cc81p+1
18705=-0x1.44423b221c99cp+0
18706=0x1.303abd20d3693p+0
18824=0x1.b7c799739a482p+0
20549=0x1.5e26d7bf422dbp-1
20846=0x1.4518059da2c43p+0
20855=0x1.4518059da2c43p+0
20880=0x1.a1817628ec783p-1
29004=0x1.38894502f8701p-2
29963=0x1.4924ce956cb8p-1
29972=0x1.4924ce956cb8p-1
30389=0x1.caf24774690ccp-2
30416=0x1.caf24774690ccp-2
30425=0x1.caf24774690ccp-2
30431=0x1.90c3e8b6b3dfp-6
30458=0x1.90c3e8b6b3dfp-6
30476=0x1.90c3e8b6b3dfp-6
30485=0x1.90c3e8b6b3dfp-6
30494=0x1.90c3e8b6b3dfp-6
30503=0x1.90c3e8b6b3dfp-6
30512=0x1.90c3e8b6b3dfp-6
30521=0x1.90c3e8b6b3dfp-6
30530=0x1.90c3e8b6b3dfp-6
30539=0x1.90c3e8b6b3dfp-6
30548=0x1.90c3e8b6b3dfp-6
30560=0x1.f93d1e8adc315p-2
30569=0x1.f93d1e8adc315p-2
30578=0x1.f93d1e8adc315p-2
30695=0x1.9e28e5fb883d1p-1
30704=0x1.9e28e5fb883d1p-1
30803=0x1.6ea667c86893ep-2
30812=0x1.6ea667c86893ep-2
30947=0x1.04ecef042a2b6p-1
32538=0x1.2bc12cf003b6p+0
33573=0x1.03a1304d6552fp+2
33806=0x1.8762dc19a060cp-2
33851=0x1.8762dc19a060cp-2
33860=0x1.8762dc19a060cp-2
33896=0x1.0d1c9804a214ap-2
33931=-0x1.ba205253f6662p-2
34623=0x1.14f84f00a5cc4p-1
35315=0x1.24ee5cbbf428p+0
35318=-0x1.3675b2372e993p-9
35327=-0x1.3675b2372e993p-9
35345=-0x1.3675b2372e993p-9
35354=-0x1.3675b2372e993p-9
35372=-0x1.3675b2372e993p-9
35408=-0x1.3675b2372e993p-9
35640=0x1.a4d6805213a17p-2
35813=0x1.b944fff7a4429p-2
35878=0x1.aa443ce64d647p+0
35887=0x1.aa443ce64d647p+0
35894=0x1.17c8a125ab7c3p-7
35912=0x1.17c8a125ab7c3p-7
36021=0x1.66a128ca608f7p-20
36660=0x1.55e6deeaf1472p-3
36669=0x1.55e6deeaf1472p-3
36697=0x1.3a07c9f6f42c2p+1
36985=0x1.eb6ed18277b5bp-4
37003=0x1.eb6ed18277b5bp-4
37060=0x1.402b779729336p-1
37078=0x1.402b779729336p-1
37096=0x1.5b160642f5488p+0
37102=-0x1.e9741a00ec7a7p-6
37111=-0x1.e9741a00ec7a7p-6
37451=0x1.ad878c3a529a8p-18
37487=0x1.ad878c3a529a8p-18
37496=0x1.ad878c3a529a8p-18
37505=0x1.ad878c3a529a8p-18
37514=0x1.ad878c3a529a8p-18
37523=0x1.ad878c3a529a8p-18
37532=0x1.3ed25aaf4542fp-2
37558=-0x1.9252d41c916dp-9
37856=-0x1.2975d93424de6p-5
37866=0x1.4f5eed55ce34cp-3
37875=0x1.6126dc2f2595ep-3
37884=0x1.6126dc2f2595ep-3
37892=-0x1.2975d93424de6p-5
37902=0x1.4f5eed55ce34cp-3
37910=-0x1.2975d93424de6p-5
37919=-0x1.2975d93424de6p-5
37928=-0x1.2975d93424de6p-5
37937=-0x1.2975d93424de6p-5
37946=-0x1.2975d93424de6p-5
37955=-0x1.2975d93424de6p-5
37964=-0x1.2975d93424de6p-5
37974=0x1.4f5eed55ce34cp-3
38718=0x1.2a80656ac1065p-6
38727=0x1.2a80656ac1065p-6
39657=0x1.fd2ea489bb964p+0
39666=0x1.fd2ea489bb964p+0
