#mdl#2#757
#rdr#50/6/0
12:u00:%x[-4,0],
12:u01:%x[-3,0],
12:u02:%x[-2,0],
12:u03:%x[-1,0],
11:u04:%x[0,0],
11:u05:%x[1,0],
11:u06:%x[2,0],
11:u07:%x[3,0],
11:u08:%x[4,0],
20:u09:%x[-1,0]/%x[0,0],
19:u0A:%x[0,0]/%x[1,0],
19:u0B:%x[1,0]/%x[2,0],
21:u0C:%x[-2,0]/%x[-1,0],
29:u0D:%x[-2,0]/%x[-1,0]/%x[0,0],
27:u0E:%x[0,0]/%x[1,0]/%x[2,0],
12:u10:%x[-2,1],
12:u11:%x[-1,1],
11:u12:%x[0,1],
11:u13:%x[1,1],
11:u14:%x[2,1],
12:u20:%x[-2,2],
12:u21:%x[-1,2],
11:u22:%x[0,2],
11:u23:%x[1,2],
11:u24:%x[2,2],
12:u30:%x[-2,3],
12:u31:%x[-1,3],
11:u32:%x[0,3],
11:u33:%x[1,3],
11:u34:%x[2,3],
20:u35:%x[-1,3]/%x[0,3],
19:u36:%x[0,3]/%x[1,3],
19:u37:%x[1,3]/%x[2,3],
12:u40:%x[-2,4],
12:u41:%x[-1,4],
11:u42:%x[0,4],
11:u43:%x[1,4],
11:u44:%x[2,4],
20:u45:%x[-1,4]/%x[0,4],
19:u46:%x[0,4]/%x[1,4],
19:u47:%x[1,4]/%x[2,4],
12:u50:%x[-2,5],
12:u51:%x[-1,5],
11:u52:%x[0,5],
11:u53:%x[1,5],
11:u54:%x[2,5],
20:u55:%x[-1,5]/%x[0,5],
19:u56:%x[0,5]/%x[1,5],
19:u57:%x[1,5]/%x[2,5],
11:u62:%x[0,6],
#qrk#7
8:I-<base>,
10:I-<prefix>,
6:<base>,
7:I-<pow>,
5:<pow>,
8:<prefix>,
7:<other>,
#qrk#4975
8:u00:_x-4,
8:u01:_x-3,
8:u02:_x-2,
8:u03:_x-1,
6:u04:°,
8:u05:_x+1,
8:u06:_x+2,
8:u07:_x+3,
8:u08:_x+4,
11:u09:_x-1/°,
11:u0A:°/_x+1,
13:u0B:_x+1/_x+2,
13:u0C:_x-2/_x-1,
16:u0D:_x-2/_x-1/°,
16:u0E:°/_x+1/_x+2,
8:u10:_x-2,
8:u11:_x-1,
5:u12:1,
8:u13:_x+1,
8:u14:_x+2,
8:u20:_x-2,
8:u21:_x-1,
5:u22:0,
8:u23:_x+1,
8:u24:_x+2,
8:u30:_x-2,
8:u31:_x-1,
5:u32:0,
8:u33:_x+1,
8:u34:_x+2,
10:u35:_x-1/0,
10:u36:0/_x+1,
13:u37:_x+1/_x+2,
8:u40:_x-2,
8:u41:_x-1,
5:u42:0,
8:u43:_x+1,
8:u44:_x+2,
10:u45:_x-1/0,
10:u46:0/_x+1,
13:u47:_x+1/_x+2,
8:u50:_x-2,
8:u51:_x-1,
11:u52:NOPUNCT,
8:u53:_x+1,
8:u54:_x+2,
16:u55:_x-1/NOPUNCT,
16:u56:NOPUNCT/_x+1,
13:u57:_x+1/_x+2,
5:u62:0,
5:u04:%,
10:u09:_x-1/%,
10:u0A:%/_x+1,
15:u0D:_x-2/_x-1/%,
15:u0E:%/_x+1/_x+2,
5:u04:c,
5:u05:m,
8:u06:_x+1,
8:u07:_x+2,
8:u08:_x+3,
10:u09:_x-1/c,
7:u0A:c/m,
10:u0B:m/_x+1,
15:u0D:_x-2/_x-1/c,
12:u0E:c/m/_x+1,
5:u12:0,
5:u13:0,
8:u14:_x+1,
5:u23:0,
8:u24:_x+1,
5:u32:1,
5:u33:1,
8:u34:_x+1,
10:u35:_x-1/1,
7:u36:1/1,
10:u37:1/_x+1,
5:u42:1,
5:u43:1,
8:u44:_x+1,
10:u45:_x-1/1,
7:u46:1/1,
10:u47:1/_x+1,
11:u53:NOPUNCT,
8:u54:_x+1,
19:u56:NOPUNCT/NOPUNCT,
16:u57:NOPUNCT/_x+1,
8:u00:_x-3,
8:u01:_x-2,
8:u02:_x-1,
5:u03:c,
5:u04:m,
7:u09:c/m,
10:u0A:m/_x+1,
10:u0C:_x-1/c,
12:u0D:_x-1/c/m,
15:u0E:m/_x+1/_x+2,
8:u10:_x-1,
5:u11:0,
8:u20:_x-1,
5:u21:0,
8:u30:_x-1,
5:u31:1,
7:u35:1/1,
10:u36:1/_x+1,
8:u40:_x-1,
5:u41:1,
7:u45:1/1,
10:u46:1/_x+1,
8:u50:_x-1,
11:u51:NOPUNCT,
19:u55:NOPUNCT/NOPUNCT,
5:u04:G,
5:u05:H,
5:u06:z,
8:u07:_x+1,
8:u08:_x+2,
10:u09:_x-1/G,
7:u0A:G/H,
7:u0B:H/z,
15:u0D:_x-2/_x-1/G,
9:u0E:G/H/z,
5:u13:1,
5:u14:0,
5:u24:0,
5:u33:0,
5:u34:1,
7:u36:0/0,
7:u37:0/1,
5:u43:0,
5:u44:1,
7:u46:1/0,
7:u47:0/1,
11:u54:NOPUNCT,
19:u57:NOPUNCT/NOPUNCT,
5:u03:G,
5:u04:H,
5:u05:z,
7:u09:G/H,
7:u0A:H/z,
10:u0B:z/_x+1,
10:u0C:_x-1/G,
12:u0D:_x-1/G/H,
12:u0E:H/z/_x+1,
5:u11:1,
5:u31:0,
7:u35:0/0,
7:u36:0/1,
7:u45:1/0,
7:u46:0/1,
8:u00:_x-2,
8:u01:_x-1,
5:u02:G,
5:u03:H,
5:u04:z,
7:u09:H/z,
10:u0A:z/_x+1,
7:u0C:G/H,
9:u0D:G/H/z,
15:u0E:z/_x+1/_x+2,
5:u10:1,
5:u20:0,
5:u30:0,
7:u35:0/1,
5:u40:1,
5:u41:0,
7:u45:0/1,
11:u50:NOPUNCT,
5:u04:k,
10:u09:_x-1/k,
7:u0A:k/H,
15:u0D:_x-2/_x-1/k,
9:u0E:k/H/z,
7:u36:1/0,
5:u03:k,
7:u09:k/H,
10:u0C:_x-1/k,
12:u0D:_x-1/k/H,
7:u35:1/0,
5:u02:k,
7:u0C:k/H,
9:u0D:k/H/z,
5:u10:0,
5:u30:1,
5:u04:M,
10:u09:_x-1/M,
7:u0A:M/H,
15:u0D:_x-2/_x-1/M,
9:u0E:M/H/z,
5:u03:M,
7:u09:M/H,
10:u0C:_x-1/M,
12:u0D:_x-1/M/H,
5:u02:M,
7:u0C:M/H,
9:u0D:M/H/z,
10:u09:_x-1/m,
7:u0A:m/H,
15:u0D:_x-2/_x-1/m,
9:u0E:m/H/z,
5:u03:m,
7:u09:m/H,
10:u0C:_x-1/m,
12:u0D:_x-1/m/H,
5:u02:m,
7:u0C:m/H,
9:u0D:m/H/z,
5:u04:K,
10:u09:_x-1/K,
10:u0A:K/_x+1,
15:u0D:_x-2/_x-1/K,
15:u0E:K/_x+1/_x+2,
7:u0A:m/m,
12:u0E:m/m/_x+1,
7:u09:m/m,
12:u0D:_x-1/m/m,
5:u05:K,
7:u0A:m/K,
10:u0B:K/_x+1,
12:u0E:m/K/_x+1,
10:u37:0/_x+1,
10:u47:0/_x+1,
7:u09:m/K,
12:u0D:_x-1/m/K,
6:u04:µ,
11:u09:_x-1/µ,
8:u0A:µ/m,
16:u0D:_x-2/_x-1/µ,
13:u0E:µ/m/_x+1,
6:u03:µ,
8:u09:µ/m,
11:u0C:_x-1/µ,
13:u0D:_x-1/µ/m,
8:u0A:µ/K,
13:u0E:µ/K/_x+1,
8:u09:µ/K,
13:u0D:_x-1/µ/K,
7:u0A:k/m,
12:u0E:k/m/_x+1,
7:u09:k/m,
12:u0D:_x-1/k/m,
5:u04:a,
5:u05:u,
10:u09:_x-1/a,
7:u0A:a/u,
10:u0B:u/_x+1,
15:u0D:_x-2/_x-1/a,
12:u0E:a/u/_x+1,
5:u03:a,
5:u04:u,
7:u09:a/u,
10:u0A:u/_x+1,
10:u0C:_x-1/a,
12:u0D:_x-1/a/u,
15:u0E:u/_x+1/_x+2,
5:u06:/,
5:u07:s,
8:u08:_x+1,
7:u0B:m//,
9:u0E:k/m//,
5:u14:1,
5:u34:0,
7:u37:1/0,
5:u44:0,
7:u47:1/0,
9:u54:SLASH,
17:u57:NOPUNCT/SLASH,
5:u05:/,
5:u06:s,
7:u0A:m//,
7:u0B://s,
9:u0E:m///s,
7:u47:0/0,
9:u53:SLASH,
17:u56:NOPUNCT/SLASH,
17:u57:SLASH/NOPUNCT,
5:u04:/,
5:u05:s,
7:u09:m//,
7:u0A://s,
10:u0B:s/_x+1,
7:u0C:k/m,
9:u0D:k/m//,
12:u0E://s/_x+1,
7:u46:0/0,
9:u52:SLASH,
17:u55:NOPUNCT/SLASH,
17:u56:SLASH/NOPUNCT,
8:u00:_x-1,
5:u01:k,
5:u03:/,
5:u04:s,
7:u09://s,
10:u0A:s/_x+1,
7:u0C:m//,
9:u0D:m///s,
15:u0E:s/_x+1/_x+2,
7:u45:0/0,
9:u51:SLASH,
17:u55:SLASH/NOPUNCT,
7:u04:′,
7:u05:′,
12:u09:_x-1/′,
11:u0A:′/′,
12:u0B:′/_x+1,
17:u0D:_x-2/_x-1/′,
16:u0E:′/′/_x+1,
7:u03:′,
11:u09:′/′,
12:u0A:′/_x+1,
12:u0C:_x-1/′,
16:u0D:_x-1/′/′,
17:u0E:′/_x+1/_x+2,
12:u0D:_x-1/m//,
5:u04:A,
5:u05:U,
10:u09:_x-1/A,
7:u0A:A/U,
10:u0B:U/_x+1,
15:u0D:_x-2/_x-1/A,
12:u0E:A/U/_x+1,
5:u03:A,
5:u04:U,
7:u09:A/U,
10:u0A:U/_x+1,
10:u0C:_x-1/A,
12:u0D:_x-1/A/U,
15:u0E:U/_x+1/_x+2,
7:u05:−,
5:u06:2,
9:u0A:m/−,
9:u0B:−/2,
11:u0E:m/−/2,
5:u24:1,
7:u37:0/0,
7:u04:−,
5:u05:2,
9:u09:m/−,
9:u0A:−/2,
10:u0B:2/_x+1,
14:u0D:_x-1/m/−,
14:u0E:−/2/_x+1,
5:u23:1,
7:u03:−,
5:u04:2,
9:u09:−/2,
10:u0A:2/_x+1,
9:u0C:m/−,
11:u0D:m/−/2,
15:u0E:2/_x+1/_x+2,
5:u22:1,
5:u04:g,
5:u05:c,
5:u06:m,
5:u07:3,
10:u09:_x-1/g,
7:u0A:g/c,
7:u0B:c/m,
15:u0D:_x-2/_x-1/g,
9:u0E:g/c/m,
7:u37:1/1,
7:u47:1/1,
5:u03:g,
5:u06:3,
7:u09:g/c,
7:u0B:m/3,
10:u0C:_x-1/g,
12:u0D:_x-1/g/c,
9:u0E:c/m/3,
5:u02:g,
5:u05:3,
7:u0A:m/3,
10:u0B:3/_x+1,
7:u0C:g/c,
9:u0D:g/c/m,
12:u0E:m/3/_x+1,
5:u40:0,
5:u01:g,
5:u02:c,
5:u04:3,
7:u09:m/3,
10:u0A:3/_x+1,
7:u0C:c/m,
9:u0D:c/m/3,
15:u0E:3/_x+1/_x+2,
7:u07:−,
5:u08:3,
7:u06:−,
9:u0B:m/−,
11:u0E:c/m/−,
9:u0B:−/3,
11:u0E:m/−/3,
9:u0A:−/3,
11:u0D:c/m/−,
14:u0E:−/3/_x+1,
5:u00:g,
5:u01:c,
9:u09:−/3,
11:u0D:m/−/3,
10:u09:_x-1/s,
15:u0D:_x-2/_x-1/s,
5:u05:r,
5:u06:c,
5:u07:m,
5:u08:i,
7:u0A:a/r,
7:u0B:r/c,
9:u0E:a/r/c,
5:u04:r,
5:u07:i,
5:u08:n,
7:u09:a/r,
7:u0A:r/c,
12:u0D:_x-1/a/r,
9:u0E:r/c/m,
5:u02:a,
5:u03:r,
5:u06:i,
5:u07:n,
5:u08:u,
7:u09:r/c,
7:u0B:m/i,
7:u0C:a/r,
9:u0D:a/r/c,
9:u0E:c/m/i,
5:u01:a,
5:u02:r,
5:u05:i,
5:u06:n,
5:u07:u,
5:u08:t,
7:u0A:m/i,
7:u0B:i/n,
7:u0C:r/c,
9:u0D:r/c/m,
9:u0E:m/i/n,
5:u00:a,
5:u01:r,
5:u04:i,
5:u05:n,
5:u06:u,
5:u07:t,
5:u08:e,
7:u09:m/i,
7:u0A:i/n,
7:u0B:n/u,
9:u0D:c/m/i,
9:u0E:i/n/u,
5:u00:r,
5:u03:i,
5:u04:n,
5:u06:t,
5:u07:e,
5:u08:s,
7:u09:i/n,
7:u0A:n/u,
7:u0B:u/t,
7:u0C:m/i,
9:u0D:m/i/n,
9:u0E:n/u/t,
5:u00:c,
5:u01:m,
5:u02:i,
5:u03:n,
5:u05:t,
5:u06:e,
7:u09:n/u,
7:u0A:u/t,
7:u0B:t/e,
7:u0C:i/n,
9:u0D:i/n/u,
9:u0E:u/t/e,
5:u00:m,
5:u01:i,
5:u02:n,
5:u03:u,
5:u04:t,
5:u05:e,
7:u09:u/t,
7:u0A:t/e,
7:u0B:e/s,
7:u0C:n/u,
9:u0D:n/u/t,
9:u0E:t/e/s,
5:u00:i,
5:u01:n,
5:u02:u,
5:u03:t,
5:u04:e,
7:u09:t/e,
7:u0A:e/s,
7:u0C:u/t,
9:u0D:u/t/e,
12:u0E:e/s/_x+1,
5:u00:n,
5:u01:u,
5:u02:t,
5:u03:e,
7:u09:e/s,
7:u0C:t/e,
9:u0D:t/e/s,
5:u05:J,
5:u06:y,
8:u0A:µ/J,
7:u0B:J/y,
10:u0E:µ/J/y,
5:u04:J,
5:u05:y,
8:u09:µ/J,
7:u0A:J/y,
10:u0B:y/_x+1,
13:u0D:_x-1/µ/J,
12:u0E:J/y/_x+1,
6:u02:µ,
5:u03:J,
5:u04:y,
7:u09:J/y,
10:u0A:y/_x+1,
8:u0C:µ/J,
10:u0D:µ/J/y,
15:u0E:y/_x+1/_x+2,
5:u08:1,
7:u0B:m/s,
9:u0E:k/m/s,
5:u07:1,
7:u0A:m/s,
9:u0B:s/−,
11:u0E:m/s/−,
5:u06:1,
7:u09:m/s,
9:u0A:s/−,
9:u0B:−/1,
9:u0D:k/m/s,
11:u0E:s/−/1,
5:u03:s,
5:u05:1,
9:u09:s/−,
9:u0A:−/1,
10:u0B:1/_x+1,
7:u0C:m/s,
11:u0D:m/s/−,
14:u0E:−/1/_x+1,
5:u00:k,
5:u02:s,
5:u04:1,
9:u09:−/1,
10:u0A:1/_x+1,
9:u0C:s/−,
11:u0D:s/−/1,
15:u0E:1/_x+1/_x+2,
10:u09:_x-1/z,
7:u0A:z/m,
15:u0D:_x-2/_x-1/z,
12:u0E:z/m/_x+1,
5:u03:z,
7:u09:z/m,
10:u0C:_x-1/z,
12:u0D:_x-1/z/m,
5:u04:Z,
10:u09:_x-1/Z,
7:u0A:Z/m,
15:u0D:_x-2/_x-1/Z,
12:u0E:Z/m/_x+1,
5:u03:Z,
7:u09:Z/m,
10:u0C:_x-1/Z,
12:u0D:_x-1/Z/m,
5:u04:d,
10:u09:_x-1/d,
7:u0A:d/m,
15:u0D:_x-2/_x-1/d,
12:u0E:d/m/_x+1,
5:u03:d,
7:u09:d/m,
10:u0C:_x-1/d,
12:u0D:_x-1/d/m,
5:u04:h,
10:u09:_x-1/h,
7:u0A:h/m,
15:u0D:_x-2/_x-1/h,
12:u0E:h/m/_x+1,
5:u03:h,
7:u09:h/m,
10:u0C:_x-1/h,
12:u0D:_x-1/h/m,
5:u04:p,
10:u09:_x-1/p,
7:u0A:p/m,
15:u0D:_x-2/_x-1/p,
12:u0E:p/m/_x+1,
5:u03:p,
7:u09:p/m,
10:u0C:_x-1/p,
12:u0D:_x-1/p/m,
5:u04:P,
10:u09:_x-1/P,
7:u0A:P/m,
15:u0D:_x-2/_x-1/P,
12:u0E:P/m/_x+1,
5:u03:P,
7:u09:P/m,
10:u0C:_x-1/P,
12:u0D:_x-1/P/m,
5:u05:a,
7:u0A:d/a,
7:u0B:a/m,
9:u0E:d/a/m,
7:u09:d/a,
7:u0A:a/m,
12:u0D:_x-1/d/a,
12:u0E:a/m/_x+1,
5:u02:d,
7:u09:a/m,
7:u0C:d/a,
9:u0D:d/a/m,
7:u0A:G/m,
12:u0E:G/m/_x+1,
7:u09:G/m,
12:u0D:_x-1/G/m,
7:u0A:M/m,
12:u0E:M/m/_x+1,
7:u09:M/m,
12:u0D:_x-1/M/m,
12:u0D:_x-1/a/m,
5:u04:f,
10:u09:_x-1/f,
7:u0A:f/m,
15:u0D:_x-2/_x-1/f,
12:u0E:f/m/_x+1,
5:u03:f,
7:u09:f/m,
10:u0C:_x-1/f,
12:u0D:_x-1/f/m,
5:u04:Y,
10:u09:_x-1/Y,
7:u0A:Y/m,
15:u0D:_x-2/_x-1/Y,
12:u0E:Y/m/_x+1,
5:u03:Y,
7:u09:Y/m,
10:u0C:_x-1/Y,
12:u0D:_x-1/Y/m,
10:u09:_x-1/y,
7:u0A:y/m,
15:u0D:_x-2/_x-1/y,
12:u0E:y/m/_x+1,
5:u03:y,
7:u09:y/m,
10:u0C:_x-1/y,
12:u0D:_x-1/y/m,
5:u04:T,
10:u09:_x-1/T,
7:u0A:T/m,
15:u0D:_x-2/_x-1/T,
12:u0E:T/m/_x+1,
5:u03:T,
7:u09:T/m,
10:u0C:_x-1/T,
12:u0D:_x-1/T/m,
10:u09:_x-1/n,
7:u0A:n/m,
15:u0D:_x-2/_x-1/n,
12:u0E:n/m/_x+1,
7:u09:n/m,
10:u0C:_x-1/n,
12:u0D:_x-1/n/m,
5:u04:E,
10:u09:_x-1/E,
7:u0A:E/m,
15:u0D:_x-2/_x-1/E,
12:u0E:E/m/_x+1,
5:u03:E,
7:u09:E/m,
10:u0C:_x-1/E,
12:u0D:_x-1/E/m,
5:u05:^,
7:u0A:m/^,
7:u0B:^/3,
9:u0E:m/^/3,
12:u53:EXPONENT,
20:u56:NOPUNCT/EXPONENT,
20:u57:EXPONENT/NOPUNCT,
5:u04:^,
7:u09:m/^,
7:u0A:^/3,
12:u0D:_x-1/m/^,
12:u0E:^/3/_x+1,
12:u52:EXPONENT,
20:u55:NOPUNCT/EXPONENT,
20:u56:EXPONENT/NOPUNCT,
5:u03:^,
7:u09:^/3,
7:u0C:m/^,
9:u0D:m/^/3,
12:u51:EXPONENT,
20:u55:EXPONENT/NOPUNCT,
5:u06:^,
7:u0B:m/^,
9:u0E:z/m/^,
12:u54:EXPONENT,
20:u57:NOPUNCT/EXPONENT,
5:u02:z,
7:u0C:z/m,
9:u0D:z/m/^,
5:u01:z,
9:u0E:Z/m/^,
5:u02:Z,
7:u0C:Z/m,
9:u0D:Z/m/^,
5:u01:Z,
9:u0E:d/m/^,
7:u0C:d/m,
9:u0D:d/m/^,
5:u01:d,
9:u0E:k/m/^,
9:u0D:k/m/^,
9:u0E:h/m/^,
5:u02:h,
7:u0C:h/m,
9:u0D:h/m/^,
5:u01:h,
9:u0E:c/m/^,
9:u0D:c/m/^,
9:u0E:p/m/^,
5:u02:p,
7:u0C:p/m,
9:u0D:p/m/^,
5:u01:p,
9:u0E:P/m/^,
5:u02:P,
7:u0C:P/m,
9:u0D:P/m/^,
5:u01:P,
5:u07:^,
9:u0E:a/m/^,
7:u0C:a/m,
9:u0D:a/m/^,
5:u00:d,
10:u0E:µ/m/^,
8:u0C:µ/m,
10:u0D:µ/m/^,
6:u01:µ,
9:u0E:G/m/^,
7:u0C:G/m,
9:u0D:G/m/^,
5:u01:G,
9:u0E:m/m/^,
7:u0C:m/m,
9:u0D:m/m/^,
9:u0E:M/m/^,
7:u0C:M/m,
9:u0D:M/m/^,
5:u01:M,
9:u0E:f/m/^,
5:u02:f,
7:u0C:f/m,
9:u0D:f/m/^,
5:u01:f,
9:u0E:Y/m/^,
5:u02:Y,
7:u0C:Y/m,
9:u0D:Y/m/^,
5:u01:Y,
9:u0E:y/m/^,
5:u02:y,
7:u0C:y/m,
9:u0D:y/m/^,
5:u01:y,
9:u0E:T/m/^,
5:u02:T,
7:u0C:T/m,
9:u0D:T/m/^,
5:u01:T,
9:u0E:n/m/^,
7:u0C:n/m,
9:u0D:n/m/^,
9:u0E:E/m/^,
5:u02:E,
7:u0C:E/m,
9:u0D:E/m/^,
5:u01:E,
6:u05:³,
8:u0A:m/³,
11:u0B:³/_x+1,
13:u0E:m/³/_x+1,
6:u04:³,
8:u09:m/³,
11:u0A:³/_x+1,
13:u0D:_x-1/m/³,
16:u0E:³/_x+1/_x+2,
6:u06:³,
8:u0B:m/³,
10:u0E:z/m/³,
10:u0D:z/m/³,
10:u0E:Z/m/³,
10:u0D:Z/m/³,
10:u0E:d/m/³,
10:u0D:d/m/³,
10:u0E:k/m/³,
10:u0D:k/m/³,
10:u0E:h/m/³,
10:u0D:h/m/³,
10:u0E:c/m/³,
10:u0D:c/m/³,
10:u0E:p/m/³,
10:u0D:p/m/³,
10:u0E:P/m/³,
10:u0D:P/m/³,
6:u07:³,
10:u0E:a/m/³,
10:u0D:a/m/³,
11:u0E:µ/m/³,
11:u0D:µ/m/³,
10:u0E:G/m/³,
10:u0D:G/m/³,
10:u0E:m/m/³,
10:u0D:m/m/³,
10:u0E:M/m/³,
10:u0D:M/m/³,
10:u0E:f/m/³,
10:u0D:f/m/³,
10:u0E:Y/m/³,
10:u0D:Y/m/³,
10:u0E:y/m/³,
10:u0D:y/m/³,
10:u0E:T/m/³,
10:u0D:T/m/³,
10:u0E:n/m/³,
10:u0D:n/m/³,
10:u0E:E/m/³,
10:u0D:E/m/³,
5:u05:h,
10:u09:_x-1/t,
7:u0A:t/h,
10:u0B:h/_x+1,
15:u0D:_x-2/_x-1/t,
12:u0E:t/h/_x+1,
7:u09:t/h,
10:u0A:h/_x+1,
10:u0C:_x-1/t,
12:u0D:_x-1/t/h,
15:u0E:h/_x+1/_x+2,
10:u09:_x-1/i,
10:u0B:n/_x+1,
15:u0D:_x-2/_x-1/i,
12:u0E:i/n/_x+1,
10:u0A:n/_x+1,
10:u0C:_x-1/i,
12:u0D:_x-1/i/n,
15:u0E:n/_x+1/_x+2,
7:u0A:f/t,
10:u0B:t/_x+1,
12:u0E:f/t/_x+1,
7:u09:f/t,
10:u0A:t/_x+1,
12:u0D:_x-1/f/t,
15:u0E:t/_x+1/_x+2,
5:u05:d,
7:u0A:y/d,
10:u0B:d/_x+1,
12:u0E:y/d/_x+1,
7:u09:y/d,
10:u0A:d/_x+1,
12:u0D:_x-1/y/d,
15:u0E:d/_x+1/_x+2,
7:u0A:c/h,
12:u0E:c/h/_x+1,
7:u09:c/h,
12:u0D:_x-1/c/h,
5:u06:r,
7:u0A:f/u,
7:u0B:u/r,
9:u0E:f/u/r,
7:u09:f/u,
7:u0A:u/r,
10:u0B:r/_x+1,
12:u0D:_x-1/f/u,
12:u0E:u/r/_x+1,
7:u09:u/r,
10:u0A:r/_x+1,
7:u0C:f/u,
9:u0D:f/u/r,
15:u0E:r/_x+1/_x+2,
10:u0B:i/_x+1,
12:u0E:m/i/_x+1,
10:u0A:i/_x+1,
12:u0D:_x-1/m/i,
15:u0E:i/_x+1/_x+2,
5:u04:l,
5:u06:a,
10:u09:_x-1/l,
7:u0A:l/e,
7:u0B:e/a,
15:u0D:_x-2/_x-1/l,
9:u0E:l/e/a,
5:u03:l,
7:u09:l/e,
7:u0A:e/a,
10:u0B:a/_x+1,
10:u0C:_x-1/l,
12:u0D:_x-1/l/e,
12:u0E:e/a/_x+1,
5:u02:l,
7:u09:e/a,
10:u0A:a/_x+1,
7:u0C:l/e,
9:u0D:l/e/a,
15:u0E:a/_x+1/_x+2,
7:u0B:t/m,
9:u0E:f/t/m,
7:u0A:t/m,
12:u0E:t/m/_x+1,
7:u09:t/m,
7:u0C:f/t,
9:u0D:f/t/m,
10:u0A:g/_x+1,
15:u0E:g/_x+1/_x+2,
5:u05:g,
7:u0A:z/g,
10:u0B:g/_x+1,
12:u0E:z/g/_x+1,
7:u09:z/g,
12:u0D:_x-1/z/g,
7:u0A:Z/g,
12:u0E:Z/g/_x+1,
7:u09:Z/g,
12:u0D:_x-1/Z/g,
7:u0A:d/g,
12:u0E:d/g/_x+1,
7:u09:d/g,
12:u0D:_x-1/d/g,
7:u0A:k/g,
12:u0E:k/g/_x+1,
7:u09:k/g,
12:u0D:_x-1/k/g,
7:u0A:h/g,
12:u0E:h/g/_x+1,
7:u09:h/g,
12:u0D:_x-1/h/g,
7:u0A:c/g,
12:u0E:c/g/_x+1,
7:u09:c/g,
12:u0D:_x-1/c/g,
7:u0A:p/g,
12:u0E:p/g/_x+1,
7:u09:p/g,
12:u0D:_x-1/p/g,
7:u0A:P/g,
12:u0E:P/g/_x+1,
7:u09:P/g,
12:u0D:_x-1/P/g,
5:u06:g,
7:u0B:a/g,
9:u0E:d/a/g,
7:u0A:a/g,
12:u0E:a/g/_x+1,
7:u09:a/g,
9:u0D:d/a/g,
8:u0A:µ/g,
13:u0E:µ/g/_x+1,
8:u09:µ/g,
13:u0D:_x-1/µ/g,
7:u0A:G/g,
12:u0E:G/g/_x+1,
7:u09:G/g,
12:u0D:_x-1/G/g,
7:u0A:m/g,
12:u0E:m/g/_x+1,
7:u09:m/g,
12:u0D:_x-1/m/g,
7:u0A:M/g,
12:u0E:M/g/_x+1,
7:u09:M/g,
12:u0D:_x-1/M/g,
12:u0D:_x-1/a/g,
7:u0A:f/g,
12:u0E:f/g/_x+1,
7:u09:f/g,
12:u0D:_x-1/f/g,
7:u0A:Y/g,
12:u0E:Y/g/_x+1,
7:u09:Y/g,
12:u0D:_x-1/Y/g,
7:u0A:y/g,
12:u0E:y/g/_x+1,
7:u09:y/g,
12:u0D:_x-1/y/g,
7:u0A:T/g,
12:u0E:T/g/_x+1,
7:u09:T/g,
12:u0D:_x-1/T/g,
7:u0A:n/g,
12:u0E:n/g/_x+1,
7:u09:n/g,
12:u0D:_x-1/n/g,
7:u0A:E/g,
12:u0E:E/g/_x+1,
7:u09:E/g,
12:u0D:_x-1/E/g,
7:u0A:g/r,
12:u0E:g/r/_x+1,
7:u09:g/r,
12:u0D:_x-1/g/r,
7:u0A:d/r,
9:u0E:d/r/c,
7:u09:d/r,
10:u0B:c/_x+1,
12:u0D:_x-1/d/r,
12:u0E:r/c/_x+1,
10:u0A:c/_x+1,
7:u0C:d/r,
9:u0D:d/r/c,
15:u0E:c/_x+1/_x+2,
5:u04:o,
10:u09:_x-1/o,
7:u0A:o/z,
15:u0D:_x-2/_x-1/o,
12:u0E:o/z/_x+1,
5:u03:o,
7:u09:o/z,
10:u0C:_x-1/o,
12:u0D:_x-1/o/z,
5:u05:b,
7:u0A:l/b,
10:u0B:b/_x+1,
12:u0E:l/b/_x+1,
5:u04:b,
7:u09:l/b,
10:u0A:b/_x+1,
12:u0D:_x-1/l/b,
15:u0E:b/_x+1/_x+2,
7:u0A:s/t,
12:u0E:s/t/_x+1,
7:u09:s/t,
10:u0C:_x-1/s,
12:u0D:_x-1/s/t,
5:u04:q,
10:u09:_x-1/q,
7:u0A:q/t,
7:u0B:t/r,
15:u0D:_x-2/_x-1/q,
9:u0E:q/t/r,
5:u03:q,
7:u09:q/t,
7:u0A:t/r,
10:u0C:_x-1/q,
12:u0D:_x-1/q/t,
12:u0E:t/r/_x+1,
5:u02:q,
7:u09:t/r,
7:u0C:q/t,
9:u0D:q/t/r,
5:u05:w,
7:u0A:c/w,
7:u0B:w/t,
9:u0E:c/w/t,
5:u04:w,
7:u09:c/w,
7:u0A:w/t,
12:u0D:_x-1/c/w,
12:u0E:w/t/_x+1,
5:u03:w,
7:u09:w/t,
7:u0C:c/w,
9:u0D:c/w/t,
10:u0A:A/_x+1,
15:u0E:A/_x+1/_x+2,
5:u05:A,
7:u0A:z/A,
10:u0B:A/_x+1,
12:u0E:z/A/_x+1,
7:u09:z/A,
12:u0D:_x-1/z/A,
7:u0A:Z/A,
12:u0E:Z/A/_x+1,
7:u09:Z/A,
12:u0D:_x-1/Z/A,
7:u0A:d/A,
12:u0E:d/A/_x+1,
7:u09:d/A,
12:u0D:_x-1/d/A,
7:u0A:k/A,
12:u0E:k/A/_x+1,
7:u09:k/A,
12:u0D:_x-1/k/A,
7:u0A:h/A,
12:u0E:h/A/_x+1,
7:u09:h/A,
12:u0D:_x-1/h/A,
7:u0A:c/A,
12:u0E:c/A/_x+1,
7:u09:c/A,
12:u0D:_x-1/c/A,
7:u0A:p/A,
12:u0E:p/A/_x+1,
7:u09:p/A,
12:u0D:_x-1/p/A,
7:u0A:P/A,
12:u0E:P/A/_x+1,
7:u09:P/A,
12:u0D:_x-1/P/A,
5:u06:A,
7:u0B:a/A,
9:u0E:d/a/A,
7:u0A:a/A,
12:u0E:a/A/_x+1,
7:u09:a/A,
9:u0D:d/a/A,
8:u0A:µ/A,
13:u0E:µ/A/_x+1,
8:u09:µ/A,
13:u0D:_x-1/µ/A,
7:u0A:G/A,
12:u0E:G/A/_x+1,
7:u09:G/A,
12:u0D:_x-1/G/A,
7:u0A:m/A,
12:u0E:m/A/_x+1,
7:u09:m/A,
12:u0D:_x-1/m/A,
7:u0A:M/A,
12:u0E:M/A/_x+1,
7:u09:M/A,
12:u0D:_x-1/M/A,
12:u0D:_x-1/a/A,
7:u0A:f/A,
12:u0E:f/A/_x+1,
7:u09:f/A,
12:u0D:_x-1/f/A,
7:u0A:Y/A,
12:u0E:Y/A/_x+1,
7:u09:Y/A,
12:u0D:_x-1/Y/A,
7:u0A:y/A,
12:u0E:y/A/_x+1,
7:u09:y/A,
12:u0D:_x-1/y/A,
7:u0A:T/A,
12:u0E:T/A/_x+1,
7:u09:T/A,
12:u0D:_x-1/T/A,
7:u0A:n/A,
12:u0E:n/A/_x+1,
7:u09:n/A,
12:u0D:_x-1/n/A,
7:u0A:E/A,
12:u0E:E/A/_x+1,
7:u09:E/A,
12:u0D:_x-1/E/A,
7:u0A:z/s,
12:u0E:z/s/_x+1,
7:u09:z/s,
12:u0D:_x-1/z/s,
7:u0A:Z/s,
12:u0E:Z/s/_x+1,
7:u09:Z/s,
12:u0D:_x-1/Z/s,
7:u0A:d/s,
12:u0E:d/s/_x+1,
7:u09:d/s,
12:u0D:_x-1/d/s,
7:u0A:k/s,
12:u0E:k/s/_x+1,
7:u09:k/s,
12:u0D:_x-1/k/s,
7:u0A:h/s,
12:u0E:h/s/_x+1,
7:u09:h/s,
12:u0D:_x-1/h/s,
7:u0A:c/s,
12:u0E:c/s/_x+1,
7:u09:c/s,
12:u0D:_x-1/c/s,
7:u0A:p/s,
12:u0E:p/s/_x+1,
7:u09:p/s,
12:u0D:_x-1/p/s,
7:u0A:P/s,
12:u0E:P/s/_x+1,
7:u09:P/s,
12:u0D:_x-1/P/s,
7:u0B:a/s,
9:u0E:d/a/s,
7:u0A:a/s,
12:u0E:a/s/_x+1,
7:u09:a/s,
9:u0D:d/a/s,
8:u0A:µ/s,
13:u0E:µ/s/_x+1,
8:u09:µ/s,
13:u0D:_x-1/µ/s,
7:u0A:G/s,
12:u0E:G/s/_x+1,
7:u09:G/s,
12:u0D:_x-1/G/s,
12:u0E:m/s/_x+1,
12:u0D:_x-1/m/s,
7:u0A:M/s,
12:u0E:M/s/_x+1,
7:u09:M/s,
12:u0D:_x-1/M/s,
12:u0D:_x-1/a/s,
7:u0A:f/s,
12:u0E:f/s/_x+1,
7:u09:f/s,
12:u0D:_x-1/f/s,
7:u0A:Y/s,
12:u0E:Y/s/_x+1,
7:u09:Y/s,
12:u0D:_x-1/Y/s,
7:u0A:y/s,
12:u0E:y/s/_x+1,
7:u09:y/s,
12:u0D:_x-1/y/s,
7:u0A:T/s,
12:u0E:T/s/_x+1,
7:u09:T/s,
12:u0D:_x-1/T/s,
7:u0A:n/s,
12:u0E:n/s/_x+1,
7:u09:n/s,
12:u0D:_x-1/n/s,
7:u0A:E/s,
12:u0E:E/s/_x+1,
7:u09:E/s,
12:u0D:_x-1/E/s,
7:u0A:c/d,
12:u0E:c/d/_x+1,
7:u09:c/d,
12:u0D:_x-1/c/d,
5:u06:d,
7:u0A:z/c,
7:u0B:c/d,
9:u0E:z/c/d,
7:u09:z/c,
12:u0D:_x-1/z/c,
7:u0C:z/c,
9:u0D:z/c/d,
7:u0A:Z/c,
9:u0E:Z/c/d,
7:u09:Z/c,
12:u0D:_x-1/Z/c,
7:u0C:Z/c,
9:u0D:Z/c/d,
7:u0A:d/c,
9:u0E:d/c/d,
7:u09:d/c,
12:u0D:_x-1/d/c,
7:u0C:d/c,
9:u0D:d/c/d,
7:u0A:k/c,
9:u0E:k/c/d,
7:u09:k/c,
12:u0D:_x-1/k/c,
7:u0C:k/c,
9:u0D:k/c/d,
7:u0A:h/c,
9:u0E:h/c/d,
7:u09:h/c,
12:u0D:_x-1/h/c,
7:u0C:h/c,
9:u0D:h/c/d,
7:u0A:c/c,
9:u0E:c/c/d,
7:u09:c/c,
12:u0D:_x-1/c/c,
7:u0C:c/c,
9:u0D:c/c/d,
7:u0A:p/c,
9:u0E:p/c/d,
7:u09:p/c,
12:u0D:_x-1/p/c,
7:u0C:p/c,
9:u0D:p/c/d,
7:u0A:P/c,
9:u0E:P/c/d,
7:u09:P/c,
12:u0D:_x-1/P/c,
7:u0C:P/c,
9:u0D:P/c/d,
5:u07:d,
7:u0B:a/c,
9:u0E:d/a/c,
7:u0A:a/c,
9:u0E:a/c/d,
7:u09:a/c,
9:u0D:d/a/c,
7:u0C:a/c,
9:u0D:a/c/d,
8:u0A:µ/c,
10:u0E:µ/c/d,
8:u09:µ/c,
13:u0D:_x-1/µ/c,
8:u0C:µ/c,
10:u0D:µ/c/d,
7:u0A:G/c,
9:u0E:G/c/d,
7:u09:G/c,
12:u0D:_x-1/G/c,
7:u0C:G/c,
9:u0D:G/c/d,
7:u0A:m/c,
9:u0E:m/c/d,
7:u09:m/c,
12:u0D:_x-1/m/c,
7:u0C:m/c,
9:u0D:m/c/d,
7:u0A:M/c,
9:u0E:M/c/d,
7:u09:M/c,
12:u0D:_x-1/M/c,
7:u0C:M/c,
9:u0D:M/c/d,
12:u0D:_x-1/a/c,
7:u0A:f/c,
9:u0E:f/c/d,
7:u09:f/c,
12:u0D:_x-1/f/c,
7:u0C:f/c,
9:u0D:f/c/d,
7:u0A:Y/c,
9:u0E:Y/c/d,
7:u09:Y/c,
12:u0D:_x-1/Y/c,
7:u0C:Y/c,
9:u0D:Y/c/d,
7:u0A:y/c,
9:u0E:y/c/d,
7:u09:y/c,
12:u0D:_x-1/y/c,
7:u0C:y/c,
9:u0D:y/c/d,
7:u0A:T/c,
9:u0E:T/c/d,
7:u09:T/c,
12:u0D:_x-1/T/c,
7:u0C:T/c,
9:u0D:T/c/d,
7:u0A:n/c,
9:u0E:n/c/d,
7:u09:n/c,
12:u0D:_x-1/n/c,
7:u0C:n/c,
9:u0D:n/c/d,
7:u0A:E/c,
9:u0E:E/c/d,
7:u09:E/c,
12:u0D:_x-1/E/c,
7:u0C:E/c,
9:u0D:E/c/d,
5:u05:o,
5:u06:l,
7:u0A:m/o,
7:u0B:o/l,
9:u0E:m/o/l,
5:u05:l,
7:u09:m/o,
7:u0A:o/l,
10:u0B:l/_x+1,
12:u0D:_x-1/m/o,
12:u0E:o/l/_x+1,
7:u09:o/l,
10:u0A:l/_x+1,
7:u0C:m/o,
9:u0D:m/o/l,
15:u0E:l/_x+1/_x+2,
5:u06:o,
5:u07:l,
7:u0B:m/o,
9:u0E:z/m/o,
9:u0D:z/m/o,
9:u0E:Z/m/o,
9:u0D:Z/m/o,
9:u0E:d/m/o,
9:u0D:d/m/o,
9:u0E:k/m/o,
9:u0D:k/m/o,
9:u0E:h/m/o,
9:u0D:h/m/o,
9:u0E:c/m/o,
9:u0D:c/m/o,
9:u0E:p/m/o,
9:u0D:p/m/o,
9:u0E:P/m/o,
9:u0D:P/m/o,
5:u07:o,
5:u08:l,
9:u0E:a/m/o,
9:u0D:a/m/o,
10:u0E:µ/m/o,
10:u0D:µ/m/o,
9:u0E:G/m/o,
9:u0D:G/m/o,
9:u0E:m/m/o,
9:u0D:m/m/o,
9:u0E:M/m/o,
9:u0D:M/m/o,
9:u0E:f/m/o,
9:u0D:f/m/o,
9:u0E:Y/m/o,
9:u0D:Y/m/o,
9:u0E:y/m/o,
9:u0D:y/m/o,
9:u0E:T/m/o,
9:u0D:T/m/o,
9:u0E:n/m/o,
9:u0D:n/m/o,
9:u0E:E/m/o,
9:u0D:E/m/o,
10:u0A:M/_x+1,
15:u0E:M/_x+1/_x+2,
5:u07:/,
5:u08:L,
5:u07:L,
7:u0B:l//,
9:u0E:o/l//,
5:u06:L,
7:u0A:l//,
7:u0B://L,
9:u0E:l///L,
5:u02:o,
5:u05:L,
7:u09:l//,
7:u0A://L,
10:u0B:L/_x+1,
7:u0C:o/l,
9:u0D:o/l//,
12:u0E://L/_x+1,
5:u01:o,
5:u04:L,
7:u09://L,
10:u0A:L/_x+1,
7:u0C:l//,
9:u0D:l///L,
15:u0E:L/_x+1/_x+2,
5:u08:m,
5:u08:^,
7:u0B://m,
9:u0E:l///m,
7:u0A://m,
9:u0E://m/^,
7:u09://m,
9:u0D:l///m,
5:u00:o,
5:u01:l,
5:u02:/,
7:u0C://m,
9:u0D://m/^,
9:u50:SLASH,
5:u00:l,
5:u01:/,
6:u08:³,
10:u0E://m/³,
10:u0D://m/³,
5:u06:w,
5:u07:%,
10:u09:_x-1/w,
7:u0A:w//,
7:u0B://w,
15:u0D:_x-2/_x-1/w,
9:u0E:w///w,
5:u06:%,
7:u09:w//,
7:u0A://w,
7:u0B:w/%,
10:u0C:_x-1/w,
12:u0D:_x-1/w//,
9:u0E://w/%,
5:u02:w,
5:u05:%,
7:u09://w,
7:u0A:w/%,
10:u0B:%/_x+1,
7:u0C:w//,
9:u0D:w///w,
12:u0E:w/%/_x+1,
5:u01:w,
7:u09:w/%,
7:u0C://w,
9:u0D://w/%,
5:u05:p,
7:u0A:p/p,
7:u0B:p/m,
9:u0E:p/p/m,
7:u09:p/p,
12:u0D:_x-1/p/p,
7:u0C:p/p,
9:u0D:p/p/m,
5:u06:b,
7:u0B:p/b,
9:u0E:p/p/b,
7:u0A:p/b,
12:u0E:p/b/_x+1,
7:u09:p/b,
9:u0D:p/p/b,
5:u07:z,
7:u0A:f/l,
7:u0B:l/o,
9:u0E:f/l/o,
7:u09:f/l,
7:u0A:l/o,
7:u0B:o/z,
12:u0D:_x-1/f/l,
9:u0E:l/o/z,
7:u09:l/o,
7:u0C:f/l,
9:u0D:f/l/o,
7:u0C:l/o,
9:u0D:l/o/z,
5:u06:.,
5:u08:z,
7:u0B:l/.,
9:u0E:f/l/.,
7:u54:DOT,
15:u57:NOPUNCT/DOT,
5:u05:.,
5:u08:.,
7:u0A:l/.,
7:u0B:./o,
9:u0E:l/./o,
7:u53:DOT,
15:u56:NOPUNCT/DOT,
15:u57:DOT/NOPUNCT,
5:u04:.,
5:u07:.,
7:u09:l/.,
7:u0A:./o,
9:u0D:f/l/.,
9:u0E:./o/z,
7:u52:DOT,
15:u55:NOPUNCT/DOT,
15:u56:DOT/NOPUNCT,
5:u03:.,
7:u09:./o,
7:u0B:z/.,
7:u0C:l/.,
9:u0D:l/./o,
9:u0E:o/z/.,
7:u51:DOT,
15:u55:DOT/NOPUNCT,
5:u00:f,
5:u02:.,
7:u0A:z/.,
10:u0B:./_x+1,
7:u0C:./o,
9:u0D:./o/z,
12:u0E:z/./_x+1,
7:u50:DOT,
12:u57:DOT/_x+1,
5:u01:.,
7:u09:z/.,
10:u0A:./_x+1,
7:u0C:o/z,
9:u0D:o/z/.,
15:u0E:./_x+1/_x+2,
12:u56:DOT/_x+1,
5:u07:f,
5:u06:f,
7:u0B:./f,
9:u0E:z/./f,
5:u05:f,
7:u0A:./f,
7:u0B:f/l,
9:u0E:./f/l,
7:u09:./f,
7:u0C:z/.,
9:u0D:z/./f,
7:u0C:./f,
9:u0D:./f/l,
12:u0E:l/./_x+1,
5:u00:z,
7:u0A:g/i,
12:u0E:g/i/_x+1,
7:u09:g/i,
12:u0D:_x-1/g/i,
7:u0A:p/t,
12:u0E:p/t/_x+1,
7:u09:p/t,
12:u0D:_x-1/p/t,
12:u0E:q/t/_x+1,
7:u0A:g/a,
7:u0B:a/l,
9:u0E:g/a/l,
7:u09:g/a,
7:u0A:a/l,
12:u0D:_x-1/g/a,
12:u0E:a/l/_x+1,
7:u09:a/l,
7:u0C:g/a,
9:u0D:g/a/l,
7:u0A:c/u,
7:u0B:u/i,
9:u0E:c/u/i,
7:u09:c/u,
7:u0A:u/i,
12:u0D:_x-1/c/u,
9:u0E:u/i/n,
7:u09:u/i,
7:u0C:c/u,
9:u0D:c/u/i,
7:u0C:u/i,
9:u0D:u/i/n,
5:u04:V,
10:u09:_x-1/V,
10:u0A:V/_x+1,
15:u0D:_x-2/_x-1/V,
15:u0E:V/_x+1/_x+2,
5:u05:V,
7:u0A:z/V,
10:u0B:V/_x+1,
12:u0E:z/V/_x+1,
7:u09:z/V,
12:u0D:_x-1/z/V,
7:u0A:Z/V,
12:u0E:Z/V/_x+1,
7:u09:Z/V,
12:u0D:_x-1/Z/V,
7:u0A:d/V,
12:u0E:d/V/_x+1,
7:u09:d/V,
12:u0D:_x-1/d/V,
7:u0A:k/V,
12:u0E:k/V/_x+1,
7:u09:k/V,
12:u0D:_x-1/k/V,
7:u0A:h/V,
12:u0E:h/V/_x+1,
7:u09:h/V,
12:u0D:_x-1/h/V,
7:u0A:c/V,
12:u0E:c/V/_x+1,
7:u09:c/V,
12:u0D:_x-1/c/V,
7:u0A:p/V,
12:u0E:p/V/_x+1,
7:u09:p/V,
12:u0D:_x-1/p/V,
7:u0A:P/V,
12:u0E:P/V/_x+1,
7:u09:P/V,
12:u0D:_x-1/P/V,
5:u06:V,
7:u0B:a/V,
9:u0E:d/a/V,
7:u0A:a/V,
12:u0E:a/V/_x+1,
7:u09:a/V,
9:u0D:d/a/V,
8:u0A:µ/V,
13:u0E:µ/V/_x+1,
8:u09:µ/V,
13:u0D:_x-1/µ/V,
7:u0A:G/V,
12:u0E:G/V/_x+1,
7:u09:G/V,
12:u0D:_x-1/G/V,
7:u0A:m/V,
12:u0E:m/V/_x+1,
7:u09:m/V,
12:u0D:_x-1/m/V,
7:u0A:M/V,
12:u0E:M/V/_x+1,
7:u09:M/V,
12:u0D:_x-1/M/V,
12:u0D:_x-1/a/V,
7:u0A:f/V,
12:u0E:f/V/_x+1,
7:u09:f/V,
12:u0D:_x-1/f/V,
7:u0A:Y/V,
12:u0E:Y/V/_x+1,
7:u09:Y/V,
12:u0D:_x-1/Y/V,
7:u0A:y/V,
12:u0E:y/V/_x+1,
7:u09:y/V,
12:u0D:_x-1/y/V,
7:u0A:T/V,
12:u0E:T/V/_x+1,
7:u09:T/V,
12:u0D:_x-1/T/V,
7:u0A:n/V,
12:u0E:n/V/_x+1,
7:u09:n/V,
12:u0D:_x-1/n/V,
7:u0A:E/V,
12:u0E:E/V/_x+1,
7:u09:E/V,
12:u0D:_x-1/E/V,
5:u04:F,
10:u09:_x-1/F,
10:u0A:F/_x+1,
15:u0D:_x-2/_x-1/F,
15:u0E:F/_x+1/_x+2,
5:u05:F,
7:u0A:z/F,
10:u0B:F/_x+1,
12:u0E:z/F/_x+1,
7:u09:z/F,
12:u0D:_x-1/z/F,
7:u0A:Z/F,
12:u0E:Z/F/_x+1,
7:u09:Z/F,
12:u0D:_x-1/Z/F,
7:u0A:d/F,
12:u0E:d/F/_x+1,
7:u09:d/F,
12:u0D:_x-1/d/F,
7:u0A:k/F,
12:u0E:k/F/_x+1,
7:u09:k/F,
12:u0D:_x-1/k/F,
7:u0A:h/F,
12:u0E:h/F/_x+1,
7:u09:h/F,
12:u0D:_x-1/h/F,
7:u0A:c/F,
12:u0E:c/F/_x+1,
7:u09:c/F,
12:u0D:_x-1/c/F,
7:u0A:p/F,
12:u0E:p/F/_x+1,
7:u09:p/F,
12:u0D:_x-1/p/F,
7:u0A:P/F,
12:u0E:P/F/_x+1,
7:u09:P/F,
12:u0D:_x-1/P/F,
5:u06:F,
7:u0B:a/F,
9:u0E:d/a/F,
7:u0A:a/F,
12:u0E:a/F/_x+1,
7:u09:a/F,
9:u0D:d/a/F,
8:u0A:µ/F,
13:u0E:µ/F/_x+1,
8:u09:µ/F,
13:u0D:_x-1/µ/F,
7:u0A:G/F,
12:u0E:G/F/_x+1,
7:u09:G/F,
12:u0D:_x-1/G/F,
7:u0A:m/F,
12:u0E:m/F/_x+1,
7:u09:m/F,
12:u0D:_x-1/m/F,
7:u0A:M/F,
12:u0E:M/F/_x+1,
7:u09:M/F,
12:u0D:_x-1/M/F,
12:u0D:_x-1/a/F,
7:u0A:f/F,
12:u0E:f/F/_x+1,
7:u09:f/F,
12:u0D:_x-1/f/F,
7:u0A:Y/F,
12:u0E:Y/F/_x+1,
7:u09:Y/F,
12:u0D:_x-1/Y/F,
7:u0A:y/F,
12:u0E:y/F/_x+1,
7:u09:y/F,
12:u0D:_x-1/y/F,
7:u0A:T/F,
12:u0E:T/F/_x+1,
7:u09:T/F,
12:u0D:_x-1/T/F,
7:u0A:n/F,
12:u0E:n/F/_x+1,
7:u09:n/F,
12:u0D:_x-1/n/F,
7:u0A:E/F,
12:u0E:E/F/_x+1,
7:u09:E/F,
12:u0D:_x-1/E/F,
6:u04:Ω,
11:u09:_x-1/Ω,
11:u0A:Ω/_x+1,
16:u0D:_x-2/_x-1/Ω,
16:u0E:Ω/_x+1/_x+2,
6:u05:Ω,
8:u0A:z/Ω,
11:u0B:Ω/_x+1,
13:u0E:z/Ω/_x+1,
8:u09:z/Ω,
13:u0D:_x-1/z/Ω,
8:u0A:Z/Ω,
13:u0E:Z/Ω/_x+1,
8:u09:Z/Ω,
13:u0D:_x-1/Z/Ω,
8:u0A:d/Ω,
13:u0E:d/Ω/_x+1,
8:u09:d/Ω,
13:u0D:_x-1/d/Ω,
8:u0A:k/Ω,
13:u0E:k/Ω/_x+1,
8:u09:k/Ω,
13:u0D:_x-1/k/Ω,
8:u0A:h/Ω,
13:u0E:h/Ω/_x+1,
8:u09:h/Ω,
13:u0D:_x-1/h/Ω,
8:u0A:c/Ω,
13:u0E:c/Ω/_x+1,
8:u09:c/Ω,
13:u0D:_x-1/c/Ω,
8:u0A:p/Ω,
13:u0E:p/Ω/_x+1,
8:u09:p/Ω,
13:u0D:_x-1/p/Ω,
8:u0A:P/Ω,
13:u0E:P/Ω/_x+1,
8:u09:P/Ω,
13:u0D:_x-1/P/Ω,
6:u06:Ω,
8:u0B:a/Ω,
10:u0E:d/a/Ω,
8:u0A:a/Ω,
13:u0E:a/Ω/_x+1,
8:u09:a/Ω,
10:u0D:d/a/Ω,
9:u0A:µ/Ω,
14:u0E:µ/Ω/_x+1,
9:u09:µ/Ω,
14:u0D:_x-1/µ/Ω,
8:u0A:G/Ω,
13:u0E:G/Ω/_x+1,
8:u09:G/Ω,
13:u0D:_x-1/G/Ω,
8:u0A:m/Ω,
13:u0E:m/Ω/_x+1,
8:u09:m/Ω,
13:u0D:_x-1/m/Ω,
8:u0A:M/Ω,
13:u0E:M/Ω/_x+1,
8:u09:M/Ω,
13:u0D:_x-1/M/Ω,
13:u0D:_x-1/a/Ω,
8:u0A:f/Ω,
13:u0E:f/Ω/_x+1,
8:u09:f/Ω,
13:u0D:_x-1/f/Ω,
8:u0A:Y/Ω,
13:u0E:Y/Ω/_x+1,
8:u09:Y/Ω,
13:u0D:_x-1/Y/Ω,
8:u0A:y/Ω,
13:u0E:y/Ω/_x+1,
8:u09:y/Ω,
13:u0D:_x-1/y/Ω,
8:u0A:T/Ω,
13:u0E:T/Ω/_x+1,
8:u09:T/Ω,
13:u0D:_x-1/T/Ω,
8:u0A:n/Ω,
13:u0E:n/Ω/_x+1,
8:u09:n/Ω,
13:u0D:_x-1/n/Ω,
8:u0A:E/Ω,
13:u0E:E/Ω/_x+1,
8:u09:E/Ω,
13:u0D:_x-1/E/Ω,
5:u04:S,
10:u09:_x-1/S,
10:u0A:S/_x+1,
15:u0D:_x-2/_x-1/S,
15:u0E:S/_x+1/_x+2,
5:u05:S,
7:u0A:z/S,
10:u0B:S/_x+1,
12:u0E:z/S/_x+1,
7:u09:z/S,
12:u0D:_x-1/z/S,
7:u0A:Z/S,
12:u0E:Z/S/_x+1,
7:u09:Z/S,
12:u0D:_x-1/Z/S,
7:u0A:d/S,
12:u0E:d/S/_x+1,
7:u09:d/S,
12:u0D:_x-1/d/S,
7:u0A:k/S,
12:u0E:k/S/_x+1,
7:u09:k/S,
12:u0D:_x-1/k/S,
7:u0A:h/S,
12:u0E:h/S/_x+1,
7:u09:h/S,
12:u0D:_x-1/h/S,
7:u0A:c/S,
12:u0E:c/S/_x+1,
7:u09:c/S,
12:u0D:_x-1/c/S,
7:u0A:p/S,
12:u0E:p/S/_x+1,
7:u09:p/S,
12:u0D:_x-1/p/S,
7:u0A:P/S,
12:u0E:P/S/_x+1,
7:u09:P/S,
12:u0D:_x-1/P/S,
5:u06:S,
7:u0B:a/S,
9:u0E:d/a/S,
7:u0A:a/S,
12:u0E:a/S/_x+1,
7:u09:a/S,
9:u0D:d/a/S,
8:u0A:µ/S,
13:u0E:µ/S/_x+1,
8:u09:µ/S,
13:u0D:_x-1/µ/S,
7:u0A:G/S,
12:u0E:G/S/_x+1,
7:u09:G/S,
12:u0D:_x-1/G/S,
7:u0A:m/S,
12:u0E:m/S/_x+1,
7:u09:m/S,
12:u0D:_x-1/m/S,
7:u0A:M/S,
12:u0E:M/S/_x+1,
7:u09:M/S,
12:u0D:_x-1/M/S,
12:u0D:_x-1/a/S,
7:u0A:f/S,
12:u0E:f/S/_x+1,
7:u09:f/S,
12:u0D:_x-1/f/S,
7:u0A:Y/S,
12:u0E:Y/S/_x+1,
7:u09:Y/S,
12:u0D:_x-1/Y/S,
7:u0A:y/S,
12:u0E:y/S/_x+1,
7:u09:y/S,
12:u0D:_x-1/y/S,
7:u0A:T/S,
12:u0E:T/S/_x+1,
7:u09:T/S,
12:u0D:_x-1/T/S,
7:u0A:n/S,
12:u0E:n/S/_x+1,
7:u09:n/S,
12:u0D:_x-1/n/S,
7:u0A:E/S,
12:u0E:E/S/_x+1,
7:u09:E/S,
12:u0D:_x-1/E/S,
10:u09:_x-1/J,
10:u0A:J/_x+1,
15:u0D:_x-2/_x-1/J,
15:u0E:J/_x+1/_x+2,
7:u0A:z/J,
10:u0B:J/_x+1,
12:u0E:z/J/_x+1,
7:u09:z/J,
12:u0D:_x-1/z/J,
7:u0A:Z/J,
12:u0E:Z/J/_x+1,
7:u09:Z/J,
12:u0D:_x-1/Z/J,
7:u0A:d/J,
12:u0E:d/J/_x+1,
7:u09:d/J,
12:u0D:_x-1/d/J,
7:u0A:k/J,
12:u0E:k/J/_x+1,
7:u09:k/J,
12:u0D:_x-1/k/J,
7:u0A:h/J,
12:u0E:h/J/_x+1,
7:u09:h/J,
12:u0D:_x-1/h/J,
7:u0A:c/J,
12:u0E:c/J/_x+1,
7:u09:c/J,
12:u0D:_x-1/c/J,
7:u0A:p/J,
12:u0E:p/J/_x+1,
7:u09:p/J,
12:u0D:_x-1/p/J,
7:u0A:P/J,
12:u0E:P/J/_x+1,
7:u09:P/J,
12:u0D:_x-1/P/J,
5:u06:J,
7:u0B:a/J,
9:u0E:d/a/J,
7:u0A:a/J,
12:u0E:a/J/_x+1,
7:u09:a/J,
9:u0D:d/a/J,
13:u0E:µ/J/_x+1,
7:u0A:G/J,
12:u0E:G/J/_x+1,
7:u09:G/J,
12:u0D:_x-1/G/J,
7:u0A:m/J,
12:u0E:m/J/_x+1,
7:u09:m/J,
12:u0D:_x-1/m/J,
7:u0A:M/J,
12:u0E:M/J/_x+1,
7:u09:M/J,
12:u0D:_x-1/M/J,
12:u0D:_x-1/a/J,
7:u0A:f/J,
12:u0E:f/J/_x+1,
7:u09:f/J,
12:u0D:_x-1/f/J,
7:u0A:Y/J,
12:u0E:Y/J/_x+1,
7:u09:Y/J,
12:u0D:_x-1/Y/J,
7:u0A:y/J,
12:u0E:y/J/_x+1,
7:u09:y/J,
12:u0D:_x-1/y/J,
7:u0A:T/J,
12:u0E:T/J/_x+1,
7:u09:T/J,
12:u0D:_x-1/T/J,
7:u0A:n/J,
12:u0E:n/J/_x+1,
7:u09:n/J,
12:u0D:_x-1/n/J,
7:u0A:E/J,
12:u0E:E/J/_x+1,
7:u09:E/J,
12:u0D:_x-1/E/J,
5:u04:C,
10:u09:_x-1/C,
10:u0A:C/_x+1,
15:u0D:_x-2/_x-1/C,
15:u0E:C/_x+1/_x+2,
5:u05:C,
7:u0A:z/C,
10:u0B:C/_x+1,
12:u0E:z/C/_x+1,
7:u09:z/C,
12:u0D:_x-1/z/C,
7:u0A:Z/C,
12:u0E:Z/C/_x+1,
7:u09:Z/C,
12:u0D:_x-1/Z/C,
7:u0A:d/C,
12:u0E:d/C/_x+1,
7:u09:d/C,
12:u0D:_x-1/d/C,
7:u0A:k/C,
12:u0E:k/C/_x+1,
7:u09:k/C,
12:u0D:_x-1/k/C,
7:u0A:h/C,
12:u0E:h/C/_x+1,
7:u09:h/C,
12:u0D:_x-1/h/C,
7:u0A:c/C,
12:u0E:c/C/_x+1,
7:u09:c/C,
12:u0D:_x-1/c/C,
7:u0A:p/C,
12:u0E:p/C/_x+1,
7:u09:p/C,
12:u0D:_x-1/p/C,
7:u0A:P/C,
12:u0E:P/C/_x+1,
7:u09:P/C,
12:u0D:_x-1/P/C,
5:u06:C,
7:u0B:a/C,
9:u0E:d/a/C,
7:u0A:a/C,
12:u0E:a/C/_x+1,
7:u09:a/C,
9:u0D:d/a/C,
8:u0A:µ/C,
13:u0E:µ/C/_x+1,
8:u09:µ/C,
13:u0D:_x-1/µ/C,
7:u0A:G/C,
12:u0E:G/C/_x+1,
7:u09:G/C,
12:u0D:_x-1/G/C,
7:u0A:m/C,
12:u0E:m/C/_x+1,
7:u09:m/C,
12:u0D:_x-1/m/C,
7:u0A:M/C,
12:u0E:M/C/_x+1,
7:u09:M/C,
12:u0D:_x-1/M/C,
12:u0D:_x-1/a/C,
7:u0A:f/C,
12:u0E:f/C/_x+1,
7:u09:f/C,
12:u0D:_x-1/f/C,
7:u0A:Y/C,
12:u0E:Y/C/_x+1,
7:u09:Y/C,
12:u0D:_x-1/Y/C,
7:u0A:y/C,
12:u0E:y/C/_x+1,
7:u09:y/C,
12:u0D:_x-1/y/C,
7:u0A:T/C,
12:u0E:T/C/_x+1,
7:u09:T/C,
12:u0D:_x-1/T/C,
7:u0A:n/C,
12:u0E:n/C/_x+1,
7:u09:n/C,
12:u0D:_x-1/n/C,
7:u0A:E/C,
12:u0E:E/C/_x+1,
7:u09:E/C,
12:u0D:_x-1/E/C,
10:u09:_x-1/H,
10:u0A:H/_x+1,
15:u0D:_x-2/_x-1/H,
15:u0E:H/_x+1/_x+2,
7:u0A:z/H,
10:u0B:H/_x+1,
12:u0E:z/H/_x+1,
7:u09:z/H,
12:u0D:_x-1/z/H,
7:u0A:Z/H,
12:u0E:Z/H/_x+1,
7:u09:Z/H,
12:u0D:_x-1/Z/H,
7:u0A:d/H,
12:u0E:d/H/_x+1,
7:u09:d/H,
12:u0D:_x-1/d/H,
12:u0E:k/H/_x+1,
7:u0A:h/H,
12:u0E:h/H/_x+1,
7:u09:h/H,
12:u0D:_x-1/h/H,
7:u0A:c/H,
12:u0E:c/H/_x+1,
7:u09:c/H,
12:u0D:_x-1/c/H,
5:u06:H,
7:u0B:a/H,
9:u0E:d/a/H,
7:u0A:a/H,
12:u0E:a/H/_x+1,
7:u09:a/H,
9:u0D:d/a/H,
8:u0A:µ/H,
13:u0E:µ/H/_x+1,
8:u09:µ/H,
13:u0D:_x-1/µ/H,
12:u0E:G/H/_x+1,
12:u0E:m/H/_x+1,
12:u0E:M/H/_x+1,
12:u0D:_x-1/a/H,
7:u0A:f/H,
12:u0E:f/H/_x+1,
7:u09:f/H,
12:u0D:_x-1/f/H,
7:u0A:Y/H,
12:u0E:Y/H/_x+1,
7:u09:Y/H,
12:u0D:_x-1/Y/H,
7:u0A:y/H,
12:u0E:y/H/_x+1,
7:u09:y/H,
12:u0D:_x-1/y/H,
7:u0A:T/H,
12:u0E:T/H/_x+1,
7:u09:T/H,
12:u0D:_x-1/T/H,
7:u0A:n/H,
12:u0E:n/H/_x+1,
7:u09:n/H,
12:u0D:_x-1/n/H,
7:u0A:E/H,
12:u0E:E/H/_x+1,
7:u09:E/H,
12:u0D:_x-1/E/H,
5:u04:W,
10:u09:_x-1/W,
10:u0A:W/_x+1,
15:u0D:_x-2/_x-1/W,
15:u0E:W/_x+1/_x+2,
5:u05:W,
7:u0A:z/W,
10:u0B:W/_x+1,
12:u0E:z/W/_x+1,
7:u09:z/W,
12:u0D:_x-1/z/W,
7:u0A:Z/W,
12:u0E:Z/W/_x+1,
7:u09:Z/W,
12:u0D:_x-1/Z/W,
7:u0A:d/W,
12:u0E:d/W/_x+1,
7:u09:d/W,
12:u0D:_x-1/d/W,
7:u0A:k/W,
12:u0E:k/W/_x+1,
7:u09:k/W,
12:u0D:_x-1/k/W,
7:u0A:h/W,
12:u0E:h/W/_x+1,
7:u09:h/W,
12:u0D:_x-1/h/W,
7:u0A:c/W,
12:u0E:c/W/_x+1,
7:u09:c/W,
12:u0D:_x-1/c/W,
7:u0A:p/W,
12:u0E:p/W/_x+1,
7:u09:p/W,
12:u0D:_x-1/p/W,
7:u0A:P/W,
12:u0E:P/W/_x+1,
7:u09:P/W,
12:u0D:_x-1/P/W,
5:u06:W,
7:u0B:a/W,
9:u0E:d/a/W,
7:u0A:a/W,
12:u0E:a/W/_x+1,
7:u09:a/W,
9:u0D:d/a/W,
8:u0A:µ/W,
13:u0E:µ/W/_x+1,
8:u09:µ/W,
13:u0D:_x-1/µ/W,
7:u0A:G/W,
12:u0E:G/W/_x+1,
7:u09:G/W,
12:u0D:_x-1/G/W,
7:u0A:m/W,
12:u0E:m/W/_x+1,
7:u09:m/W,
12:u0D:_x-1/m/W,
7:u0A:M/W,
12:u0E:M/W/_x+1,
7:u09:M/W,
12:u0D:_x-1/M/W,
12:u0D:_x-1/a/W,
7:u0A:f/W,
12:u0E:f/W/_x+1,
7:u09:f/W,
12:u0D:_x-1/f/W,
7:u0A:Y/W,
12:u0E:Y/W/_x+1,
7:u09:Y/W,
12:u0D:_x-1/Y/W,
7:u0A:y/W,
12:u0E:y/W/_x+1,
7:u09:y/W,
12:u0D:_x-1/y/W,
7:u0A:T/W,
12:u0E:T/W/_x+1,
7:u09:T/W,
12:u0D:_x-1/T/W,
7:u0A:n/W,
12:u0E:n/W/_x+1,
7:u09:n/W,
12:u0D:_x-1/n/W,
7:u0A:E/W,
12:u0E:E/W/_x+1,
7:u09:E/W,
12:u0D:_x-1/E/W,
7:u0A:V/A,
12:u0E:V/A/_x+1,
5:u03:V,
7:u09:V/A,
10:u0C:_x-1/V,
12:u0D:_x-1/V/A,
10:u0A:T/_x+1,
15:u0E:T/_x+1/_x+2,
5:u05:T,
7:u0A:z/T,
10:u0B:T/_x+1,
12:u0E:z/T/_x+1,
7:u09:z/T,
12:u0D:_x-1/z/T,
7:u0A:Z/T,
12:u0E:Z/T/_x+1,
7:u09:Z/T,
12:u0D:_x-1/Z/T,
7:u0A:d/T,
12:u0E:d/T/_x+1,
7:u09:d/T,
12:u0D:_x-1/d/T,
7:u0A:k/T,
12:u0E:k/T/_x+1,
7:u09:k/T,
12:u0D:_x-1/k/T,
7:u0A:h/T,
12:u0E:h/T/_x+1,
7:u09:h/T,
12:u0D:_x-1/h/T,
7:u0A:c/T,
12:u0E:c/T/_x+1,
7:u09:c/T,
12:u0D:_x-1/c/T,
7:u0A:p/T,
12:u0E:p/T/_x+1,
7:u09:p/T,
12:u0D:_x-1/p/T,
7:u0A:P/T,
12:u0E:P/T/_x+1,
7:u09:P/T,
12:u0D:_x-1/P/T,
5:u06:T,
7:u0B:a/T,
9:u0E:d/a/T,
7:u0A:a/T,
12:u0E:a/T/_x+1,
7:u09:a/T,
9:u0D:d/a/T,
8:u0A:µ/T,
13:u0E:µ/T/_x+1,
8:u09:µ/T,
13:u0D:_x-1/µ/T,
7:u0A:G/T,
12:u0E:G/T/_x+1,
7:u09:G/T,
12:u0D:_x-1/G/T,
7:u0A:m/T,
12:u0E:m/T/_x+1,
7:u09:m/T,
12:u0D:_x-1/m/T,
7:u0A:M/T,
12:u0E:M/T/_x+1,
7:u09:M/T,
12:u0D:_x-1/M/T,
12:u0D:_x-1/a/T,
7:u0A:f/T,
12:u0E:f/T/_x+1,
7:u09:f/T,
12:u0D:_x-1/f/T,
7:u0A:Y/T,
12:u0E:Y/T/_x+1,
7:u09:Y/T,
12:u0D:_x-1/Y/T,
7:u0A:y/T,
12:u0E:y/T/_x+1,
7:u09:y/T,
12:u0D:_x-1/y/T,
7:u0A:T/T,
12:u0E:T/T/_x+1,
7:u09:T/T,
12:u0D:_x-1/T/T,
7:u0A:n/T,
12:u0E:n/T/_x+1,
7:u09:n/T,
12:u0D:_x-1/n/T,
7:u0A:E/T,
12:u0E:E/T/_x+1,
7:u09:E/T,
12:u0D:_x-1/E/T,
7:u0A:W/b,
12:u0E:W/b/_x+1,
5:u03:W,
7:u09:W/b,
10:u0C:_x-1/W,
12:u0D:_x-1/W/b,
7:u0B:W/b,
9:u0E:z/W/b,
7:u0C:z/W,
9:u0D:z/W/b,
9:u0E:Z/W/b,
7:u0C:Z/W,
9:u0D:Z/W/b,
9:u0E:d/W/b,
7:u0C:d/W,
9:u0D:d/W/b,
9:u0E:k/W/b,
7:u0C:k/W,
9:u0D:k/W/b,
9:u0E:h/W/b,
7:u0C:h/W,
9:u0D:h/W/b,
9:u0E:c/W/b,
7:u0C:c/W,
9:u0D:c/W/b,
9:u0E:p/W/b,
7:u0C:p/W,
9:u0D:p/W/b,
9:u0E:P/W/b,
7:u0C:P/W,
9:u0D:P/W/b,
5:u07:b,
9:u0E:a/W/b,
7:u0C:a/W,
9:u0D:a/W/b,
10:u0E:µ/W/b,
8:u0C:µ/W,
10:u0D:µ/W/b,
9:u0E:G/W/b,
7:u0C:G/W,
9:u0D:G/W/b,
9:u0E:m/W/b,
7:u0C:m/W,
9:u0D:m/W/b,
9:u0E:M/W/b,
7:u0C:M/W,
9:u0D:M/W/b,
9:u0E:f/W/b,
7:u0C:f/W,
9:u0D:f/W/b,
9:u0E:Y/W/b,
7:u0C:Y/W,
9:u0D:Y/W/b,
9:u0E:y/W/b,
7:u0C:y/W,
9:u0D:y/W/b,
9:u0E:T/W/b,
7:u0C:T/W,
9:u0D:T/W/b,
9:u0E:n/W/b,
7:u0C:n/W,
9:u0D:n/W/b,
9:u0E:E/W/b,
7:u0C:E/W,
9:u0D:E/W/b,
5:u05:B,
7:u0A:d/B,
10:u0B:B/_x+1,
12:u0E:d/B/_x+1,
5:u04:B,
7:u09:d/B,
10:u0A:B/_x+1,
12:u0D:_x-1/d/B,
15:u0E:B/_x+1/_x+2,
5:u06:B,
7:u0A:z/d,
7:u0B:d/B,
9:u0E:z/d/B,
7:u09:z/d,
12:u0D:_x-1/z/d,
7:u0C:z/d,
9:u0D:z/d/B,
7:u0A:Z/d,
9:u0E:Z/d/B,
7:u09:Z/d,
12:u0D:_x-1/Z/d,
7:u0C:Z/d,
9:u0D:Z/d/B,
7:u0A:d/d,
9:u0E:d/d/B,
7:u09:d/d,
12:u0D:_x-1/d/d,
7:u0C:d/d,
9:u0D:d/d/B,
7:u0A:k/d,
9:u0E:k/d/B,
7:u09:k/d,
12:u0D:_x-1/k/d,
7:u0C:k/d,
9:u0D:k/d/B,
7:u0A:h/d,
9:u0E:h/d/B,
7:u09:h/d,
12:u0D:_x-1/h/d,
7:u0C:h/d,
9:u0D:h/d/B,
9:u0E:c/d/B,
7:u0C:c/d,
9:u0D:c/d/B,
7:u0A:p/d,
9:u0E:p/d/B,
7:u09:p/d,
12:u0D:_x-1/p/d,
7:u0C:p/d,
9:u0D:p/d/B,
7:u0A:P/d,
9:u0E:P/d/B,
7:u09:P/d,
12:u0D:_x-1/P/d,
7:u0C:P/d,
9:u0D:P/d/B,
5:u07:B,
7:u0B:a/d,
9:u0E:d/a/d,
7:u0A:a/d,
9:u0E:a/d/B,
7:u09:a/d,
9:u0D:d/a/d,
7:u0C:a/d,
9:u0D:a/d/B,
8:u0A:µ/d,
10:u0E:µ/d/B,
8:u09:µ/d,
13:u0D:_x-1/µ/d,
8:u0C:µ/d,
10:u0D:µ/d/B,
7:u0A:G/d,
9:u0E:G/d/B,
7:u09:G/d,
12:u0D:_x-1/G/d,
7:u0C:G/d,
9:u0D:G/d/B,
7:u0A:m/d,
9:u0E:m/d/B,
7:u09:m/d,
12:u0D:_x-1/m/d,
7:u0C:m/d,
9:u0D:m/d/B,
7:u0A:M/d,
9:u0E:M/d/B,
7:u09:M/d,
12:u0D:_x-1/M/d,
7:u0C:M/d,
9:u0D:M/d/B,
12:u0D:_x-1/a/d,
7:u0A:f/d,
9:u0E:f/d/B,
7:u09:f/d,
12:u0D:_x-1/f/d,
7:u0C:f/d,
9:u0D:f/d/B,
7:u0A:Y/d,
9:u0E:Y/d/B,
7:u09:Y/d,
12:u0D:_x-1/Y/d,
7:u0C:Y/d,
9:u0D:Y/d/B,
9:u0E:y/d/B,
7:u0C:y/d,
9:u0D:y/d/B,
7:u0A:T/d,
9:u0E:T/d/B,
7:u09:T/d,
12:u0D:_x-1/T/d,
7:u0C:T/d,
9:u0D:T/d/B,
7:u0A:n/d,
9:u0E:n/d/B,
7:u09:n/d,
12:u0D:_x-1/n/d,
7:u0C:n/d,
9:u0D:n/d/B,
7:u0A:E/d,
9:u0E:E/d/B,
7:u09:E/d,
12:u0D:_x-1/E/d,
7:u0C:E/d,
9:u0D:E/d/B,
7:u0A:V//,
9:u0E:V///m,
7:u09:V//,
12:u0D:_x-1/V//,
12:u0E://m/_x+1,
5:u02:V,
7:u0C:V//,
9:u0D:V///m,
7:u0B://z,
9:u0E:V///z,
7:u0A://z,
7:u0B:z/m,
9:u0E://z/m,
7:u09://z,
9:u0D:V///z,
5:u01:V,
7:u0C://z,
9:u0D://z/m,
7:u0B:V//,
9:u0E:z/V//,
7:u0C:z/V,
9:u0D:z/V//,
5:u07:Z,
5:u06:Z,
7:u0B://Z,
9:u0E:V///Z,
5:u05:Z,
7:u0A://Z,
7:u0B:Z/m,
9:u0E://Z/m,
7:u09://Z,
9:u0D:V///Z,
7:u0C://Z,
9:u0D://Z/m,
7:u0B://d,
9:u0E:V///d,
7:u0A://d,
7:u0B:d/m,
9:u0E://d/m,
7:u09://d,
9:u0D:V///d,
7:u0C://d,
9:u0D://d/m,
5:u07:k,
5:u06:k,
7:u0B://k,
9:u0E:V///k,
5:u05:k,
7:u0A://k,
7:u0B:k/m,
9:u0E://k/m,
7:u09://k,
9:u0D:V///k,
7:u0C://k,
9:u0D://k/m,
5:u07:h,
5:u06:h,
7:u0B://h,
9:u0E:V///h,
7:u0A://h,
7:u0B:h/m,
9:u0E://h/m,
7:u09://h,
9:u0D:V///h,
7:u0C://h,
9:u0D://h/m,
5:u07:c,
7:u0B://c,
9:u0E:V///c,
7:u0A://c,
9:u0E://c/m,
7:u09://c,
9:u0D:V///c,
7:u0C://c,
9:u0D://c/m,
5:u07:p,
5:u06:p,
7:u0B://p,
9:u0E:V///p,
7:u0A://p,
9:u0E://p/m,
7:u09://p,
9:u0D:V///p,
7:u0C://p,
9:u0D://p/m,
5:u07:P,
5:u06:P,
7:u0B://P,
9:u0E:V///P,
5:u05:P,
7:u0A://P,
7:u0B:P/m,
9:u0E://P/m,
7:u09://P,
9:u0D:V///P,
7:u0C://P,
9:u0D://P/m,
5:u08:a,
5:u07:a,
7:u0B:d/a,
9:u0E://d/a,
9:u0D://d/a,
5:u00:V,
6:u07:µ,
6:u06:µ,
8:u0B://µ,
10:u0E:V///µ,
6:u05:µ,
8:u0A://µ,
8:u0B:µ/m,
10:u0E://µ/m,
8:u09://µ,
10:u0D:V///µ,
8:u0C://µ,
10:u0D://µ/m,
5:u07:G,
5:u06:G,
7:u0B://G,
9:u0E:V///G,
5:u05:G,
7:u0A://G,
7:u0B:G/m,
9:u0E://G/m,
7:u09://G,
9:u0D:V///G,
7:u0C://G,
9:u0D://G/m,
7:u0B:m/m,
9:u0E://m/m,
9:u0D://m/m,
5:u07:M,
5:u06:M,
7:u0B://M,
9:u0E:V///M,
5:u05:M,
7:u0A://M,
7:u0B:M/m,
9:u0E://M/m,
7:u09://M,
9:u0D:V///M,
7:u0C://M,
9:u0D://M/m,
7:u0B://a,
9:u0E:V///a,
7:u0A://a,
9:u0E://a/m,
7:u09://a,
9:u0D:V///a,
7:u0C://a,
9:u0D://a/m,
7:u0B://f,
9:u0E:V///f,
7:u0A://f,
7:u0B:f/m,
9:u0E://f/m,
7:u09://f,
9:u0D:V///f,
7:u0C://f,
9:u0D://f/m,
5:u07:Y,
5:u06:Y,
7:u0B://Y,
9:u0E:V///Y,
5:u05:Y,
7:u0A://Y,
7:u0B:Y/m,
9:u0E://Y/m,
7:u09://Y,
9:u0D:V///Y,
7:u0C://Y,
9:u0D://Y/m,
5:u07:y,
7:u0B://y,
9:u0E:V///y,
7:u0A://y,
7:u0B:y/m,
9:u0E://y/m,
7:u09://y,
9:u0D:V///y,
7:u0C://y,
9:u0D://y/m,
5:u07:T,
7:u0B://T,
9:u0E:V///T,
7:u0A://T,
7:u0B:T/m,
9:u0E://T/m,
7:u09://T,
9:u0D:V///T,
7:u0C://T,
9:u0D://T/m,
7:u0B://n,
9:u0E:V///n,
7:u0A://n,
7:u0B:n/m,
9:u0E://n/m,
7:u09://n,
9:u0D:V///n,
7:u0C://n,
9:u0D://n/m,
5:u07:E,
5:u06:E,
7:u0B://E,
9:u0E:V///E,
5:u05:E,
7:u0A://E,
7:u0B:E/m,
9:u0E://E/m,
7:u09://E,
9:u0D:V///E,
7:u0C://E,
9:u0D://E/m,
9:u0E:Z/V//,
7:u0C:Z/V,
9:u0D:Z/V//,
5:u00:Z,
9:u0E:d/V//,
7:u0C:d/V,
9:u0D:d/V//,
9:u0E:k/V//,
7:u0C:k/V,
9:u0D:k/V//,
9:u0E:h/V//,
7:u0C:h/V,
9:u0D:h/V//,
5:u00:h,
9:u0E:c/V//,
7:u0C:c/V,
9:u0D:c/V//,
9:u0E:p/V//,
7:u0C:p/V,
9:u0D:p/V//,
5:u00:p,
9:u0E:P/V//,
7:u0C:P/V,
9:u0D:P/V//,
5:u00:P,
9:u0E:a/V//,
7:u0C:a/V,
9:u0D:a/V//,
5:u08:Z,
5:u08:d,
5:u08:k,
5:u08:h,
5:u08:c,
5:u08:p,
5:u08:P,
6:u08:µ,
5:u08:G,
5:u08:M,
5:u08:f,
5:u08:Y,
5:u08:y,
5:u08:T,
5:u08:E,
10:u0E:µ/V//,
8:u0C:µ/V,
10:u0D:µ/V//,
6:u00:µ,
9:u0E:G/V//,
7:u0C:G/V,
9:u0D:G/V//,
5:u00:G,
9:u0E:m/V//,
7:u0C:m/V,
9:u0D:m/V//,
9:u0E:M/V//,
7:u0C:M/V,
9:u0D:M/V//,
5:u00:M,
9:u0E:f/V//,
7:u0C:f/V,
9:u0D:f/V//,
9:u0E:Y/V//,
7:u0C:Y/V,
9:u0D:Y/V//,
5:u00:Y,
9:u0E:y/V//,
7:u0C:y/V,
9:u0D:y/V//,
5:u00:y,
9:u0E:T/V//,
7:u0C:T/V,
9:u0D:T/V//,
5:u00:T,
9:u0E:n/V//,
7:u0C:n/V,
9:u0D:n/V//,
9:u0E:E/V//,
7:u0C:E/V,
9:u0D:E/V//,
5:u00:E,
7:u0A:A//,
9:u0E:A///m,
7:u09:A//,
12:u0D:_x-1/A//,
5:u02:A,
7:u0C:A//,
9:u0D:A///m,
9:u0E:A///z,
9:u0D:A///z,
5:u01:A,
7:u0B:A//,
9:u0E:z/A//,
7:u0C:z/A,
9:u0D:z/A//,
9:u0E:A///Z,
9:u0D:A///Z,
9:u0E:A///d,
9:u0D:A///d,
9:u0E:A///k,
9:u0D:A///k,
9:u0E:A///h,
9:u0D:A///h,
9:u0E:A///c,
9:u0D:A///c,
9:u0E:A///p,
9:u0D:A///p,
9:u0E:A///P,
9:u0D:A///P,
5:u00:A,
10:u0E:A///µ,
10:u0D:A///µ,
9:u0E:A///G,
9:u0D:A///G,
9:u0E:A///M,
9:u0D:A///M,
9:u0E:A///a,
9:u0D:A///a,
9:u0E:A///f,
9:u0D:A///f,
9:u0E:A///Y,
9:u0D:A///Y,
9:u0E:A///y,
9:u0D:A///y,
9:u0E:A///T,
9:u0D:A///T,
9:u0E:A///n,
9:u0D:A///n,
9:u0E:A///E,
9:u0D:A///E,
9:u0E:Z/A//,
7:u0C:Z/A,
9:u0D:Z/A//,
9:u0E:d/A//,
7:u0C:d/A,
9:u0D:d/A//,
9:u0E:k/A//,
7:u0C:k/A,
9:u0D:k/A//,
9:u0E:h/A//,
7:u0C:h/A,
9:u0D:h/A//,
9:u0E:c/A//,
7:u0C:c/A,
9:u0D:c/A//,
9:u0E:p/A//,
7:u0C:p/A,
9:u0D:p/A//,
9:u0E:P/A//,
7:u0C:P/A,
9:u0D:P/A//,
9:u0E:a/A//,
7:u0C:a/A,
9:u0D:a/A//,
10:u0E:µ/A//,
8:u0C:µ/A,
10:u0D:µ/A//,
9:u0E:G/A//,
7:u0C:G/A,
9:u0D:G/A//,
9:u0E:m/A//,
7:u0C:m/A,
9:u0D:m/A//,
9:u0E:M/A//,
7:u0C:M/A,
9:u0D:M/A//,
9:u0E:f/A//,
7:u0C:f/A,
9:u0D:f/A//,
9:u0E:Y/A//,
7:u0C:Y/A,
9:u0D:Y/A//,
9:u0E:y/A//,
7:u0C:y/A,
9:u0D:y/A//,
9:u0E:T/A//,
7:u0C:T/A,
9:u0D:T/A//,
9:u0E:n/A//,
7:u0C:n/A,
9:u0D:n/A//,
9:u0E:E/A//,
7:u0C:E/A,
9:u0D:E/A//,
7:u0A:A/T,
7:u0B:T//,
9:u0E:A/T//,
7:u09:A/T,
7:u0A:T//,
12:u0D:_x-1/A/T,
9:u0E:T///m,
7:u09:T//,
7:u0C:A/T,
9:u0D:A/T//,
7:u0C:T//,
9:u0D:T///m,
9:u0E:T///z,
9:u0D:T///z,
7:u0B:A/T,
9:u0E:z/A/T,
9:u0D:z/A/T,
9:u0E:T///Z,
9:u0D:T///Z,
9:u0E:T///d,
9:u0D:T///d,
9:u0E:T///k,
9:u0D:T///k,
9:u0E:T///h,
9:u0D:T///h,
9:u0E:T///c,
9:u0D:T///c,
9:u0E:T///p,
9:u0D:T///p,
9:u0E:T///P,
9:u0D:T///P,
10:u0E:T///µ,
10:u0D:T///µ,
9:u0E:T///G,
9:u0D:T///G,
9:u0E:T///M,
9:u0D:T///M,
9:u0E:T///a,
9:u0D:T///a,
9:u0E:T///f,
9:u0D:T///f,
9:u0E:T///Y,
9:u0D:T///Y,
9:u0E:T///y,
9:u0D:T///y,
9:u0E:T///T,
9:u0D:T///T,
9:u0E:T///n,
9:u0D:T///n,
9:u0E:T///E,
9:u0D:T///E,
9:u0E:Z/A/T,
9:u0D:Z/A/T,
9:u0E:d/A/T,
9:u0D:d/A/T,
9:u0E:k/A/T,
9:u0D:k/A/T,
9:u0E:h/A/T,
9:u0D:h/A/T,
9:u0E:c/A/T,
9:u0D:c/A/T,
9:u0E:p/A/T,
9:u0D:p/A/T,
9:u0E:P/A/T,
9:u0D:P/A/T,
5:u08:/,
9:u0E:a/A/T,
9:u0D:a/A/T,
10:u0E:µ/A/T,
10:u0D:µ/A/T,
9:u0E:G/A/T,
9:u0D:G/A/T,
9:u0E:m/A/T,
9:u0D:m/A/T,
9:u0E:M/A/T,
9:u0D:M/A/T,
9:u0E:f/A/T,
9:u0D:f/A/T,
9:u0E:Y/A/T,
9:u0D:Y/A/T,
9:u0E:y/A/T,
9:u0D:y/A/T,
9:u0E:T/A/T,
9:u0D:T/A/T,
9:u0E:n/A/T,
9:u0D:n/A/T,
9:u0E:E/A/T,
9:u0D:E/A/T,
10:u09:_x-1/r,
7:u0A:r/p,
15:u0D:_x-2/_x-1/r,
9:u0E:r/p/m,
7:u09:r/p,
10:u0C:_x-1/r,
12:u0D:_x-1/r/p,
7:u0C:r/p,
9:u0D:r/p/m,
7:u0A:r/o,
7:u0B:o/u,
9:u0E:r/o/u,
7:u09:r/o,
7:u0A:o/u,
7:u0B:u/n,
12:u0D:_x-1/r/o,
9:u0E:o/u/n,
7:u09:o/u,
7:u0A:u/n,
7:u0B:n/d,
7:u0C:r/o,
9:u0D:r/o/u,
9:u0E:u/n/d,
7:u09:u/n,
7:u0B:d//,
7:u0C:o/u,
9:u0D:o/u/n,
9:u0E:n/d//,
7:u0A:d//,
7:u0C:u/n,
9:u0D:u/n/d,
9:u0E:d///m,
7:u09:d//,
9:u0D:n/d//,
9:u0E://m/i,
5:u00:u,
7:u0C:d//,
9:u0D:d///m,
9:u0D://m/i,
7:u0B:p/s,
9:u0E:r/p/s,
9:u0D:r/p/s,
9:u0E:d///s,
9:u0D:d///s,
10:u0C:_x-1/H,
12:u0D:_x-1/H/z,
9:u0E:z/H/z,
7:u0C:z/H,
9:u0D:z/H/z,
9:u0E:Z/H/z,
7:u0C:Z/H,
9:u0D:Z/H/z,
9:u0E:d/H/z,
7:u0C:d/H,
9:u0D:d/H/z,
9:u0E:h/H/z,
7:u0C:h/H,
9:u0D:h/H/z,
9:u0E:c/H/z,
7:u0C:c/H,
9:u0D:c/H/z,
7:u0A:p/H,
9:u0E:p/H/z,
7:u09:p/H,
12:u0D:_x-1/p/H,
7:u0C:p/H,
9:u0D:p/H/z,
7:u0A:P/H,
9:u0E:P/H/z,
7:u09:P/H,
12:u0D:_x-1/P/H,
7:u0C:P/H,
9:u0D:P/H/z,
9:u0E:a/H/z,
7:u0C:a/H,
9:u0D:a/H/z,
10:u0E:µ/H/z,
8:u0C:µ/H,
10:u0D:µ/H/z,
9:u0E:f/H/z,
7:u0C:f/H,
9:u0D:f/H/z,
9:u0E:Y/H/z,
7:u0C:Y/H,
9:u0D:Y/H/z,
9:u0E:y/H/z,
7:u0C:y/H,
9:u0D:y/H/z,
9:u0E:T/H/z,
7:u0C:T/H,
9:u0D:T/H/z,
9:u0E:n/H/z,
7:u0C:n/H,
9:u0D:n/H/z,
9:u0E:E/H/z,
7:u0C:E/H,
9:u0D:E/H/z,
5:u07:-,
5:u06:-,
7:u0B:^/-,
9:u0E:m/^/-,
10:u54:HYPHEN,
19:u57:EXPONENT/HYPHEN,
5:u05:-,
7:u0A:^/-,
7:u0B:-/1,
9:u0E:^/-/1,
10:u53:HYPHEN,
19:u56:EXPONENT/HYPHEN,
18:u57:HYPHEN/NOPUNCT,
5:u04:-,
7:u09:^/-,
7:u0A:-/1,
9:u0D:m/^/-,
12:u0E:-/1/_x+1,
10:u52:HYPHEN,
19:u55:EXPONENT/HYPHEN,
18:u56:HYPHEN/NOPUNCT,
5:u02:^,
5:u03:-,
7:u09:-/1,
7:u0C:^/-,
9:u0D:^/-/1,
12:u50:EXPONENT,
10:u51:HYPHEN,
18:u55:HYPHEN/NOPUNCT,
5:u08:-,
9:u0E:z/c/m,
9:u0D:z/c/m,
9:u0E:Z/c/m,
9:u0D:Z/c/m,
9:u0E:d/c/m,
9:u0D:d/c/m,
9:u0E:k/c/m,
9:u0D:k/c/m,
9:u0E:h/c/m,
9:u0D:h/c/m,
9:u0E:c/c/m,
9:u0D:c/c/m,
9:u0E:p/c/m,
9:u0D:p/c/m,
9:u0E:P/c/m,
9:u0D:P/c/m,
9:u0E:a/c/m,
9:u0D:a/c/m,
10:u0E:µ/c/m,
10:u0D:µ/c/m,
9:u0E:G/c/m,
9:u0D:G/c/m,
9:u0E:m/c/m,
9:u0D:m/c/m,
9:u0E:M/c/m,
9:u0D:M/c/m,
9:u0E:f/c/m,
9:u0D:f/c/m,
9:u0E:Y/c/m,
9:u0D:Y/c/m,
9:u0E:y/c/m,
9:u0D:y/c/m,
9:u0E:T/c/m,
9:u0D:T/c/m,
9:u0E:n/c/m,
9:u0D:n/c/m,
9:u0E:E/c/m,
9:u0D:E/c/m,
7:u06:⁻,
6:u07:¹,
9:u0B:m/⁻,
11:u0E:c/m/⁻,
7:u05:⁻,
6:u06:¹,
9:u0A:m/⁻,
10:u0B:⁻/¹,
12:u0E:m/⁻/¹,
7:u04:⁻,
6:u05:¹,
9:u09:m/⁻,
10:u0A:⁻/¹,
11:u0B:¹/_x+1,
11:u0D:c/m/⁻,
15:u0E:⁻/¹/_x+1,
7:u03:⁻,
6:u04:¹,
10:u09:⁻/¹,
11:u0A:¹/_x+1,
9:u0C:m/⁻,
12:u0D:m/⁻/¹,
16:u0E:¹/_x+1/_x+2,
7:u07:⁻,
6:u08:¹,
7:u08:⁻,
9:u0E:m///z,
7:u0B:z/s,
9:u0E://z/s,
9:u0D:m///z,
9:u0D://z/s,
9:u0E:z/m//,
9:u0D:z/m//,
9:u0E:m///Z,
7:u0B:Z/s,
9:u0E://Z/s,
9:u0D:m///Z,
9:u0D://Z/s,
9:u0E:m///d,
7:u0B:d/s,
9:u0E://d/s,
9:u0D:m///d,
9:u0D://d/s,
9:u0E:m///k,
7:u0B:k/s,
9:u0E://k/s,
9:u0D:m///k,
9:u0D://k/s,
9:u0E:m///h,
7:u0B:h/s,
9:u0E://h/s,
9:u0D:m///h,
9:u0D://h/s,
9:u0E:m///c,
7:u0B:c/s,
9:u0E://c/s,
9:u0D:m///c,
9:u0D://c/s,
9:u0E:m///p,
9:u0E://p/s,
9:u0D:m///p,
9:u0D://p/s,
9:u0E:m///P,
7:u0B:P/s,
9:u0E://P/s,
9:u0D:m///P,
9:u0D://P/s,
10:u0E:m///µ,
8:u0B:µ/s,
10:u0E://µ/s,
10:u0D:m///µ,
10:u0D://µ/s,
9:u0E:m///G,
7:u0B:G/s,
9:u0E://G/s,
9:u0D:m///G,
9:u0D://G/s,
9:u0E:m///m,
9:u0E://m/s,
9:u0D:m///m,
9:u0D://m/s,
9:u0E:m///M,
7:u0B:M/s,
9:u0E://M/s,
9:u0D:m///M,
9:u0D://M/s,
9:u0E:m///a,
9:u0E://a/s,
9:u0D:m///a,
9:u0D://a/s,
9:u0E:m///f,
7:u0B:f/s,
9:u0E://f/s,
9:u0D:m///f,
9:u0D://f/s,
9:u0E:m///Y,
7:u0B:Y/s,
9:u0E://Y/s,
9:u0D:m///Y,
9:u0D://Y/s,
9:u0E:m///y,
7:u0B:y/s,
9:u0E://y/s,
9:u0D:m///y,
9:u0D://y/s,
9:u0E:m///T,
7:u0B:T/s,
9:u0E://T/s,
9:u0D:m///T,
9:u0D://T/s,
9:u0E:m///n,
7:u0B:n/s,
9:u0E://n/s,
9:u0D:m///n,
9:u0D://n/s,
9:u0E:m///E,
7:u0B:E/s,
9:u0E://E/s,
9:u0D:m///E,
9:u0D://E/s,
9:u0E:Z/m//,
9:u0D:Z/m//,
9:u0E:d/m//,
9:u0D:d/m//,
9:u0E:h/m//,
9:u0D:h/m//,
9:u0E:c/m//,
9:u0D:c/m//,
9:u0E:p/m//,
9:u0D:p/m//,
9:u0E:P/m//,
9:u0D:P/m//,
9:u0E:a/m//,
9:u0D:a/m//,
10:u0E:µ/m//,
10:u0D:µ/m//,
9:u0E:G/m//,
9:u0D:G/m//,
9:u0E:m/m//,
9:u0D:m/m//,
9:u0E:M/m//,
9:u0D:M/m//,
9:u0E:f/m//,
9:u0D:f/m//,
9:u0E:Y/m//,
9:u0D:Y/m//,
9:u0E:y/m//,
9:u0D:y/m//,
9:u0E:T/m//,
9:u0D:T/m//,
9:u0E:n/m//,
9:u0D:n/m//,
9:u0E:E/m//,
9:u0D:E/m//,
7:u0B:i//,
9:u0E:m/i//,
7:u0A:i//,
9:u0E:i///h,
7:u09:i//,
9:u0D:m/i//,
12:u0E://h/_x+1,
7:u0C:i//,
9:u0D:i///h,
7:u0A:m/p,
7:u0B:p/h,
9:u0E:m/p/h,
7:u09:m/p,
7:u0A:p/h,
12:u0D:_x-1/m/p,
12:u0E:p/h/_x+1,
7:u09:p/h,
7:u0C:m/p,
9:u0D:m/p/h,
7:u0A:k/n,
7:u0B:n/o,
9:u0E:k/n/o,
7:u09:k/n,
7:u0A:n/o,
7:u0B:o/t,
12:u0D:_x-1/k/n,
9:u0E:n/o/t,
7:u09:n/o,
7:u0A:o/t,
7:u0C:k/n,
9:u0D:k/n/o,
12:u0E:o/t/_x+1,
7:u09:o/t,
7:u0C:n/o,
9:u0D:n/o/t,
7:u0A:i/p,
9:u0E:i/p/s,
7:u09:i/p,
12:u0D:_x-1/i/p,
7:u0C:i/p,
9:u0D:i/p/s,
7:u0A:M/a,
9:u0E:M/a/c,
7:u09:M/a,
7:u0B:c/h,
12:u0D:_x-1/M/a,
9:u0E:a/c/h,
7:u0C:M/a,
9:u0D:M/a/c,
9:u0D:a/c/h,
7:u0A:a/t,
9:u0E:a/t/m,
7:u09:a/t,
12:u0D:_x-1/a/t,
7:u0C:a/t,
9:u0D:a/t/m,
7:u0A:P/a,
12:u0E:P/a/_x+1,
7:u09:P/a,
12:u0D:_x-1/P/a,
7:u0A:z/P,
7:u0B:P/a,
9:u0E:z/P/a,
7:u09:z/P,
12:u0D:_x-1/z/P,
7:u0C:z/P,
9:u0D:z/P/a,
7:u0A:Z/P,
9:u0E:Z/P/a,
7:u09:Z/P,
12:u0D:_x-1/Z/P,
7:u0C:Z/P,
9:u0D:Z/P/a,
7:u0A:d/P,
9:u0E:d/P/a,
7:u09:d/P,
12:u0D:_x-1/d/P,
7:u0C:d/P,
9:u0D:d/P/a,
7:u0A:k/P,
9:u0E:k/P/a,
7:u09:k/P,
12:u0D:_x-1/k/P,
7:u0C:k/P,
9:u0D:k/P/a,
7:u0A:h/P,
9:u0E:h/P/a,
7:u09:h/P,
12:u0D:_x-1/h/P,
7:u0C:h/P,
9:u0D:h/P/a,
7:u0A:c/P,
9:u0E:c/P/a,
7:u09:c/P,
12:u0D:_x-1/c/P,
7:u0C:c/P,
9:u0D:c/P/a,
7:u0A:p/P,
9:u0E:p/P/a,
7:u09:p/P,
12:u0D:_x-1/p/P,
7:u0C:p/P,
9:u0D:p/P/a,
7:u0A:P/P,
9:u0E:P/P/a,
7:u09:P/P,
12:u0D:_x-1/P/P,
7:u0C:P/P,
9:u0D:P/P/a,
7:u0B:a/P,
9:u0E:d/a/P,
7:u0A:a/P,
9:u0E:a/P/a,
7:u09:a/P,
9:u0D:d/a/P,
7:u0C:a/P,
9:u0D:a/P/a,
8:u0A:µ/P,
10:u0E:µ/P/a,
8:u09:µ/P,
13:u0D:_x-1/µ/P,
8:u0C:µ/P,
10:u0D:µ/P/a,
7:u0A:G/P,
9:u0E:G/P/a,
7:u09:G/P,
12:u0D:_x-1/G/P,
7:u0C:G/P,
9:u0D:G/P/a,
7:u0A:m/P,
9:u0E:m/P/a,
7:u09:m/P,
12:u0D:_x-1/m/P,
7:u0C:m/P,
9:u0D:m/P/a,
7:u0A:M/P,
9:u0E:M/P/a,
7:u09:M/P,
12:u0D:_x-1/M/P,
7:u0C:M/P,
9:u0D:M/P/a,
12:u0D:_x-1/a/P,
7:u0A:f/P,
9:u0E:f/P/a,
7:u09:f/P,
12:u0D:_x-1/f/P,
7:u0C:f/P,
9:u0D:f/P/a,
7:u0A:Y/P,
9:u0E:Y/P/a,
7:u09:Y/P,
12:u0D:_x-1/Y/P,
7:u0C:Y/P,
9:u0D:Y/P/a,
7:u0A:y/P,
9:u0E:y/P/a,
7:u09:y/P,
12:u0D:_x-1/y/P,
7:u0C:y/P,
9:u0D:y/P/a,
7:u0A:T/P,
9:u0E:T/P/a,
7:u09:T/P,
12:u0D:_x-1/T/P,
7:u0C:T/P,
9:u0D:T/P/a,
7:u0A:n/P,
9:u0E:n/P/a,
7:u09:n/P,
12:u0D:_x-1/n/P,
7:u0C:n/P,
9:u0D:n/P/a,
7:u0A:E/P,
9:u0E:E/P/a,
7:u09:E/P,
12:u0D:_x-1/E/P,
7:u0C:E/P,
9:u0D:E/P/a,
10:u09:_x-1/B,
7:u0A:B/a,
7:u0B:a/r,
15:u0D:_x-2/_x-1/B,
9:u0E:B/a/r,
5:u03:B,
7:u09:B/a,
10:u0C:_x-1/B,
12:u0D:_x-1/B/a,
12:u0E:a/r/_x+1,
5:u02:B,
7:u0C:B/a,
9:u0D:B/a/r,
12:u0E:a/t/_x+1,
5:u07:r,
7:u0A:T/o,
7:u0B:o/r,
9:u0E:T/o/r,
7:u09:T/o,
7:u0A:o/r,
7:u0B:r/r,
12:u0D:_x-1/T/o,
9:u0E:o/r/r,
7:u09:o/r,
7:u0A:r/r,
7:u0C:T/o,
9:u0D:T/o/r,
12:u0E:r/r/_x+1,
7:u09:r/r,
7:u0C:o/r,
9:u0D:o/r/r,
7:u0B:s/i,
9:u0E:p/s/i,
7:u0A:s/i,
12:u0E:s/i/_x+1,
7:u09:s/i,
7:u0C:p/s,
9:u0D:p/s/i,
7:u04:‰,
12:u09:_x-1/‰,
12:u0A:‰/_x+1,
17:u0D:_x-2/_x-1/‰,
17:u0E:‰/_x+1/_x+2,
7:u04:‱,
12:u09:_x-1/‱,
12:u0A:‱/_x+1,
17:u0D:_x-2/_x-1/‱,
17:u0E:‱/_x+1/_x+2,
7:u0A:P/l,
12:u0E:P/l/_x+1,
7:u09:P/l,
12:u0D:_x-1/P/l,
7:u0B:P/l,
9:u0E:z/P/l,
9:u0D:z/P/l,
9:u0E:Z/P/l,
9:u0D:Z/P/l,
9:u0E:d/P/l,
9:u0D:d/P/l,
9:u0E:k/P/l,
9:u0D:k/P/l,
9:u0E:h/P/l,
9:u0D:h/P/l,
9:u0E:c/P/l,
9:u0D:c/P/l,
9:u0E:p/P/l,
9:u0D:p/P/l,
9:u0E:P/P/l,
9:u0D:P/P/l,
9:u0E:a/P/l,
9:u0D:a/P/l,
10:u0E:µ/P/l,
10:u0D:µ/P/l,
9:u0E:G/P/l,
9:u0D:G/P/l,
9:u0E:m/P/l,
9:u0D:m/P/l,
9:u0E:M/P/l,
9:u0D:M/P/l,
9:u0E:f/P/l,
9:u0D:f/P/l,
9:u0E:Y/P/l,
9:u0D:Y/P/l,
9:u0E:y/P/l,
9:u0D:y/P/l,
9:u0E:T/P/l,
9:u0D:T/P/l,
9:u0E:n/P/l,
9:u0D:n/P/l,
9:u0E:E/P/l,
9:u0D:E/P/l,
7:u0B:a/.,
9:u0E:P/a/.,
7:u0A:a/.,
7:u0B:./s,
9:u0E:a/./s,
7:u09:a/.,
7:u0A:./s,
7:u0C:P/a,
9:u0D:P/a/.,
12:u0E:./s/_x+1,
7:u09:./s,
7:u0C:a/.,
9:u0D:a/./s,
10:u0A:P/_x+1,
15:u0E:P/_x+1/_x+2,
7:u0A:r/a,
9:u0E:r/a/d,
7:u09:r/a,
12:u0D:_x-1/r/a,
12:u0E:a/d/_x+1,
7:u0C:r/a,
9:u0D:r/a/d,
7:u0A:z/r,
7:u0B:r/a,
9:u0E:z/r/a,
7:u09:z/r,
12:u0D:_x-1/z/r,
7:u0C:z/r,
9:u0D:z/r/a,
7:u0A:Z/r,
9:u0E:Z/r/a,
7:u09:Z/r,
12:u0D:_x-1/Z/r,
7:u0C:Z/r,
9:u0D:Z/r/a,
9:u0E:d/r/a,
9:u0D:d/r/a,
7:u0A:k/r,
9:u0E:k/r/a,
7:u09:k/r,
12:u0D:_x-1/k/r,
7:u0C:k/r,
9:u0D:k/r/a,
7:u0A:h/r,
9:u0E:h/r/a,
7:u09:h/r,
12:u0D:_x-1/h/r,
7:u0C:h/r,
9:u0D:h/r/a,
7:u0A:c/r,
9:u0E:c/r/a,
7:u09:c/r,
12:u0D:_x-1/c/r,
7:u0C:c/r,
9:u0D:c/r/a,
7:u0A:p/r,
9:u0E:p/r/a,
7:u09:p/r,
12:u0D:_x-1/p/r,
7:u0C:p/r,
9:u0D:p/r/a,
7:u0A:P/r,
9:u0E:P/r/a,
7:u09:P/r,
12:u0D:_x-1/P/r,
7:u0C:P/r,
9:u0D:P/r/a,
9:u0E:d/a/r,
9:u0E:a/r/a,
9:u0D:d/a/r,
9:u0D:a/r/a,
8:u0A:µ/r,
10:u0E:µ/r/a,
8:u09:µ/r,
13:u0D:_x-1/µ/r,
8:u0C:µ/r,
10:u0D:µ/r/a,
7:u0A:G/r,
9:u0E:G/r/a,
7:u09:G/r,
12:u0D:_x-1/G/r,
7:u0C:G/r,
9:u0D:G/r/a,
7:u0A:m/r,
9:u0E:m/r/a,
7:u09:m/r,
12:u0D:_x-1/m/r,
7:u0C:m/r,
9:u0D:m/r/a,
7:u0A:M/r,
9:u0E:M/r/a,
7:u09:M/r,
12:u0D:_x-1/M/r,
7:u0C:M/r,
9:u0D:M/r/a,
7:u0A:f/r,
9:u0E:f/r/a,
7:u09:f/r,
12:u0D:_x-1/f/r,
7:u0C:f/r,
9:u0D:f/r/a,
7:u0A:Y/r,
9:u0E:Y/r/a,
7:u09:Y/r,
12:u0D:_x-1/Y/r,
7:u0C:Y/r,
9:u0D:Y/r/a,
7:u0A:y/r,
9:u0E:y/r/a,
7:u09:y/r,
12:u0D:_x-1/y/r,
7:u0C:y/r,
9:u0D:y/r/a,
7:u0A:T/r,
9:u0E:T/r/a,
7:u09:T/r,
12:u0D:_x-1/T/r,
7:u0C:T/r,
9:u0D:T/r/a,
7:u0A:n/r,
9:u0E:n/r/a,
7:u09:n/r,
12:u0D:_x-1/n/r,
7:u0C:n/r,
9:u0D:n/r/a,
7:u0A:E/r,
9:u0E:E/r/a,
7:u09:E/r,
12:u0D:_x-1/E/r,
7:u0C:E/r,
9:u0D:E/r/a,
7:u0A:d/e,
7:u0B:e/g,
9:u0E:d/e/g,
7:u09:d/e,
7:u0A:e/g,
12:u0D:_x-1/d/e,
12:u0E:e/g/_x+1,
7:u09:e/g,
7:u0C:d/e,
9:u0D:d/e/g,
5:u04:',
10:u09:_x-1/',
10:u0A:'/_x+1,
15:u0D:_x-2/_x-1/',
15:u0E:'/_x+1/_x+2,
9:u52:QUOTE,
14:u55:_x-1/QUOTE,
14:u56:QUOTE/_x+1,
5:u04:",
10:u09:_x-1/",
10:u0A:"/_x+1,
15:u0D:_x-2/_x-1/",
15:u0E:"/_x+1/_x+2,
5:u04:`,
5:u05:`,
10:u09:_x-1/`,
7:u0A:`/`,
10:u0B:`/_x+1,
15:u0D:_x-2/_x-1/`,
12:u0E:`/`/_x+1,
9:u53:QUOTE,
15:u56:QUOTE/QUOTE,
14:u57:QUOTE/_x+1,
5:u03:`,
7:u09:`/`,
10:u0A:`/_x+1,
10:u0C:_x-1/`,
12:u0D:_x-1/`/`,
15:u0E:`/_x+1/_x+2,
9:u51:QUOTE,
15:u55:QUOTE/QUOTE,
5:u05:',
7:u0A:'/',
10:u0B:'/_x+1,
12:u0E:'/'/_x+1,
5:u03:',
7:u09:'/',
10:u0C:_x-1/',
12:u0D:_x-1/'/',
7:u0A:s/r,
12:u0E:s/r/_x+1,
7:u09:s/r,
12:u0D:_x-1/s/r,
7:u0B:s/r,
9:u0E:z/s/r,
7:u0C:z/s,
9:u0D:z/s/r,
9:u0E:Z/s/r,
7:u0C:Z/s,
9:u0D:Z/s/r,
9:u0E:d/s/r,
7:u0C:d/s,
9:u0D:d/s/r,
9:u0E:k/s/r,
7:u0C:k/s,
9:u0D:k/s/r,
9:u0E:h/s/r,
7:u0C:h/s,
9:u0D:h/s/r,
9:u0E:c/s/r,
7:u0C:c/s,
9:u0D:c/s/r,
9:u0E:p/s/r,
9:u0D:p/s/r,
9:u0E:P/s/r,
7:u0C:P/s,
9:u0D:P/s/r,
9:u0E:a/s/r,
7:u0C:a/s,
9:u0D:a/s/r,
10:u0E:µ/s/r,
8:u0C:µ/s,
10:u0D:µ/s/r,
9:u0E:G/s/r,
7:u0C:G/s,
9:u0D:G/s/r,
9:u0E:m/s/r,
9:u0D:m/s/r,
9:u0E:M/s/r,
7:u0C:M/s,
9:u0D:M/s/r,
9:u0E:f/s/r,
7:u0C:f/s,
9:u0D:f/s/r,
9:u0E:Y/s/r,
7:u0C:Y/s,
9:u0D:Y/s/r,
9:u0E:y/s/r,
7:u0C:y/s,
9:u0D:y/s/r,
9:u0E:T/s/r,
7:u0C:T/s,
9:u0D:T/s/r,
9:u0E:n/s/r,
7:u0C:n/s,
9:u0D:n/s/r,
9:u0E:E/s/r,
7:u0C:E/s,
9:u0D:E/s/r,
7:u0A:Y/l,
12:u0E:Y/l/_x+1,
7:u09:Y/l,
12:u0D:_x-1/Y/l,
7:u0A:Y/L,
12:u0E:Y/L/_x+1,
7:u09:Y/L,
12:u0D:_x-1/Y/L,
7:u0A:Z/l,
12:u0E:Z/l/_x+1,
7:u09:Z/l,
12:u0D:_x-1/Z/l,
7:u0A:Z/L,
12:u0E:Z/L/_x+1,
7:u09:Z/L,
12:u0D:_x-1/Z/L,
7:u0A:E/l,
12:u0E:E/l/_x+1,
7:u09:E/l,
12:u0D:_x-1/E/l,
7:u0A:E/L,
12:u0E:E/L/_x+1,
7:u09:E/L,
12:u0D:_x-1/E/L,
7:u0A:P/L,
12:u0E:P/L/_x+1,
7:u09:P/L,
12:u0D:_x-1/P/L,
7:u0A:T/l,
12:u0E:T/l/_x+1,
7:u09:T/l,
12:u0D:_x-1/T/l,
7:u0A:T/L,
12:u0E:T/L/_x+1,
7:u09:T/L,
12:u0D:_x-1/T/L,
7:u0A:G/l,
12:u0E:G/l/_x+1,
7:u09:G/l,
12:u0D:_x-1/G/l,
7:u0A:G/L,
12:u0E:G/L/_x+1,
7:u09:G/L,
12:u0D:_x-1/G/L,
7:u0A:M/l,
12:u0E:M/l/_x+1,
7:u09:M/l,
12:u0D:_x-1/M/l,
7:u0A:M/L,
12:u0E:M/L/_x+1,
7:u09:M/L,
12:u0D:_x-1/M/L,
7:u0A:k/l,
12:u0E:k/l/_x+1,
7:u09:k/l,
12:u0D:_x-1/k/l,
7:u0A:k/L,
12:u0E:k/L/_x+1,
7:u09:k/L,
12:u0D:_x-1/k/L,
7:u0A:h/l,
12:u0E:h/l/_x+1,
7:u09:h/l,
12:u0D:_x-1/h/l,
7:u0A:h/L,
12:u0E:h/L/_x+1,
7:u09:h/L,
12:u0D:_x-1/h/L,
10:u09:_x-1/L,
15:u0D:_x-2/_x-1/L,
9:u0E:d/a/l,
9:u0D:d/a/l,
7:u0B:a/L,
9:u0E:d/a/L,
7:u0A:a/L,
12:u0E:a/L/_x+1,
7:u09:a/L,
9:u0D:d/a/L,
7:u0A:d/l,
12:u0E:d/l/_x+1,
7:u09:d/l,
12:u0D:_x-1/d/l,
7:u0A:d/L,
12:u0E:d/L/_x+1,
7:u09:d/L,
12:u0D:_x-1/d/L,
7:u0A:c/l,
12:u0E:c/l/_x+1,
7:u09:c/l,
12:u0D:_x-1/c/l,
7:u0A:c/L,
12:u0E:c/L/_x+1,
7:u09:c/L,
12:u0D:_x-1/c/L,
7:u0A:m/l,
12:u0E:m/l/_x+1,
7:u09:m/l,
12:u0D:_x-1/m/l,
7:u0A:m/L,
12:u0E:m/L/_x+1,
7:u09:m/L,
12:u0D:_x-1/m/L,
8:u0A:µ/l,
13:u0E:µ/l/_x+1,
8:u09:µ/l,
13:u0D:_x-1/µ/l,
8:u0A:µ/L,
13:u0E:µ/L/_x+1,
8:u09:µ/L,
13:u0D:_x-1/µ/L,
7:u0A:n/l,
12:u0E:n/l/_x+1,
7:u09:n/l,
12:u0D:_x-1/n/l,
7:u0A:n/L,
12:u0E:n/L/_x+1,
7:u09:n/L,
12:u0D:_x-1/n/L,
7:u0A:p/l,
12:u0E:p/l/_x+1,
7:u09:p/l,
12:u0D:_x-1/p/l,
7:u0A:p/L,
12:u0E:p/L/_x+1,
7:u09:p/L,
12:u0D:_x-1/p/L,
12:u0E:f/l/_x+1,
7:u0A:f/L,
12:u0E:f/L/_x+1,
7:u09:f/L,
12:u0D:_x-1/f/L,
12:u0D:_x-1/a/l,
12:u0D:_x-1/a/L,
7:u0A:z/l,
12:u0E:z/l/_x+1,
7:u09:z/l,
12:u0D:_x-1/z/l,
7:u0A:z/L,
12:u0E:z/L/_x+1,
7:u09:z/L,
12:u0D:_x-1/z/L,
7:u0A:y/l,
12:u0E:y/l/_x+1,
7:u09:y/l,
12:u0D:_x-1/y/l,
7:u0A:y/L,
12:u0E:y/L/_x+1,
7:u09:y/L,
12:u0D:_x-1/y/L,
7:u0B:m/2,
9:u0E:c/m/2,
7:u0A:m/2,
7:u0B:2//,
9:u0E:m/2//,
7:u09:m/2,
7:u0A:2//,
9:u0D:c/m/2,
9:u0E:2///s,
5:u03:2,
7:u09:2//,
7:u0C:m/2,
9:u0D:m/2//,
5:u21:1,
5:u02:2,
7:u0C:2//,
9:u0D:2///s,
5:u20:1,
5:u08:2,
5:u07:2,
7:u0B:s/2,
9:u0E://s/2,
7:u0A:s/2,
12:u0E:s/2/_x+1,
7:u09:s/2,
7:u0C://s,
9:u0D://s/2,
5:u08:g,
5:u07:g,
9:u0E:s/2//,
7:u0B://g,
9:u0E:2///g,
7:u0A://g,
7:u0B:g/2,
7:u0C:s/2,
9:u0D:s/2//,
9:u0E://g/2,
5:u00:/,
5:u01:s,
7:u09://g,
7:u0A:g/2,
9:u0D:2///g,
12:u0E:g/2/_x+1,
5:u00:s,
5:u01:2,
7:u09:g/2,
7:u0C://g,
9:u0D://g/2,
12:u0D:_x-1/m/2,
8:u0A:°/C,
13:u0E:°/C/_x+1,
6:u03:°,
8:u09:°/C,
11:u0C:_x-1/°,
13:u0D:_x-1/°/C,
7:u0B:C//,
10:u0E:°/C//,
7:u0A:C//,
9:u0E:C///m,
6:u02:°,
5:u03:C,
7:u09:C//,
8:u0C:°/C,
10:u0D:°/C//,
9:u0E://m/2,
6:u01:°,
5:u02:C,
7:u0C:C//,
9:u0D:C///m,
12:u0E:m/2/_x+1,
6:u00:°,
5:u01:C,
9:u0D://m/2,
6:u05:°,
10:u09:_x-1/1,
8:u0A:1/°,
8:u0B:°/C,
15:u0D:_x-2/_x-1/1,
10:u0E:1/°/C,
5:u03:1,
8:u09:1/°,
10:u0C:_x-1/1,
13:u0D:_x-1/1/°,
5:u02:1,
8:u0C:1/°,
10:u0D:1/°/C,
5:u01:1,
5:u00:1,
6:u06:°,
5:u07:C,
7:u0A:1/2,
8:u0B:2/°,
10:u0E:1/2/°,
7:u09:1/2,
8:u0A:2/°,
12:u0D:_x-1/1/2,
10:u0E:2/°/C,
8:u09:2/°,
7:u0C:1/2,
10:u0D:1/2/°,
8:u0C:2/°,
10:u0D:2/°/C,
5:u00:2,
7:u0B:2/2,
9:u0E:m/2/2,
7:u0A:2/2,
9:u0E:2/2/2,
5:u00:C,
7:u09:2/2,
9:u0D:m/2/2,
12:u0E:2/2/_x+1,
7:u0C:2/2,
9:u0D:2/2/2,
9:u0E:m/J/y,
7:u0C:m/J,
9:u0D:m/J/y,
6:u04:μ,
11:u09:_x-1/μ,
8:u0A:μ/m,
16:u0D:_x-2/_x-1/μ,
13:u0E:μ/m/_x+1,
6:u03:μ,
8:u09:μ/m,
11:u0C:_x-1/μ,
13:u0D:_x-1/μ/m,
5:u04:~,
5:u05:7,
5:u06:5,
10:u09:_x-1/~,
7:u0A:~/7,
7:u0B:7/5,
15:u0D:_x-2/_x-1/~,
9:u0E:~/7/5,
5:u03:~,
5:u04:7,
5:u05:5,
7:u09:~/7,
7:u0A:7/5,
7:u0B:5/%,
10:u0C:_x-1/~,
12:u0D:_x-1/~/7,
9:u0E:7/5/%,
5:u02:~,
5:u03:7,
5:u04:5,
7:u09:7/5,
7:u0A:5/%,
7:u0C:~/7,
9:u0D:~/7/5,
12:u0E:5/%/_x+1,
5:u01:~,
5:u02:7,
5:u03:5,
7:u09:5/%,
7:u0C:7/5,
9:u0D:7/5/%,
6:u04:σ,
11:u09:_x-1/σ,
11:u0A:σ/_x+1,
16:u0D:_x-2/_x-1/σ,
16:u0E:σ/_x+1/_x+2,
5:u05:4,
6:u06:μ,
10:u09:_x-1/2,
7:u0A:2/4,
8:u0B:4/μ,
15:u0D:_x-2/_x-1/2,
10:u0E:2/4/μ,
5:u04:4,
6:u05:μ,
7:u09:2/4,
8:u0A:4/μ,
8:u0B:μ/m,
10:u0C:_x-1/2,
12:u0D:_x-1/2/4,
10:u0E:4/μ/m,
5:u03:4,
8:u09:4/μ,
7:u0C:2/4,
10:u0D:2/4/μ,
5:u02:4,
8:u0C:4/μ,
10:u0D:4/μ/m,
8:u0A:μ/J,
7:u0B:J/Y,
10:u0E:μ/J/Y,
8:u09:μ/J,
7:u0A:J/Y,
10:u0B:Y/_x+1,
13:u0D:_x-1/μ/J,
12:u0E:J/Y/_x+1,
6:u02:μ,
7:u09:J/Y,
10:u0A:Y/_x+1,
8:u0C:μ/J,
10:u0D:μ/J/Y,
15:u0E:Y/_x+1/_x+2,
7:u0A:G/b,
7:u0B:b//,
9:u0E:G/b//,
7:u09:G/b,
7:u0A:b//,
12:u0D:_x-1/G/b,
9:u0E:b///s,
5:u03:b,
7:u09:b//,
7:u0C:G/b,
9:u0D:G/b//,
5:u02:b,
7:u0C:b//,
9:u0D:b///s,
5:u06:*,
7:u0B:B/*,
9:u0E:d/B/*,
12:u54:ASTERISK,
20:u57:NOPUNCT/ASTERISK,
5:u05:*,
7:u0A:B/*,
7:u0B:*/m,
9:u0E:B/*/m,
12:u53:ASTERISK,
20:u56:NOPUNCT/ASTERISK,
20:u57:ASTERISK/NOPUNCT,
5:u04:*,
7:u09:B/*,
7:u0A:*/m,
7:u0C:d/B,
9:u0D:d/B/*,
12:u0E:*/m/_x+1,
12:u52:ASTERISK,
20:u55:NOPUNCT/ASTERISK,
20:u56:ASTERISK/NOPUNCT,
5:u03:*,
7:u09:*/m,
7:u0C:B/*,
9:u0D:B/*/m,
12:u51:ASTERISK,
20:u55:ASTERISK/NOPUNCT,
9:u0E:H/z/m,
5:u02:H,
7:u0C:H/z,
9:u0D:H/z/m,
7:u0B:m/g,
9:u0E:z/m/g,
5:u01:H,
9:u0D:z/m/g,
7:u0B:g/3,
9:u0E:m/g/3,
7:u0A:g/3,
7:u0B:3/3,
9:u0E:g/3/3,
5:u00:H,
7:u09:g/3,
7:u0A:3/3,
7:u0B:3//,
7:u0C:m/g,
9:u0D:m/g/3,
9:u0E:3/3//,
5:u03:3,
7:u09:3/3,
7:u0A:3//,
7:u0C:g/3,
9:u0D:g/3/3,
9:u0E:3///s,
5:u02:3,
7:u09:3//,
7:u0B:s/3,
7:u0C:3/3,
9:u0D:3/3//,
9:u0E://s/3,
5:u01:3,
7:u0A:s/3,
7:u0C:3//,
9:u0D:3///s,
12:u0E:s/3/_x+1,
5:u00:3,
7:u09:s/3,
9:u0D://s/3,
5:u07:4,
5:u08:5,
7:u0B:2/3,
9:u0E:2/2/3,
5:u06:4,
5:u07:5,
7:u0A:2/3,
7:u0B:3/4,
12:u0D:_x-1/2/2,
9:u0E:2/3/4,
5:u08:,,
7:u09:2/3,
7:u0A:3/4,
7:u0B:4/5,
9:u0D:2/2/3,
9:u0E:3/4/5,
5:u07:,,
5:u08:6,
7:u09:3/4,
7:u0A:4/5,
7:u0B:5/5,
7:u0C:2/3,
9:u0D:2/3/4,
9:u0E:4/5/5,
5:u06:,,
5:u07:6,
5:u08:V,
7:u09:4/5,
7:u0A:5/5,
7:u0B:5/,,
7:u0C:3/4,
9:u0D:3/4/5,
9:u0E:5/5/,,
9:u54:COMMA,
17:u57:NOPUNCT/COMMA,
5:u05:,,
5:u06:6,
5:u07:V,
7:u09:5/5,
7:u0A:5/,,
7:u0B:,/6,
7:u0C:4/5,
9:u0D:4/5/5,
9:u0E:5/,/6,
9:u53:COMMA,
17:u56:NOPUNCT/COMMA,
17:u57:COMMA/NOPUNCT,
5:u01:4,
5:u02:5,
5:u04:,,
5:u05:6,
7:u09:5/,,
7:u0A:,/6,
7:u0B:6/V,
7:u0C:5/5,
9:u0D:5/5/,,
9:u0E:,/6/V,
9:u52:COMMA,
17:u55:NOPUNCT/COMMA,
17:u56:COMMA/NOPUNCT,
5:u00:4,
5:u01:5,
5:u03:,,
5:u04:6,
7:u09:,/6,
7:u0A:6/V,
7:u0C:5/,,
9:u0D:5/,/6,
9:u0E:6/V//,
9:u51:COMMA,
17:u55:COMMA/NOPUNCT,
5:u00:5,
5:u02:,,
5:u03:6,
7:u09:6/V,
7:u0C:,/6,
9:u0D:,/6/V,
9:u50:COMMA,
5:u01:,,
5:u02:6,
7:u0C:6/V,
9:u0D:6/V//,
5:u00:,,
5:u01:6,
5:u00:6,
8:u0A:μ/g,
13:u0E:μ/g/_x+1,
8:u09:μ/g,
13:u0D:_x-1/μ/g,
8:u0A:μ/l,
13:u0E:μ/l/_x+1,
8:u09:μ/l,
13:u0D:_x-1/μ/l,
12:u0E:p/H/_x+1,
7:u0B:c/a,
9:u0E:k/c/a,
7:u0A:c/a,
9:u0E:c/a/l,
7:u09:c/a,
9:u0D:k/c/a,
7:u0C:c/a,
9:u0D:c/a/l,
7:u0B:a/y,
9:u0E:d/a/y,
7:u0A:a/y,
9:u0E:a/y/s,
7:u09:a/y,
9:u0D:d/a/y,
7:u0C:a/y,
9:u0D:a/y/s,
12:u0E:a/y/_x+1,
7:u0B:o/n,
9:u0E:m/o/n,
7:u0A:o/n,
7:u0B:n/t,
9:u0E:o/n/t,
7:u09:o/n,
7:u0A:n/t,
7:u0B:t/h,
9:u0D:m/o/n,
9:u0E:n/t/h,
7:u09:n/t,
7:u0C:o/n,
9:u0D:o/n/t,
9:u0E:t/h/s,
7:u0C:n/t,
9:u0D:n/t/h,
7:u0C:t/h,
9:u0D:t/h/s,
10:u0B:e/_x+1,
12:u0E:t/e/_x+1,
10:u0A:e/_x+1,
15:u0E:e/_x+1/_x+2,
7:u0A:y/e,
9:u0E:y/e/a,
7:u09:y/e,
12:u0D:_x-1/y/e,
9:u0E:e/a/r,
7:u0B:r/s,
7:u0C:y/e,
9:u0D:y/e/a,
9:u0E:a/r/s,
5:u02:e,
7:u0A:r/s,
7:u0C:e/a,
9:u0D:e/a/r,
12:u0E:r/s/_x+1,
5:u01:e,
7:u09:r/s,
9:u0D:a/r/s,
7:u0A:h/o,
9:u0E:h/o/u,
7:u09:h/o,
12:u0D:_x-1/h/o,
9:u0E:o/u/r,
7:u0C:h/o,
9:u0D:h/o/u,
9:u0E:u/r/s,
9:u0D:o/u/r,
7:u0C:u/r,
9:u0D:u/r/s,
6:u06:·,
7:u08:−,
8:u0B:m/·,
10:u0E:k/m/·,
6:u05:·,
8:u0A:m/·,
8:u0B:·/h,
10:u0E:m/·/h,
6:u04:·,
8:u09:m/·,
8:u0A:·/h,
9:u0B:h/−,
10:u0D:k/m/·,
12:u0E:·/h/−,
6:u03:·,
8:u09:·/h,
9:u0A:h/−,
8:u0C:m/·,
10:u0D:m/·/h,
11:u0E:h/−/1,
6:u02:·,
9:u09:h/−,
8:u0C:·/h,
12:u0D:·/h/−,
6:u01:·,
9:u0C:h/−,
11:u0D:h/−/1,
6:u08:·,
6:u07:·,
8:u0B:l/·,
10:u0E:a/l/·,
8:u0A:l/·,
8:u0B:·/d,
10:u0E:l/·/d,
8:u09:l/·,
8:u0A:·/d,
7:u0C:a/l,
10:u0D:a/l/·,
10:u0E:·/d/a,
8:u09:·/d,
8:u0C:l/·,
10:u0D:l/·/d,
9:u0B:y/−,
8:u0C:·/d,
10:u0D:·/d/a,
11:u0E:a/y/−,
9:u0A:y/−,
11:u0E:y/−/1,
6:u00:·,
9:u09:y/−,
11:u0D:a/y/−,
9:u0C:y/−,
11:u0D:y/−/1,
13:u0D:_x-1/l/·,
10:u0E:m/l/·,
8:u0B:·/k,
10:u0E:l/·/k,
8:u0A:·/k,
7:u0B:k/c,
7:u0C:m/l,
10:u0D:m/l/·,
10:u0E:·/k/c,
8:u09:·/k,
10:u0D:l/·/k,
8:u0C:·/k,
10:u0D:·/k/c,
9:u0B:l/−,
11:u0E:a/l/−,
9:u0A:l/−,
11:u0E:l/−/1,
9:u09:l/−,
8:u0B:1/·,
11:u0D:a/l/−,
12:u0E:−/1/·,
8:u0A:1/·,
9:u0C:l/−,
11:u0D:l/−/1,
10:u0E:1/·/d,
7:u02:−,
8:u09:1/·,
9:u0C:−/1,
12:u0D:−/1/·,
7:u01:−,
8:u0C:1/·,
10:u0D:1/·/d,
7:u00:−,
7:u0B:m/-,
9:u0E:c/m/-,
18:u57:NOPUNCT/HYPHEN,
7:u0A:m/-,
9:u0E:m/-/1,
18:u56:NOPUNCT/HYPHEN,
7:u09:m/-,
9:u0D:c/m/-,
18:u55:NOPUNCT/HYPHEN,
7:u0C:m/-,
9:u0D:m/-/1,
5:u08:o,
7:u0B:i/c,
9:u0E:m/i/c,
7:u0A:i/c,
7:u0B:c/r,
9:u0E:i/c/r,
7:u09:i/c,
7:u0B:r/o,
9:u0D:m/i/c,
9:u0E:c/r/o,
7:u0C:i/c,
9:u0D:i/c/r,
9:u0E:r/o/n,
9:u0D:c/r/o,
12:u0E:o/n/_x+1,
9:u0D:r/o/n,
7:u0A:g//,
9:u0E:g///c,
7:u09:g//,
8:u0B:c/³,
12:u0D:_x-1/g//,
10:u0E://c/³,
8:u0A:c/³,
7:u0C:g//,
9:u0D:g///c,
13:u0E:c/³/_x+1,
8:u09:c/³,
10:u0D://c/³,
6:u07:²,
6:u06:²,
8:u0B:c/²,
10:u0E://c/²,
6:u05:²,
8:u0A:c/²,
11:u0B:²/_x+1,
13:u0E:c/²/_x+1,
6:u04:²,
8:u09:c/²,
11:u0A:²/_x+1,
10:u0D://c/²,
16:u0E:²/_x+1/_x+2,
6:u08:²,
7:u0B:g//,
9:u0E:k/g//,
7:u0C:k/g,
9:u0D:k/g//,
9:u0E:H/z/s,
9:u0D:H/z/s,
7:u0B:z//,
9:u0E:H/z//,
7:u0A:z//,
9:u0E:z///s,
7:u09:z//,
9:u0D:H/z//,
7:u0C:z//,
9:u0D:z///s,
9:u0E:z///h,
9:u0D:z///h,
7:u0B:h/2,
9:u0E://h/2,
7:u0A:h/2,
12:u0E:h/2/_x+1,
7:u09:h/2,
9:u0D://h/2,
5:u05:D,
7:u0A:Y/D,
7:u0B:D/b,
9:u0E:Y/D/b,
5:u04:D,
7:u09:Y/D,
7:u0A:D/b,
7:u0B:b/s,
12:u0D:_x-1/Y/D,
9:u0E:D/b/s,
5:u03:D,
7:u09:D/b,
7:u0A:b/s,
7:u0C:Y/D,
9:u0D:Y/D/b,
12:u0E:b/s/_x+1,
5:u02:D,
7:u09:b/s,
7:u0C:D/b,
9:u0D:D/b/s,
7:u0A:Z/D,
9:u0E:Z/D/b,
7:u09:Z/D,
12:u0D:_x-1/Z/D,
7:u0C:Z/D,
9:u0D:Z/D/b,
7:u0A:E/D,
9:u0E:E/D/b,
7:u09:E/D,
12:u0D:_x-1/E/D,
7:u0C:E/D,
9:u0D:E/D/b,
7:u0A:P/D,
9:u0E:P/D/b,
7:u09:P/D,
12:u0D:_x-1/P/D,
7:u0C:P/D,
9:u0D:P/D/b,
7:u0A:T/D,
9:u0E:T/D/b,
7:u09:T/D,
12:u0D:_x-1/T/D,
7:u0C:T/D,
9:u0D:T/D/b,
7:u0A:G/D,
9:u0E:G/D/b,
7:u09:G/D,
12:u0D:_x-1/G/D,
7:u0C:G/D,
9:u0D:G/D/b,
7:u0A:M/D,
9:u0E:M/D/b,
7:u09:M/D,
12:u0D:_x-1/M/D,
7:u0C:M/D,
9:u0D:M/D/b,
7:u0A:k/D,
9:u0E:k/D/b,
7:u09:k/D,
12:u0D:_x-1/k/D,
7:u0C:k/D,
9:u0D:k/D/b,
7:u0A:h/D,
9:u0E:h/D/b,
7:u09:h/D,
12:u0D:_x-1/h/D,
7:u0C:h/D,
9:u0D:h/D/b,
7:u0A:d/D,
9:u0E:d/D/b,
7:u09:d/D,
12:u0D:_x-1/d/D,
7:u0C:d/D,
9:u0D:d/D/b,
7:u0A:c/D,
9:u0E:c/D/b,
7:u09:c/D,
12:u0D:_x-1/c/D,
7:u0C:c/D,
9:u0D:c/D/b,
7:u0A:m/D,
9:u0E:m/D/b,
7:u09:m/D,
12:u0D:_x-1/m/D,
7:u0C:m/D,
9:u0D:m/D/b,
8:u0A:µ/D,
10:u0E:µ/D/b,
8:u09:µ/D,
13:u0D:_x-1/µ/D,
8:u0C:µ/D,
10:u0D:µ/D/b,
7:u0A:n/D,
9:u0E:n/D/b,
7:u09:n/D,
12:u0D:_x-1/n/D,
7:u0C:n/D,
9:u0D:n/D/b,
7:u0A:p/D,
9:u0E:p/D/b,
7:u09:p/D,
12:u0D:_x-1/p/D,
7:u0C:p/D,
9:u0D:p/D/b,
7:u0A:f/D,
9:u0E:f/D/b,
7:u09:f/D,
12:u0D:_x-1/f/D,
7:u0C:f/D,
9:u0D:f/D/b,
7:u0A:a/D,
9:u0E:a/D/b,
7:u09:a/D,
12:u0D:_x-1/a/D,
7:u0C:a/D,
9:u0D:a/D/b,
7:u0A:z/D,
9:u0E:z/D/b,
7:u09:z/D,
12:u0D:_x-1/z/D,
7:u0C:z/D,
9:u0D:z/D/b,
7:u0A:y/D,
9:u0E:y/D/b,
7:u09:y/D,
12:u0D:_x-1/y/D,
7:u0C:y/D,
9:u0D:y/D/b,
7:u0B:b/m,
9:u0E:D/b/m,
7:u0A:b/m,
12:u0E:b/m/_x+1,
7:u09:b/m,
9:u0D:D/b/m,
9:u0E:D/b//,
9:u0D:D/b//,
5:u01:D,
9:u0E:b///h,
9:u0D:b///h,
5:u00:D,
5:u01:b,
5:u07:*,
7:u0B:b/*,
9:u0E:D/b/*,
7:u0A:b/*,
7:u0B:*/s,
9:u0E:b/*/s,
7:u09:b/*,
7:u0A:*/s,
9:u0D:D/b/*,
12:u0E:*/s/_x+1,
7:u09:*/s,
7:u0C:b/*,
9:u0D:b/*/s,
7:u0B:*/h,
9:u0E:b/*/h,
7:u0A:*/h,
12:u0E:*/h/_x+1,
7:u09:*/h,
9:u0D:b/*/h,
9:u0E:*/h/2,
5:u02:*,
7:u0C:*/h,
9:u0D:*/h/2,
12:u50:ASTERISK,
7:u0B:g/s,
9:u0E:Y/g/s,
7:u0A:g/s,
12:u0E:g/s/_x+1,
7:u09:g/s,
7:u0C:Y/g,
9:u0D:Y/g/s,
9:u0E:Z/g/s,
7:u0C:Z/g,
9:u0D:Z/g/s,
9:u0E:E/g/s,
7:u0C:E/g,
9:u0D:E/g/s,
9:u0E:P/g/s,
7:u0C:P/g,
9:u0D:P/g/s,
9:u0E:T/g/s,
7:u0C:T/g,
9:u0D:T/g/s,
9:u0E:G/g/s,
7:u0C:G/g,
9:u0D:G/g/s,
9:u0E:M/g/s,
7:u0C:M/g,
9:u0D:M/g/s,
9:u0E:k/g/s,
9:u0D:k/g/s,
9:u0E:h/g/s,
7:u0C:h/g,
9:u0D:h/g/s,
9:u0E:d/g/s,
7:u0C:d/g,
9:u0D:d/g/s,
9:u0E:c/g/s,
7:u0C:c/g,
9:u0D:c/g/s,
9:u0E:m/g/s,
9:u0D:m/g/s,
10:u0E:µ/g/s,
8:u0C:µ/g,
10:u0D:µ/g/s,
9:u0E:n/g/s,
7:u0C:n/g,
9:u0D:n/g/s,
9:u0E:p/g/s,
7:u0C:p/g,
9:u0D:p/g/s,
9:u0E:f/g/s,
7:u0C:f/g,
9:u0D:f/g/s,
9:u0E:a/g/s,
7:u0C:a/g,
9:u0D:a/g/s,
9:u0E:z/g/s,
7:u0C:z/g,
9:u0D:z/g/s,
9:u0E:y/g/s,
7:u0C:y/g,
9:u0D:y/g/s,
7:u0B:g/m,
9:u0E:Y/g/m,
7:u0A:g/m,
12:u0E:g/m/_x+1,
7:u09:g/m,
9:u0D:Y/g/m,
9:u0E:Z/g/m,
9:u0D:Z/g/m,
9:u0E:E/g/m,
9:u0D:E/g/m,
9:u0E:P/g/m,
9:u0D:P/g/m,
9:u0E:T/g/m,
9:u0D:T/g/m,
9:u0E:G/g/m,
9:u0D:G/g/m,
9:u0E:M/g/m,
9:u0D:M/g/m,
9:u0E:k/g/m,
9:u0D:k/g/m,
9:u0E:h/g/m,
9:u0D:h/g/m,
9:u0E:d/g/m,
9:u0D:d/g/m,
9:u0E:c/g/m,
9:u0D:c/g/m,
9:u0E:m/g/m,
9:u0D:m/g/m,
10:u0E:µ/g/m,
10:u0D:µ/g/m,
9:u0E:n/g/m,
9:u0D:n/g/m,
9:u0E:p/g/m,
9:u0D:p/g/m,
9:u0E:f/g/m,
9:u0D:f/g/m,
9:u0E:a/g/m,
9:u0D:a/g/m,
9:u0E:z/g/m,
9:u0D:z/g/m,
9:u0E:y/g/m,
9:u0D:y/g/m,
9:u0E:Y/g//,
9:u0E:g///s,
9:u0D:Y/g//,
9:u0D:g///s,
9:u0E:Z/g//,
9:u0D:Z/g//,
9:u0E:E/g//,
9:u0D:E/g//,
9:u0E:P/g//,
9:u0D:P/g//,
9:u0E:T/g//,
9:u0D:T/g//,
9:u0E:G/g//,
9:u0D:G/g//,
9:u0E:M/g//,
9:u0D:M/g//,
9:u0E:h/g//,
9:u0D:h/g//,
9:u0E:d/g//,
9:u0D:d/g//,
9:u0E:c/g//,
9:u0D:c/g//,
9:u0E:m/g//,
9:u0D:m/g//,
10:u0E:µ/g//,
10:u0D:µ/g//,
9:u0E:n/g//,
9:u0D:n/g//,
9:u0E:p/g//,
9:u0D:p/g//,
9:u0E:f/g//,
9:u0D:f/g//,
9:u0E:a/g//,
9:u0D:a/g//,
9:u0E:z/g//,
9:u0D:z/g//,
9:u0E:y/g//,
9:u0D:y/g//,
9:u0E:g///h,
9:u0D:g///h,
7:u0B:g/*,
9:u0E:Y/g/*,
7:u0A:g/*,
9:u0E:g/*/s,
7:u09:g/*,
9:u0D:Y/g/*,
7:u0C:g/*,
9:u0D:g/*/s,
9:u0E:Z/g/*,
9:u0D:Z/g/*,
9:u0E:E/g/*,
9:u0D:E/g/*,
9:u0E:P/g/*,
9:u0D:P/g/*,
9:u0E:T/g/*,
9:u0D:T/g/*,
9:u0E:G/g/*,
9:u0D:G/g/*,
9:u0E:M/g/*,
9:u0D:M/g/*,
9:u0E:k/g/*,
9:u0D:k/g/*,
9:u0E:h/g/*,
9:u0D:h/g/*,
9:u0E:d/g/*,
9:u0D:d/g/*,
9:u0E:c/g/*,
9:u0D:c/g/*,
9:u0E:m/g/*,
9:u0D:m/g/*,
10:u0E:µ/g/*,
10:u0D:µ/g/*,
9:u0E:n/g/*,
9:u0D:n/g/*,
9:u0E:p/g/*,
9:u0D:p/g/*,
9:u0E:f/g/*,
9:u0D:f/g/*,
9:u0E:a/g/*,
9:u0D:a/g/*,
9:u0E:z/g/*,
9:u0D:z/g/*,
9:u0E:y/g/*,
9:u0D:y/g/*,
9:u0E:g/*/h,
9:u0D:g/*/h,
7:u0B:h/^,
9:u0E://h/^,
7:u0A:h/^,
7:u0B:^/2,
9:u0E:h/^/2,
7:u09:h/^,
7:u0A:^/2,
9:u0D://h/^,
12:u0E:^/2/_x+1,
7:u09:^/2,
7:u0C:h/^,
9:u0D:h/^/2,
9:u0E:*/h/^,
9:u0D:*/h/^,
5:u01:*,
0=0x1.a9822b8eca0e6p-5
1=0x1.71bfc403d8c56p-7
2=-0x1.a2261d44471aep-5
7=0x1.a9822b8eca0e6p-5
8=0x1.71bfc403d8c56p-7
9=-0x1.a2261d44471aep-5
14=0x1.a9822b8eca0e6p-5
15=0x1.71bfc403d8c56p-7
16=-0x1.a2261d44471aep-5
21=0x1.a9822b8eca0e6p-5
22=0x1.71bfc403d8c56p-7
23=-0x1.a2261d44471aep-5
28=0x1.506a1858b927p-1
37=0x1.9bf906287b853p-7
41=-0x1.0b9c9b5ec8b4dp-6
44=0x1.9bf906287b853p-7
48=-0x1.0b9c9b5ec8b4dp-6
51=0x1.9bf906287b853p-7
55=-0x1.0b9c9b5ec8b4dp-6
58=0x1.9bf906287b853p-7
62=-0x1.0b9c9b5ec8b4dp-6
79=0x1.9bf906287b853p-7
83=-0x1.0b9c9b5ec8b4dp-6
84=0x1.a9822b8eca0e6p-5
85=0x1.71bfc403d8c56p-7
86=-0x1.a2261d44471aep-5
105=0x1.a9822b8eca0e6p-5
106=0x1.71bfc403d8c56p-7
107=-0x1.a2261d44471aep-5
112=0x1.a9822b8eca0e6p-5
113=0x1.71bfc403d8c56p-7
114=-0x1.a2261d44471aep-5
119=0x1.effaf89a3ef2fp-2
120=-0x1.c7b86ae1ac851p-7
121=-0x1.afffcf2590486p+1
122=0x1.a757417c8c2f5p-2
128=0x1.9bf906287b853p-7
132=-0x1.0b9c9b5ec8b4dp-6
135=0x1.9bf906287b853p-7
139=-0x1.0b9c9b5ec8b4dp-6
140=0x1.a9822b8eca0e6p-5
141=0x1.71bfc403d8c56p-7
142=-0x1.a2261d44471aep-5
147=0x1.a9822b8eca0e6p-5
148=0x1.71bfc403d8c56p-7
149=-0x1.a2261d44471aep-5
154=0x1.7568a8ad18307p+0
155=0x1.a7ec68b7d4a57p-7
156=0x1.1a279bd01b172p-1
157=-0x1.08ecdb0dcedbep-1
158=-0x1.3dcf5abd78cdfp+1
160=-0x1.c50614f26bd3bp-1
163=0x1.9bf906287b853p-7
167=-0x1.0b9c9b5ec8b4dp-6
170=0x1.9bf906287b853p-7
174=-0x1.0b9c9b5ec8b4dp-6
175=0x1.a9822b8eca0e6p-5
176=0x1.71bfc403d8c56p-7
177=-0x1.a2261d44471aep-5
182=0x1.a9822b8eca0e6p-5
183=0x1.71bfc403d8c56p-7
184=-0x1.a2261d44471aep-5
194=-0x1.f875d9be2f878p-2
198=0x1.9bf906287b853p-7
202=-0x1.0b9c9b5ec8b4dp-6
205=0x1.9bf906287b853p-7
209=-0x1.0b9c9b5ec8b4dp-6
219=0x1.8f8e0a03c7eb5p-7
221=0x1.0e2090e4ad92bp+0
223=-0x1.c008df48256bep-12
226=0x1.9bf906287b853p-7
230=-0x1.0b9c9b5ec8b4dp-6
231=0x1.a9822b8eca0e6p-5
232=0x1.71bfc403d8c56p-7
233=-0x1.a2261d44471aep-5
238=0x1.a9822b8eca0e6p-5
239=0x1.71bfc403d8c56p-7
240=-0x1.a2261d44471aep-5
245=0x1.330d04687ad39p-1
246=-0x1.7271b46164688p+1
247=-0x1.33ff1bfc233bp-8
250=-0x1.e1122f0d7cce4p-1
254=0x1.9bf906287b853p-7
258=-0x1.0b9c9b5ec8b4dp-6
261=0x1.9bf906287b853p-7
265=-0x1.0b9c9b5ec8b4dp-6
266=0x1.6297795a23bbp-3
275=0x1.2f7c3773cb866p-7
279=-0x1.ce2ba3639e2c2p-13
282=0x1.9bf906287b853p-7
286=-0x1.0b9c9b5ec8b4dp-6
287=0x1.a9822b8eca0e6p-5
288=0x1.71bfc403d8c56p-7
289=-0x1.a2261d44471aep-5
294=0x1.a9822b8eca0e6p-5
295=0x1.71bfc403d8c56p-7
296=-0x1.a2261d44471aep-5
301=0x1.bd51f30c73fcfp+0
303=-0x1.94cf13d0e09c2p-3
304=-0x1.a5e305551f135p+0
310=0x1.9bf906287b853p-7
314=-0x1.0b9c9b5ec8b4dp-6
317=0x1.9bf906287b853p-7
321=-0x1.0b9c9b5ec8b4dp-6
322=0x1.ba04b960c0ac9p-10
323=0x1.8999df15441d6p-4
324=-0x1.c1a49bfe00261p-7
329=0x1.33645a7dc32dcp-1
333=0x1.0bb8a2d9eb184p-12
338=0x1.9bf906287b853p-7
342=-0x1.0b9c9b5ec8b4dp-6
343=0x1.deb257311534ap-1
344=-0x1.0fe861cdc1f23p-7
345=0x1.2913e23147feap-6
385=0x1.060196b0e0ecap-2
387=-0x1.bde6060c8a2a7p+1
392=-0x1.b3b985fef53bep-3
393=0x1.30e57227d425ap+2
394=-0x1.509f105c8184dp+0
395=-0x1.80c7db78cacd1p-5
397=0x1.0031b66022b68p-6
399=-0x1.11152fcc0736ep-9
401=-0x1.abf13f7626a24p-10
406=-0x1.11152fcc0736ep-9
408=-0x1.abf13f7626a24p-10
413=-0x1.11152fcc0736ep-9
415=-0x1.abf13f7626a24p-10
420=0x1.235a03449f553p-2
421=-0x1.b1e7042b50d82p-5
428=-0x1.72ad51bbe3614p-1
434=-0x1.3cdbe3b89cefp+0
439=0x1.615f86ea63b19p-1
441=0x1.235a03449f553p-2
442=-0x1.b1e7042b50d82p-5
453=0x1.506cba08b21c2p+0
455=-0x1.de4da016102afp-3
456=0x1.9b72513146642p-3
457=0x1.29517fa278dfbp+1
458=-0x1.25939198ee017p+1
461=-0x1.c79c103e1dc1p-1
462=0x1.c9afa38bac42ep-1
463=-0x1.d6486c7a2890fp-2
464=0x1.ec7b4b8f5471dp-3
469=-0x1.11152fcc0736ep-9
471=-0x1.abf13f7626a24p-10
476=0x1.63292807f76ccp-7
477=0x1.8f757e1ffb8a3p-1
478=-0x1.3c5107ecdfbf2p-7
480=-0x1.81c5c9de3c763p+0
483=-0x1.11152fcc0736ep-9
485=-0x1.abf13f7626a24p-10
490=0x1.28d84f349c79dp+0
492=0x1.d23598012b537p-17
497=-0x1.99c818594e177p-4
498=0x1.04b588b55754bp-4
504=-0x1.11152fcc0736ep-9
506=-0x1.abf13f7626a24p-10
512=0x1.879c1656e7c86p-8
518=-0x1.9700220f05b1p-7
520=0x1.84e7df6cf882cp-4
525=-0x1.0ba65a5cb29c1p-2
532=0x1.9491c07af1a39p-7
533=0x1.32986f66a10eap+0
534=0x1.18c88a3e100acp-9
546=-0x1.11152fcc0736ep-9
548=-0x1.abf13f7626a24p-10
553=0x1.39d84987bdc88p-8
554=0x1.0bb1b3c379947p+0
561=0x1.ae303380a7302p-2
574=-0x1.b8d24d9d3b423p-2
575=0x1.b05d867631e4cp-1
576=-0x1.adf697d36c882p-2
578=-0x1.d5ea283a6a0dp-2
580=0x1.ee9185f52f873p-2
581=-0x1.11152fcc0736ep-9
583=-0x1.abf13f7626a24p-10
588=-0x1.69a9210603bbfp-5
589=0x1.266c76e96c383p+0
590=-0x1.d95680fcbaae3p-4
595=-0x1.682e12cc59e9ap-6
597=-0x1.075201a9517f9p-6
602=0x1.2faf5910fd6d6p-3
604=0x1.b35449808c4efp-3
607=0x1.a2c0e8448d8fep-8
609=0x1.2faf5910fd6d6p-3
611=0x1.b35449808c4efp-3
614=0x1.a2c0e8448d8fep-8
616=0x1.2faf5910fd6d6p-3
618=0x1.b35449808c4efp-3
621=0x1.a2c0e8448d8fep-8
623=-0x1.4c5e1a24daec5p-2
625=0x1.5262bf3afc695p-18
630=0x1.41db5beb3f1a2p+1
632=-0x1.80b53b28e5111p+0
644=0x1.2b435bb1f9f33p+0
653=0x1.ddffa56e79cd2p-14
665=0x1.2b435bb1f9f33p+0
672=0x1.2faf5910fd6d6p-3
674=0x1.b35449808c4efp-3
677=0x1.a2c0e8448d8fep-8
681=0x1.da2b4cfe07a84p-3
682=0x1.384c7f56ae09ep+1
683=-0x1.3179094076f74p-3
686=0x1.2faf5910fd6d6p-3
688=0x1.b35449808c4efp-3
691=0x1.a2c0e8448d8fep-8
693=-0x1.8afd964439a2ep-2
694=-0x1.8179ec69d9996p-1
695=0x1.f30a4cd87a1fcp-1
699=-0x1.080771e41142p-3
700=0x1.2faf5910fd6d6p-3
702=0x1.b35449808c4efp-3
705=0x1.a2c0e8448d8fep-8
709=0x1.7593d09694f3ap-2
714=-0x1.01b31bd516cd9p-19
716=0x1.18010d3ec676dp-3
719=0x1.5542b27e50bf6p+0
721=0x1.0dce74885b558p-1
728=0x1.2faf5910fd6d6p-3
730=0x1.b35449808c4efp-3
733=0x1.a2c0e8448d8fep-8
735=0x1.e24237cf460aap-1
736=-0x1.9e3f480eebb48p-9
749=0x1.4abe380f00525p-7
756=0x1.2faf5910fd6d6p-3
758=0x1.b35449808c4efp-3
761=0x1.a2c0e8448d8fep-8
763=-0x1.b815f3f065f8bp-2
764=-0x1.b1f1ebe677e5p+1
765=0x1.6c678eec4e107p+0
766=0x1.48250f012bb96p-2
770=0x1.2b496537df4ap-4
771=-0x1.7c3254bd72e98p-1
772=0x1.86a0458a60248p+0
776=-0x1.605abe6283544p-4
778=0x1.81223e5dd0d7ep-2
791=-0x1.83051d37a3262p+0
798=0x1.224e90c82bf27p-10
801=0x1.39236906b79b2p-6
804=-0x1.bd5416bca2974p-11
805=0x1.224e90c82bf27p-10
808=0x1.39236906b79b2p-6
811=-0x1.bd5416bca2974p-11
813=0x1.602a6d23f39ecp-7
834=0x1.602a6d23f39ecp-7
847=-0x1.d2de53c83675ep-1
848=0x1.c15f1e2dacebep+1
849=-0x1.980d7c261d579p-1
850=0x1.037ce6dbb98c4p-3
854=0x1.35a2c564d0686p-10
855=-0x1.2364072fd1101p-6
856=0x1.ac35c5375da93p-5
862=0x1.4ed33dd54965bp-3
863=0x1.00dbbc834305cp-4
868=0x1.66744da1b6488p-3
869=-0x1.207841901ca56p-4
870=-0x1.b0cddc6687addp-3
875=0x1.9bdd3cdadbf9dp-2
903=0x1.78969e3fc5761p-4
905=-0x1.585a9d077c801p-6
910=-0x1.305d9df2e18e6p-4
911=0x1.ac8b95f053459p-2
917=0x1.656fa4cfca74bp-5
924=0x1.4a628b86ac28fp-2
929=-0x1.57b6669915416p-7
931=-0x1.646fb0ffa5149p-1
933=0x1.3d84373bf94b2p-7
937=0x1.7c8987576ca7ap+0
938=0x1.b1ffd21227b36p-2
952=0x1.4b64337e14fedp+0
966=0x1.738058cd5b015p+0
980=0x1.1dcc5b4f26504p-9
1004=-0x1.9d70ef6d16e4ep+0
1015=-0x1.6e6dc200ecdecp-2
1019=0x1.140bb6a67fac3p+1
1024=-0x1.a629b33653208p-20
1029=0x1.243b560a9bb74p-1
1031=-0x1.eade40be467d2p-5
1032=0x1.7e4dc4a04a669p-1
1038=-0x1.068b0a03c50c1p-1
1045=0x1.0b73c915fefcap-1
1052=0x1.0b73c915fefcap-1
1071=-0x1.9644fbd8c6fe6p-3
1115=-0x1.b301eef697e0cp-2
1120=-0x1.14250f9641ffdp-1
1122=0x1.9a8d96f9951eep-2
1123=0x1.453f1d5b1eb61p+1
1124=0x1.bed50aa9a8936p-9
1125=-0x1.6b468c477e5bbp-5
1127=-0x1.16ddf75d331efp-2
1129=0x1.0cb493c6fcc1bp-1
1134=0x1.917aca794ede6p-1
1141=-0x1.6aacead28cd29p+0
1143=0x1.093329caf226dp-2
1145=0x1.00e2d326cd26p-2
1148=-0x1.d0bdf44a078a1p-1
1150=0x1.8707ac174a80cp+0
1157=0x1.1351ea2f29c6fp-3
1162=-0x1.0e6e0f08dd739p-4
1164=0x1.cd7ac2c28ca76p-2
1204=0x1.f60f34404cde8p-11
1206=-0x1.6ed2676050787p-3
1211=0x1.10defd8f97be6p-1
1242=0x1.157a24596f568p-1
1267=-0x1.bd274ec02a41bp-3
1268=-0x1.a4e0b0b8733efp+0
1269=0x1.2dc9a74637e66p-1
1271=0x1.797b882e9ec9bp-1
1274=0x1.d32d1e5ae624ep-11
1276=-0x1.e9197206e745p-4
1278=0x1.e6b41d081c4cfp+0
1281=0x1.19279956eef3bp-10
1288=0x1.54d467af751a1p-9
1302=0x1.54d467af751a1p-9
1365=-0x1.3bc0c59f97187p-3
1366=0x1.d268e722f6867p-3
1379=-0x1.3bc0c59f97187p-3
1380=0x1.d268e722f6867p-3
1396=0x1.d2eeb32500db3p+0
1423=-0x1.abdc3cd14a05dp-2
1425=0x1.1a9af5c8213fcp+0
1535=-0x1.5f9c897d96a8ap-2
1540=-0x1.ca0bbfc2ce6cdp-5
1541=0x1.4d22877bab7abp-3
1596=0x1.f30887af13f09p-2
1680=-0x1.8ffc79fedc0a3p-3
1681=-0x1.262b8e43f46f7p-4
1682=0x1.37c735b14ef96p-1
1688=-0x1.0d875dd074121p-3
1694=0x1.9a4c0e2edd2c5p-1
1695=-0x1.6ef683eb1c975p-4
1715=0x1.9a4c0e2edd2c5p-1
1716=-0x1.6ef683eb1c975p-4
1731=0x1.426130f1f88bfp+0
1738=0x1.145ba7775f26fp-3
1779=0x1.fc7ea6028afbap-2
1780=-0x1.0b43c2f06e154p-2
1792=0x1.521856a721e5ap-3
1793=-0x1.2e2490fbdae69p-2
1794=0x1.5c34b4b5bd855p-3
1814=0x1.842f8b6e85183p-2
1815=-0x1.4bc15f0b4135fp-11
1819=0x1.1f4570af6d3dap-1
1828=0x1.4b66cf4078efcp-1
1836=0x1.700eb1b8e78dep-7
1842=0x1.dc17e7d34b922p-2
1849=0x1.fc7ea6028afbap-2
1850=-0x1.0b43c2f06e154p-2
1856=0x1.fc7ea6028afbap-2
1857=-0x1.0b43c2f06e154p-2
1862=0x1.77000fef7fa52p-2
1876=0x1.c0ddc7a72f5eap+1
1898=-0x1.7031a33945e38p-2
1903=0x1.1ca984d0f5746p-11
1904=0x1.77000fef7fa52p-2
1911=0x1.77000fef7fa52p-2
1918=0x1.77000fef7fa52p-2
1928=0x1.ebe9b642f8accp+0
1933=0x1.d95d544724a6fp-3
1953=-0x1.02e9101d09e62p-7
1954=0x1.ce9786e037b3bp+1
1982=-0x1.3ce72c7f2a049p+1
1987=0x1.955411c7c3867p-2
1991=0x1.ebe9b642f8accp+0
1998=0x1.ebe9b642f8accp+0
2005=0x1.ebe9b642f8accp+0
2010=0x1.a6bd47aec2671p-2
2012=0x1.8124a844e8a97p-2
2016=0x1.a906671c6f3e3p-3
2023=0x1.d020b51ba536cp-2
2024=0x1.1181ace4f0939p+0
2025=-0x1.09aae8e1b9554p+0
2030=0x1.dc0d8024754c3p+1
2032=-0x1.90493b250c9b6p-3
2044=0x1.e094318e8d10ap-4
2052=0x1.f0813af102ebbp+0
2065=0x1.e094318e8d10ap-4
2072=-0x1.b453cd15699cap-1
2074=0x1.252c8082a1fb5p-3
2079=0x1.d020b51ba536cp-2
2080=0x1.1181ace4f0939p+0
2081=-0x1.09aae8e1b9554p+0
2086=0x1.d020b51ba536cp-2
2087=0x1.1181ace4f0939p+0
2088=-0x1.09aae8e1b9554p+0
2095=0x1.4a1df1e2138eep-2
2144=0x1.b3415e55f18d3p-2
2151=0x1.b3415e55f18d3p-2
2158=0x1.4da0498a842bbp-2
2165=0x1.b3415e55f18d3p-2
2172=0x1.b3415e55f18d3p-2
2179=0x1.4da0498a842bbp-2
2191=0x1.8f45c1df339dp+0
2240=-0x1.a50dcb90cd08ep+0
2242=0x1.e91a108c0dab4p+0
2289=0x1.6929592830afcp+0
2290=-0x1.1deb210283474p+0
2296=0x1.3d9146cc9bfffp+0
2324=0x1.188ab33c636c1p+0
2332=-0x1.71c5ebb9215cbp-5
2337=0x1.d6a206e7a8d6dp-1
2341=0x1.68406f0c4160ap+0
2346=-0x1.2185ad4521cd5p+1
2388=-0x1.ffc40d3b197bep+1
2389=-0x1.461c7f73b0686p-6
2390=0x1.1be3b3a5bdb12p+0
2393=0x1.e1e4315ebf3e3p-1
2404=0x1.52d0e7c8b5fe4p+0
2443=-0x1.963510cbe63cap+1
2445=-0x1.57c3a9ebe12d9p-1
2446=0x1.4c532354307aep-5
2449=0x1.c49c8c4ba808dp-1
2450=0x1.4fb0225fd0a0ep+1
2452=-0x1.f466e9ac424ffp+1
2457=-0x1.095e43abb2e96p+2
2458=0x1.55d36a53043fp+1
2464=-0x1.d47fe12c3603p-1
2513=0x1.1ce798f1834d5p-3
2522=-0x1.af345737f6725p+1
2523=0x1.939efa3c181bfp-1
2529=-0x1.dcee48d6ab2c7p+2
2555=-0x1.a8b246b0260d1p+1
2576=0x1.fa9e23cfb993p-1
2604=0x1.a4d9745d3b0b1p-1
2606=-0x1.3079a76d5098cp-11
2611=0x1.a4d9745d3b0b1p-1
2613=-0x1.3079a76d5098cp-11
2625=0x1.32a1514e027c5p-2
2635=0x1.0974551b60b8dp+1
2639=-0x1.f9aeb4d349b9p-12
2769=0x1.94f26be98c7dap+1
2807=0x1.7ae3179760311p-3
2814=0x1.296069caeab32p-3
2898=-0x1.47e3c02681c86p+0
2900=0x1.c012d067a0341p-1
2975=-0x1.89cd8dd5fc79fp-1
2977=0x1.cf8ab28c4b222p-2
2983=-0x1.4825142694e8p-4
2984=0x1.5fe284462c1fbp+1
3011=-0x1.0a524fade2fabp-4
3061=0x1.8cf0500aa1f2cp-1
3068=0x1.0d514b175113p-7
3096=0x1.929591e2d5e41p+0
3143=-0x1.2e1154761448dp-2
3164=-0x1.56700c7ae3948p-2
3165=0x1.99e31dad19108p-12
3222=-0x1.092bd3e3fcf38p-2
3224=0x1.993dc9a3ab80dp-1
3242=-0x1.3cb63c4b9c16dp+0
3297=0x1.ca2678afd9cc3p-2
3325=-0x1.f6832ddc82f56p-10
3327=0x1.2a071c4f4e7c5p+0
3332=0x1.d257345e38323p-3
3411=0x1.bbd86d741800ep-2
3465=-0x1.56fcab04c3532p-1
3467=0x1.b1e1d82b337ccp-1
3535=0x1.537bbddb65f72p-4
3547=-0x1.a980891c6ec95p-1
3640=0x1.be9c24b70d8f3p+0
3805=0x1.262f97a151fe1p+0
3871=0x1.25bf33dcaa4a8p+0
4002=0x1.f5109214e7b2cp-2
4025=0x1.cced518d5e1a4p-1
4027=-0x1.3967751a35f5dp-1
4032=-0x1.54fafe9905791p-10
4033=0x1.a671d43bbb1f7p-5
4046=-0x1.54fafe9905791p-10
4047=0x1.a671d43bbb1f7p-5
4074=0x1.d491dbd875d65p-12
4089=-0x1.7de265e995d0ep-5
4095=0x1.900d07380c72cp-2
4096=-0x1.32d55786847a3p-3
4109=0x1.900d07380c72cp-2
4110=-0x1.32d55786847a3p-3
4123=-0x1.f714e152e0919p-3
4125=0x1.0882b14616f6dp+0
4151=0x1.485285110dd4fp-1
4186=-0x1.a9f2d41583dfdp-9
4188=0x1.3d3bdb31bd565p-1
4214=0x1.bc516faf3ad0bp-3
4221=-0x1.0d817a833ebcbp-2
4222=0x1.f6d15b5a298f8p+1
4247=0x1.21617bd5e15f1p+3
4261=0x1.fd89988487037p+0
4263=0x1.8e60efc101a8p-1
4264=-0x1.9e043c8b14535p+0
4270=0x1.9174721ec8e85p-2
4272=-0x1.07441f8ac4324p-5
4284=0x1.3c8965799c885p+2
4354=-0x1.abb48a86a0097p-2
4356=0x1.11438100accdep-1
4368=0x1.68e84edec2519p-2
4382=0x1.68e84edec2519p-2
4398=0x1.c8f008bbeb4d9p-6
4412=0x1.85a97e5bf8d26p-4
4641=0x1.922fede9adedcp-4
4760=0x1.576decc694a38p+0
4827=0x1.668033742409cp-2
4855=0x1.668033742409cp-2
4986=0x1.41847b6deaeb9p-4
5040=0x1.60cf4528da3e6p-6
5061=-0x1.92b5973bf99b1p-6
5063=0x1.3390934c0c85fp-3
5117=-0x1.d1227744e6c6dp-6
5467=0x1.0005ce5373ae3p+1
5481=0x1.0005ce5373ae3p+1
5491=0x1.22a3c45b7fb81p+0
5498=0x1.3cb45be0d5e12p-1
5505=0x1.22a3c45b7fb81p+0
5519=0x1.22a3c45b7fb81p+0
6006=0x1.22967635894f6p+1
6076=-0x1.0fe672a0a413ap-1
6412=-0x1.4ff34452f19aap-2
6413=0x1.a3061e6ef2543p+2
7086=0x1.2c394290c17d9p+0
7422=0x1.b31d392d2cb37p-1
7462=-0x1.19b09ceff4744p-2
7463=0x1.49645373c8d79p+0
8218=-0x1.f8758503dc582p-4
8220=0x1.20f36dda4f449p-3
8281=0x1.4ff40a8f01bbfp-4
8282=-0x1.8b98cfe94d256p-1
8400=-0x1.89a9eaa601965p-2
8402=0x1.10e972174d195p-1
8605=-0x1.286c6f0f7acc2p-2
8953=-0x1.539130aac27d9p-3
8954=0x1.6442532384ap-1
9457=0x1.8b76138478ecap+0
9478=-0x1.54f474bf645c5p-1
9499=-0x1.d5a98a6c5bb32p-2
9500=0x1.5065c7b5c6faep+1
9527=0x1.b9350d8535de3p-1
9529=-0x1.1adf57b621efbp-1
9548=0x1.b9350d8535de3p-1
9550=-0x1.1adf57b621efbp-1
9556=-0x1.4dd1381bc2244p-1
9870=-0x1.ee58b72772993p-4
9871=0x1.b14dc0d210388p-1
9996=0x1.ad33722f35f0cp-5
10010=0x1.ad33722f35f0cp-5
10031=0x1.ad33722f35f0cp-5
10066=0x1.d683521fc7241p-12
10094=-0x1.89bd96cc86e84p-2
10096=0x1.96e352eb90d53p-1
10110=-0x1.92c36374f466bp+0
10131=-0x1.92c36374f466bp+0
10178=-0x1.715894a52da97p-10
10184=0x1.015c302f29e0ep-10
10327=0x1.7feffe9ac0e2dp-1
10334=0x1.7feffe9ac0e2dp-1
10341=0x1.7feffe9ac0e2dp-1
10348=0x1.7feffe9ac0e2dp-1
10353=0x1.b89bf7df62c9ap-1
10354=-0x1.85229bf008fe2p-3
10395=-0x1.982731f7c6bbep-8
10397=0x1.334e16d315f64p-8
10402=-0x1.3a3d441ca2978p-8
10404=0x1.6fea28725a3e2p-8
10410=0x1.13e929276a7e3p-3
10465=0x1.8a5fd369b6d46p-3
10466=-0x1.93d49dfc9fbe3p-2
10486=-0x1.0880162416fd2p-6
10488=0x1.fec2a5385391p-3
10556=0x1.98c1f492beee6p+0
10598=-0x1.f87a6e563e92ep-13
10600=0x1.acdf19f56669bp-1
10656=0x1.55be9fcad74cp+2
10699=-0x1.a4f4c29cf1fecp+0
10702=0x1.3dda7901605ebp-5
10706=-0x1.a4f4c29cf1fecp+0
10709=0x1.3dda7901605ebp-5
10713=-0x1.4ab12ba2fb5f4p-1
10716=0x1.44a05a56d797bp-5
10717=-0x1.df4b5f8129dddp-3
10719=0x1.978bc190aab56p+0
11207=0x1.74151bdd073e4p+0
11242=-0x1.12223b044d7bep+0
14835=0x1.4b3314cb642ebp-2
14849=0x1.4b3314cb642ebp-2
15281=0x1.6d74b085d21f3p-4
15904=-0x1.85c10dc21597p-1
15918=-0x1.1d877cfcf8dc1p-1
15932=0x1.9d061b337e7b8p-2
15939=0x1.9d061b337e7b8p-2
16975=0x1.9bed7b7cace09p+1
16982=0x1.9bed7b7cace09p+1
17005=0x1.7d2e2ebbbff7p+1
17012=0x1.7dab397516decp+1
17038=-0x1.40470429b4d5ep-1
17039=0x1.9c7cbcac7e746p-1
17052=-0x1.40470429b4d5ep-1
17053=0x1.9c7cbcac7e746p-1
18270=0x1.8ec8e31461085p+0
18517=-0x1.0a167634723d4p-2
19908=-0x1.a646af78bc5fbp-3
20601=0x1.29b42b87a8f7cp+0
20608=0x1.29b42b87a8f7cp+0
20615=0x1.29b42b87a8f7cp+0
20624=0x1.8b6f0645b6755p+0
20631=0x1.8b6f0645b6755p+0
21658=-0x1.fbce16996cbbfp-2
21660=0x1.c7b7acd1c3586p+0
21665=-0x1.fbce16996cbbfp-2
21667=0x1.c7b7acd1c3586p+0
21896=0x1.461530b1b03dap+1
21897=-0x1.f9632afc96f25p-4
21903=-0x1.5e41876d6799dp-3
21905=0x1.745ae7b8fcadcp-2
21912=0x1.7469efdc5079dp-2
21919=0x1.7469efdc5079dp-2
21924=-0x1.5e41876d6799dp-3
21926=0x1.745ae7b8fcadcp-2
21933=0x1.7469efdc5079dp-2
22372=0x1.13efb43df2044p+0
22379=0x1.13efb43df2044p+0
22386=0x1.13efb43df2044p+0
22393=0x1.13efb43df2044p+0
22402=0x1.8d0fee46bc431p-2
22409=0x1.8d0fee46bc431p-2
22416=0x1.8d0fee46bc431p-2
22423=0x1.8d0fee46bc431p-2
22430=0x1.8d0fee46bc431p-2
24395=0x1.5f10d71a34698p-2
24396=-0x1.c20c53c35d658p-2
24402=0x1.a71f41140092p+0
24403=-0x1.ec32626b9785dp-1
24409=-0x1.39f002403e048p-2
24411=0x1.26f37d6e49b1ap+0
24416=-0x1.39f002403e048p-2
24418=0x1.26f37d6e49b1ap+0
24737=0x1.0efe1dfa2164bp-1
24794=0x1.cb5e1091e4ea8p-1
24795=-0x1.316ba1d5a5f35p-6
25032=0x1.57395ccf09811p+0
25039=0x1.57395ccf09811p+0
25046=-0x1.7061bcdf8ca12p+0
25048=0x1.9b07b263064dbp+0
25438=0x1.00c49e628c14fp-1
25445=0x1.00c49e628c14fp-1
25494=-0x1.b66d8700ef875p-1
25495=0x1.f8f0ef4c74af6p+1
26357=0x1.a88de59448696p-2
26371=0x1.b8657c3326834p-2
26525=0x1.da20b037fa6e3p-2
26532=0x1.da20b037fa6e3p-2
26621=-0x1.6edbaa283816p-7
26622=0x1.9ae414b80fb18p+1
27671=-0x1.3fdb52a154975p-2
27672=0x1.8f4d7c44dc15bp-1
27685=0x1.10290478384bap-5
27687=-0x1.ca949ca3e1ab5p-6
27692=0x1.10290478384bap-5
27694=-0x1.ca949ca3e1ab5p-6
28059=-0x1.31a151e725a41p-12
28149=-0x1.a5941580fb8a9p+0
28175=0x1.d5d99d5bad737p-3
28182=0x1.c78389463e886p-3
28189=-0x1.09dc093fcfa19p-9
28364=0x1.2a4be881db238p+1
28399=0x1.bd3f0fc25a3d5p-2
28415=0x1.87d93e0c09847p-1
28422=0x1.87d93e0c09847p-1
28427=-0x1.dcec31edded1dp-7
28429=0x1.d6c561fd7cadp-2
28434=-0x1.dcec31edded1dp-7
28436=0x1.d6c561fd7cadp-2
28469=0x1.6efa8bc4a18cp-3
28472=-0x1.31a01f6fb93b7p-12
28476=0x1.6efa8bc4a18cp-3
28479=-0x1.31a01f6fb93b7p-12
28483=0x1.6efa8bc4a18cp-3
28486=-0x1.31a01f6fb93b7p-12
28490=0x1.6efa8bc4a18cp-3
28493=-0x1.31a01f6fb93b7p-12
28497=0x1.6efa8bc4a18cp-3
28500=-0x1.31a01f6fb93b7p-12
28504=0x1.6efa8bc4a18cp-3
28507=-0x1.31a01f6fb93b7p-12
28513=0x1.56f378b291ee1p-1
28520=0x1.56f378b291ee1p-1
28527=0x1.56f378b291ee1p-1
28534=0x1.56f378b291ee1p-1
28541=0x1.7992bcb5b4f5ep-1
28668=-0x1.12f2f5bb6f21fp+1
28770=-0x1.dc4477583dd38p-12
28772=0x1.2173d078282d5p+1
28869=0x1.866682f7f3b2fp+2
28903=0x1.6232795b8def7p+0
28905=-0x1.5418dbc54f4ffp-7
28917=0x1.428376968dfcfp+0
28919=-0x1.26668c2931d7ap-10
28931=-0x1.12b5bf1da3fa9p-9
28937=0x1.1c55b530a55e4p-7
28938=-0x1.12b5bf1da3fa9p-9
28944=0x1.1c55b530a55e4p-7
28945=-0x1.fc85c5e3346b4p-7
28951=0x1.d91cba7926bd6p+0
28952=-0x1.12b5bf1da3fa9p-9
28958=0x1.1c55b530a55e4p-7
28959=-0x1.12b5bf1da3fa9p-9
28965=0x1.1c55b530a55e4p-7
28966=-0x1.12b5bf1da3fa9p-9
28972=0x1.1c55b530a55e4p-7
28973=-0x1.12b5bf1da3fa9p-9
28979=0x1.1c55b530a55e4p-7
28980=-0x1.12b5bf1da3fa9p-9
28986=0x1.1c55b530a55e4p-7
29070=0x1.021876086e24dp-1
29486=-0x1.9d295ca28963ep+0
29512=0x1.199c92e1104b4p-1
29620=0x1.520ff22f75197p-3
29630=0x1.1081bb6a55de5p-1
29637=0x1.1081bb6a55de5p-1
29644=0x1.1081bb6a55de5p-1
29651=0x1.1081bb6a55de5p-1
29658=0x1.1081bb6a55de5p-1
29662=0x1.520ff22f75197p-3
29669=0x1.520ff22f75197p-3
29676=0x1.520ff22f75197p-3
29680=0x1.a34f00507652p+0
29708=0x1.a34f00507652p+0
29715=0x1.a34f00507652p+0
29729=0x1.672b0b8ba2366p-2
29736=0x1.672b0b8ba2366p-2
29764=0x1.70a66a27d9f1cp+0
30653=0x1.c2eef71e9d945p+1
30654=-0x1.874f03ad85d0cp+1
30716=0x1.5f430fd73286ap+0
30717=-0x1.b86c4f3924412p-1
30723=0x1.5f430fd73286ap+0
30724=-0x1.b86c4f3924412p-1
30732=0x1.e2d1a08c8310ep+1
30735=-0x1.9476be904c1bp-1
30744=-0x1.6ec1330e9de76p-1
30746=0x1.1267cae0de91ep-1
30751=-0x1.6ec1330e9de76p-1
30753=0x1.1267cae0de91ep-1
31191=0x1.0b0e5b744775cp+2
31227=0x1.b586158ecc2cfp-1
31234=0x1.3fa651342cc17p-5
31241=0x1.3fa651342cc17p-5
31248=0x1.3fa651342cc17p-5
31255=0x1.3fa651342cc17p-5
31262=0x1.3fa651342cc17p-5
32228=0x1.c448c89c94a46p-2
32235=0x1.c448c89c94a46p-2
32245=0x1.a5108773121abp-2
32257=0x1.4c6d7cec9103cp-1
32271=0x1.4c6d7cec9103cp-1
32284=0x1.4461ec26d2886p-1
32298=0x1.4461ec26d2886p-1
32370=-0x1.90c427238b35cp+0
32384=-0x1.90c427238b35cp+0
33208=0x1.7525877129f27p-2
33351=0x1.8b46454908b3dp-1
33439=0x1.6cf4e48f6fab1p+1
33852=0x1.f2439620f71abp-2
